solver_type L2R_L2LOSS_SVC_DUAL
nr_class 2
label 1 -1
nr_feature 1448
bias 1
w
0.004084190587923845 
0.004018755684524503 
0 
0.004218169996768333 
0 
-0.001563434028333918 
0.005772059720555789 
0 
0.004138158705716437 
0.0008966868732961604 
-0.002733426667581904 
0.004611931616260489 
0.001685520258244682 
0.02221257591146637 
-0.008431275839155121 
4.336808689942018e-019 
-0.0002427950542742212 
0.02274751921576275 
-0.00244684342649506 
0.0106983748994599 
0 
0 
0 
-0.02421853470587003 
0.0006215997178414476 
0.00187757292921134 
0.009853621566677306 
0.003906397977736266 
1.084202172485504e-019 
-0.01681094949132701 
0 
-0.01760545129139469 
0 
-0.002183646314074892 
-0.01117727094556368 
0 
-0.01583430335503223 
-0.02227989951351674 
-0.002183646314074894 
-0.0116754060464132 
0 
-0.01715438177647339 
0.009733635325961828 
7.444418596332556e-005 
0 
0.01093992092084733 
-0.006660227842112638 
0.00461428767086911 
0 
0 
-0.02182142241086854 
-0.0004800854196898319 
0.01393974802111811 
-0.02733526969978605 
0.001718793439689996 
-0.001237075248516533 
0.009975019093814415 
-0.006995706530234414 
0.002815594857543566 
0.009560180272573644 
0.02338819422881243 
0 
0 
0.0008966868732961606 
0.005538464363858307 
0.004782689984896438 
-0.02835482390926082 
0.0003107998589207241 
-0.03949931146052957 
-0.002939417396499021 
-0.00148985351695712 
0.009732224039540195 
0 
0.001700824642415192 
0 
-0.02909323212534475 
0 
-0.00666022784211264 
-0.03973335107902202 
-0.03470849089304137 
-0.007480908812998644 
-0.001920341678759327 
0.003101781853212895 
-0.01236647544291833 
0 
0.01070500142259246 
0.003881575166972244 
0 
0.001178263444746613 
-0.004298456462416975 
-0.002060059161260937 
0.009526365598668185 
0.006669329410273039 
-0.007104129018679708 
-5.421010862427522e-019 
0.003101781853212895 
0.01898777357902456 
-0.02318094461862138 
0 
-0.008425137661305523 
-0.01408526888260833 
0.01279518660995978 
0 
0.008166611798179289 
0 
-0.001126106187379865 
0.004207760507622242 
-0.01263903634677736 
-0.01386667693128062 
0 
-0.002183646314074894 
0.01461701928682088 
7.700263671203223e-005 
0.0007868233081359276 
0.001120125573600635 
0 
0.0005300970829452633 
0 
-0.03290637643074831 
-0.0313368761104845 
-0.0002232710551423368 
0.002274404837008865 
0 
-0.002209454796023955 
0.04026292330476176 
0.004567756509963423 
0.0001289880922050864 
0 
0.008071024856118611 
0.01095118964836486 
-0.01018707321786264 
0.00287665896562175 
0.005863372114491628 
0.003101781853212895 
0.0001540052734240642 
0.004642000193006459 
-0.03295714120942234 
0 
0.01583978839883492 
0 
0 
0.005391481635929657 
0.05206398621993739 
-0.0001213975271371107 
0.001840672739787801 
-0.01162703926183743 
-0.002826916401757387 
0.004851525371744002 
-0.01332925004477433 
-0.02100568937758416 
0.002815594857543567 
-0.002183646314074894 
-0.001992939171411131 
0.004642000193006459 
7.700263671203233e-005 
-0.003316963005535232 
-0.004090769355320715 
0 
-0.0001675396820170281 
0 
0 
-0.002183646314074894 
0 
0 
0.002659849470090168 
-0.005838203847895268 
-0.00936125946448222 
-0.004171913144549662 
-0.0004980542169646376 
0.02961322554185291 
0.009023051890459419 
-0.00247795927353315 
0 
-0.01659058203408222 
-0.007430759325460333 
-0.0363960230729848 
0.004642000193006459 
-0.004648862227833265 
-0.0181248015542189 
-0.01290537560590293 
-0.0001213975271371106 
7.700263671203223e-005 
-0.0004800854196898317 
0.01152609057486308 
0 
0.0008966868732961606 
0.001718793439689996 
0.0005971786679928626 
-0.04618609612216133 
0.004084190587923845 
0.007584902192399661 
7.444418596332556e-005 
0.001041676284923565 
0 
0.004084190587923844 
-0.002369325671107471 
-0.0002232710551423368 
-0.00455072368030618 
0.003240935665016093 
0 
0 
0.004810664911660213 
0.05390421361430777 
0.00348742212433762 
0.00420776050762224 
-0.01612553330873669 
0.02185843615159279 
0 
0 
-0.000963208681569095 
-0.01032446814605132 
-0.003769564841027199 
-0.005702665426658005 
0.001900544273848951 
1.084202172485504e-019 
-0.005123063710573911 
0.02338819422881244 
0 
0.002174902675503046 
-0.004256148948482994 
0 
0.0621223793164488 
0.0008560198789266598 
-0.02539947022069183 
0 
0.00246943065126779 
-0.007332157106120439 
1.084202172485504e-019 
0 
-0.004171913144549662 
0.005209442714216825 
0.02608527168870149 
-0.01535752830794135 
0.007740983867674765 
0.1220995472513715 
0.002546433287979823 
-4.336808689942018e-019 
7.700263671203223e-005 
-0.0005541708504972597 
-0.001066855512043022 
-0.004269054202624249 
-0.003904636359810224 
0.0002565480387972156 
0.01251014122888286 
0.002751800986893025 
-0.00419602736505556 
-1.084202172485504e-019 
0.01629003369524383 
0.000530097082945263 
0.005554211305009876 
0 
0 
0 
-0.001640436665045951 
-0.04002958199152514 
-0.02372183757723435 
0 
-0.04661615325246275 
-0.006799594166524557 
-0.004669994282449914 
0.0001540052734240645 
0.01898777357902456 
0 
0 
5.421010862427522e-020 
-0.00223758191544633 
0 
0 
0 
0.008726190780930308 
-0.01162963413330315 
0.001041676284923565 
-0.001066855512043022 
-0.01203240479661201 
0 
0.01157423617800411 
0 
-0.0006460207676900336 
0 
-0.004367292628149787 
0.03678586477341858 
0.002240251147201271 
0.001217751101507181 
0 
-0.01975261331373966 
-0.005896921175434764 
0 
0.007111430844274248 
-0.01932452910587794 
-0.03882522955842742 
0.004780090136286822 
-0.0001213975271371106 
0.006886895216453834 
0.0001540052734240645 
0.01816353386798572 
0 
0.005525110651404368 
-0.002939417396499021 
0.004107516456973368 
0 
0.002374694689066656 
0.0009513751448628525 
7.700263671203233e-005 
-0.002369325671107471 
0.03406209575160558 
0.00586337211449163 
-0.003334931802810039 
0.007522360408157656 
0 
-0.03361670409474572 
-0.001066855512043022 
-0.001920007832334584 
0.0007502059194656543 
0.01044915063568461 
-0.005324325647341049 
-0.005497319029406284 
-0.008798678870275464 
-0.003757776870584166 
-0.01408519281409129 
-0.004617323080197505 
0.009715380303010973 
0.005812281568446648 
0 
0 
7.700263671203223e-005 
7.700263671203233e-005 
-0.0006836478430534968 
-2.168404344971009e-019 
-0.0006460207676900336 
0.01898777357902456 
0.03437807695564572 
0 
0.004780090136286822 
0.009751748038672077 
0 
0 
-0.01666236628220741 
-0.0005296425696294315 
0.0008966868732961606 
0.02420631263132329 
0.00969254869711127 
0.007791372779739523 
0 
0.01098365384271261 
0 
0 
-0.02246705427745242 
-0.02010657246446282 
-0.01530119917044788 
-0.01226654083683172 
-0.01386667693128062 
0 
0.09291996804548715 
7.444418596332556e-005 
0 
0.0007797933137593464 
-0.002183646314074894 
0.004770988285211546 
-0.008087047968347432 
0 
-0.01408526888260833 
-0.001252592290194721 
-0.07405067885181908 
0.01154411944111158 
-0.04116062616601751 
0 
0.01414451306185777 
-0.004837158508074477 
0 
-0.007753868066706343 
-0.01324548293353857 
7.700263671203223e-005 
-0.01273572137226311 
0 
0.001714864916816374 
-0.01332268418983085 
0.02621448495676653 
-0.008843874156187526 
0.01629003369524383 
0 
-0.02685446508948727 
0 
0.00246943065126779 
-0.02095366039925378 
5.421010862427522e-019 
0 
0.03739448042520883 
0 
0.02394333778722014 
0.00326105352103098 
0 
0.007354021225835287 
-0.002502661768092033 
0.004713053778986452 
0 
0.002174902675503046 
0.0002708214267544277 
0.0005300970829452631 
0.01500760091130893 
0.0009357116800625794 
0.0002733798775031338 
0.005015863939247614 
-7.187518909922063e-005 
-0.01241127393095548 
7.700263671203223e-005 
0.01593656860428642 
0 
-0.001066855512043022 
0.1321386442329581 
-0.127585079126058 
0.00210388025381112 
0.001041676284923565 
7.444418596332556e-005 
-0.01666236628220741 
0 
-0.01020227768566855 
0 
-0.008343826289099323 
-0.03367465904158243 
0 
0.005882012363401407 
0.01479900505175136 
-0.01463626151838477 
0.001041676284923565 
0.0005300970829452631 
0.004093488128756652 
-0.01408526888260833 
-0.0001213975271371106 
-0.01091505826748581 
0 
0 
0.04436713557437887 
-0.0007016166403283012 
-0.004550723680306181 
0.003561739739932205 
-0.01117727094556368 
0.00581124387611625 
-0.002183646314074894 
-0.03570226173992463 
-0.0190397881775881 
-0.003099218327539573 
0.0525687005801719 
-0.0300355552712511 
-0.007609411678948929 
-0.002492978328048488 
0.000786823308135928 
0.01101845005770855 
0.0201040434610529 
0.005538464363858309 
0.0003107998589207241 
-0.01263903634677736 
0 
0.0005409695500393233 
-0.02003084942572185 
0.0001540052734240645 
0.006078885748358718 
0.01173569771179161 
-0.007264133685676039 
-0.001987269073283791 
0.0009761705545504486 
0.005449470094411082 
-0.002662162823670525 
-0.02603067698448717 
-0.02967457820962417 
0.00495280005192718 
-0.001886333121707025 
-0.0006836478430534942 
0 
-0.002662162823670523 
-0.02499155202153907 
0.0007797933137593463 
0.009975019093814415 
-0.0006460207676900319 
-0.008230085119053768 
0.0024181340101594 
0.01938310108109745 
-0.002114951623936849 
0 
-0.01269165731624299 
-0.01429949698238397 
0.004986080865203938 
-0.03164767596940524 
0 
0.0001289880922050858 
0.006553621239191633 
-0.04351051833153456 
-0.02433576323596153 
-0.007658158885557351 
0.007101525663804672 
0.001120125573600635 
0.02001944909489574 
0.004962224925152167 
-0.004738651342214942 
-0.00388669627941122 
-0.01367029969048952 
0.007654771070078634 
-0.01351141292935639 
0.02562437678378076 
0.004512200527387174 
-0.01067290341757865 
-0.01170680532210121 
-0.009876444830642367 
0 
0.02578715995310046 
0.009975019093814415 
-0.02403853397910439 
0.00224025114720127 
-0.002183646314074894 
7.700263671203223e-005 
0.0005300970829452632 
0.001102422728683917 
0.00246943065126779 
-0.03357038686110324 
-0.008668878134121877 
0.01436408707618646 
-0.003187564368503796 
-0.002477743697079901 
-0.01320472090246473 
0.04711660958002876 
7.700263671203223e-005 
0.00499326947078665 
0.02642841575307636 
0 
0 
0.1059474107249043 
0 
-0.004255658792814497 
-0.007227891273193571 
0.0001963772407911021 
-0.01225147696703806 
0.0001289880922050864 
0 
0.000922268506089851 
0.008034001637418933 
-0.01843984639793833 
0 
0.01212809134906747 
-0.006651894808345268 
-0.01503703367190067 
-0.02077173028195778 
0 
0 
0.001718793439689996 
-0.004074267222450736 
0 
0.01544314984318668 
0 
-0.02449171054922063 
0 
-0.008063558238498216 
-0.007695738025633209 
0.0001289880922050865 
-0.01275980206491164 
0 
-0.008533133966656285 
0.01006773854458716 
0 
-0.04053208452772291 
0.01514156194426155 
0 
0 
0 
-0.001269093187442714 
0.0001540052734240645 
0.0007756049912655134 
0.02152202630636614 
-0.01252759700313937 
-0.0001675396820170281 
0.002485702534423771 
-0.02098286263587669 
-0.003200566536129069 
-0.009817424255170655 
0.004677926309556741 
0.0001540052734240641 
-0.0123044453232266 
0.0001289880922050866 
-0.003180760708084095 
-0.001603613941140782 
0 
0 
-0.01230957889762966 
-0.0004727989764353749 
0.0001289880922050866 
-0.001483232957658921 
-0.04928696504012456 
0.001774706035878069 
0.004496788078934744 
0 
-0.002546285269480825 
0.002957501459690162 
0.0427476379709089 
0.01116791007386124 
0 
-0.001511448572840865 
-0.00455072368030618 
7.444418596332556e-005 
-0.01263903634677736 
0.0005300970829452613 
-0.003402270857229013 
-0.001886333121707025 
-0.002939417396499021 
0.005198170188595714 
0 
0.003937922169493541 
0.03688145812036922 
-0.04197093339852948 
0 
0 
0.03919034514240189 
-0.005822951736390433 
0.004605354184326349 
0.00224025114720127 
0 
-0.01723078874288185 
0.0008560198789266598 
0.1230149332900492 
0.01675979081353806 
-0.009137727010574696 
0.01936671066360935 
-0.007430759325460334 
-0.00664505830278427 
0.03091188869591402 
-0.002638098327550675 
0.004780090136286822 
0 
0.0001963772407911021 
-0.005195882936929556 
-0.01202282043982713 
0.004084190587923845 
-0.006355559458624554 
-0.02896696159373428 
0.0001540052734240634 
0.0001963772407911024 
-0.00255004170824584 
0.005353584029406125 
0 
0 
0.006954273941747099 
0.01036003227737457 
-0.001886333121707025 
0.0001963772407911021 
0 
0.01469402192353291 
-0.002885433878812862 
-0.008546636552816683 
0.009073413102567367 
0.003266086809589498 
0.02440800190170047 
0.01061483275672171 
0.0606216199550663 
0.0001963772407911021 
0 
-0.007631547781776831 
0.004780090136286822 
0.009547935454677721 
-0.01332045568422528 
0.009403165042515108 
0.00128402981838999 
-0.0274621786756052 
0.000310799858920724 
-0.007353756688748302 
-0.01408526888260833 
-0.001828118736072618 
-0.01435080867687399 
-0.03741746765155213 
0.001946746370688904 
0.03708926804312137 
0 
0 
0.01789695702366612 
-0.007858946210490533 
0.01059695627402412 
-0.006583225205400606 
7.700263671203223e-005 
-0.002388331501439984 
0.003561739739932205 
0.00420776050762224 
-0.02066433136939141 
0.002268746874434771 
-0.02013114338616275 
-0.001066855512043022 
-0.01664179058973047 
0.01500760091130893 
-0.002662162823670525 
-0.0099040522779794 
-0.01175766958599609 
-0.01386667693128062 
-0.005813519630918717 
0 
-0.02275352624856942 
0.01017139633460551 
0 
0.008168381175847689 
0.01629003369524383 
0 
0.005144384753814372 
0 
-0.00765012512473752 
-0.02279341337527684 
0 
0 
-0.01803859007583029 
-0.0187892040880119 
0 
0.02218997493881641 
-0.009657869353904936 
-0.005997094626480562 
-0.00269425589703147 
2.168404344971009e-018 
0 
0.0001540052734240645 
7.700263671203217e-005 
0 
0 
0.0002310079101360967 
7.444418596332556e-005 
-0.005636811870557297 
0.02918790952824073 
0.01629003369524383 
-0.006168923613596283 
-0.002251255865145439 
-0.002939417396499021 
0 
0.01123753721783729 
-0.0001213975271371106 
0.004780090136286821 
-1.796879727480603e-005 
0 
-0.004319715770170083 
0 
-0.00910144736061236 
-0.02095026270739152 
-0.003772666243414051 
0.01076810148075568 
0 
-0.02440221008411793 
0.02427118742839143 
0.00020599072891712 
0.0245536785813951 
0.01784172208641698 
0.02435165310268109 
0.01821990286038642 
-0.0006836478430534942 
0 
-1.734723475976807e-018 
-0.007942018024087817 
0 
0 
-0.002369325671107471 
-0.004280780568786482 
0.008791860944331471 
0.0101040071860195 
0 
-0.009829186518451992 
0.002755182610724243 
0.001612120698154149 
0.001205963309659122 
0.006558883028691722 
0 
0.002174902675503046 
-0.002662162823670525 
-0.009700215910329935 
-0.01621345216617205 
-0.08668072773712379 
0.01127016302906059 
0.07219670772953118 
0 
0 
0 
0.006750947355620622 
-0.01462754397676132 
0.0005891317223733065 
-0.003549469084119327 
0 
0.04915588542292437 
-0.009641486154303164 
0.02114626953267328 
-8.944667923005412e-019 
0.0003850131835601615 
0.01929857343794531 
-0.00936125946448222 
0.001023375664287713 
0.0001963772407911021 
0.000196377240791102 
-0.00484580913774542 
0 
0.01898777357902456 
-0.01449204273153668 
0.0003107998589207241 
-0.0462895075144346 
0 
0.01053955538870189 
-0.01863599256291452 
0 
-0.002547838895486225 
0.001718793439689998 
-0.0001238225389554562 
0.002644966898642581 
-0.01473741709215039 
0 
0 
-0.0004800854196898317 
0.07633442487927707 
0.0001894023317836134 
0.0003107998589207241 
-0.007621195125209834 
0 
0.004642000193006459 
-0.0233792170698029 
0 
0 
0.01489393361414443 
0.06169620055187434 
0.007672538773279121 
-0.006842043474567144 
-0.00289974498307397 
0 
0.01070679716315852 
0.0005659867312583023 
0.0001540052734240645 
-0.002337073046289668 
0 
0.0401113198516258 
-0.007430759325460334 
-0.004866854095520318 
0.00246943065126779 
-0.01403551958482304 
7.700263671203223e-005 
0.02077966063186472 
0.02980733218907703 
-0.001252592290194721 
-0.001066855512043022 
-0.000963208681569097 
0.00224934686146637 
0.03580799309029088 
0 
-0.002369325671107471 
0.006749121359057663 
0.04677638845762486 
0 
-0.008074620178082687 
0.03492836304017019 
-0.006684949225609045 
-0.01386667693128062 
0 
0.002569535631428111 
0 
-0.0009632086815690968 
0.01093992092084733 
-0.009424897395838532 
0 
0.002046371660141843 
0.007946962396058837 
0 
0 
0 
0.01475510923010124 
-5.421010862427522e-020 
0.00492103201310865 
-0.02109762224844033 
-0.3288273785904138 
-0.01482684777066029 
0.006657654742225579 
-0.02831582761069947 
0.01093992092084733 
-0.01327601457834747 
-0.002905549437833404 
7.700263671203223e-005 
-0.03934551713980201 
-0.009337365278413504 
0.0004682625493990938 
0 
0.01240712741285158 
-0.007357483147973887 
-0.03253388201426231 
1.084202172485504e-019 
0 
0.005013305488498909 
0.002812922847485389 
-0.02445616490016022 
-0.01386667693128062 
-0.00754174517608043 
0.02338819422881243 
0.004780090136286821 
0 
0 
0 
0 
0.01500760091130893 
0 
-0.008161392507932633 
7.444418596332556e-005 
0 
-0.003142248243360356 
0 
0 
-0.05834384859314221 
-0.01445832816967574 
-0.002072627019144613 
-0.01029526561565315 
-0.04805679150152482 
0 
-0.01706556367981709 
0.04484025004614135 
0.002783215875953804 
-0.0007435821465876516 
0.02135143121922962 
0 
0 
0.006826417533350041 
0 
0 
-0.01730065949384076 
-0.01126708998545514 
0.007950660783062245 
-0.007858907271666733 
0 
-0.02798949704156267 
0.005076548806355703 
0 
-0.003239803942359391 
0 
-0.0330903646247233 
0.04392436744792962 
-0.03377403336479427 
-0.002662162823670525 
-0.004465984188600385 
0 
0 
-0.0009632086815690972 
-0.02097766774796836 
0.00231314176485985 
0 
0 
0.0009202787577864551 
0.01349049778902008 
0 
-0.0001213975271371106 
-0.001886333121707025 
0.01020203243293485 
0 
0.005386456370775685 
0 
0.004719002829718492 
0.003148383367707984 
0.004573790715646777 
0.0001289880922050862 
0 
0.01898777357902456 
-0.02431874785709606 
-0.008546636552816681 
0.009931676299080438 
6.505213034913027e-019 
0 
0.0007719774601754203 
0.004820575292902892 
-0.006714077372220646 
-0.007374204566741522 
0.00987772260507116 
0 
7.700263671203223e-005 
0 
-0.01224137118734752 
-0.01468395387643354 
0 
0 
-0.004263439758544126 
-0.01550400955731305 
-4.336808689942018e-019 
0.001718793439689997 
0 
7.700263671203223e-005 
0 
-0.001944768309129288 
0 
0.001041676284923565 
0.001559586627518693 
-0.005970381743919748 
0.00586337211449163 
7.700263671203223e-005 
0.000196377240791102 
0.0006449404610254328 
0.007285147196430105 
0.000786823308135928 
0.00493886130253558 
0 
0.008168381175847689 
0.001325037187471227 
-0.002939417396499021 
0.01349036423680423 
-1.084202172485504e-019 
-0.002375821004803136 
0.004084190587923845 
-0.01672070181051614 
-0.01973606010901609 
-0.00926576537606881 
0.009560180272573644 
-0.008222760850145837 
0 
-0.002369325671107472 
-0.01298505382307109 
0.03752858254334006 
0.003273222179501725 
-0.00936125946448222 
0.006156974951258335 
-0.02586513621796653 
-0.01408526888260833 
0 
0.007731455246443423 
0.01018100982273154 
0.03345439704256931 
0 
0 
-0.006714077372220646 
0.0008966868732961606 
-2.168404344971009e-019 
4.336808689942018e-019 
0.001903811510895308 
0.007586687592374431 
0.04274763797090889 
0 
0.000230960954114303 
0 
0 
0.004994583815758171 
0 
0.00210388025381112 
0 
-0.03493396201367393 
-0.01144228347799074 
-0.01984516783812029 
7.700263671203223e-005 
0.01269409348496009 
-0.002369325671107471 
-0.03890599221834003 
0.003766105716155737 
-0.07997322236304226 
0.0003080105468481289 
0 
0.01145418543938456 
-0.0009436046366606892 
0 
0 
-0.01711639207407937 
-0.01065056830060391 
0 
0.004709179607764024 
0 
-0.009192657320506717 
0.005675792357223142 
0.01136793086031067 
-0.0137562076376292 
-0.002656678081859073 
0 
0.000161803303175541 
0.009975019093814415 
0 
0 
5.421010862427522e-020 
0.006653696118714221 
-0.003316963005535232 
-0.01135103577008796 
0 
0.01363147252772359 
-0.02334997141224957 
-0.0009632086815690972 
0.004084190587923845 
0.0006100917995235243 
0 
0.0008450130135681897 
0.002754577837552608 
0 
-0.0008050453701906064 
-0.002804169927789279 
0.005076548806355703 
-0.00202964104065083 
0.001166216516854432 
-0.01296866407278001 
0.01222729685798532 
0.00114686752115232 
0.005926553947312232 
0.01236493013818088 
-0.001698634630833107 
0.0001289880922050864 
0.0239760213696121 
0.002815594857543566 
-0.007541745176080428 
-0.0203655198728618 
-0.002138323934507136 
-0.0007804767029708822 
-0.003876709218080437 
0.001041676284923565 
0.0108587043199697 
0.008026612462564689 
-0.01110026830885164 
0 
0 
0.01641334059395136 
0 
0.02073255944675628 
0 
-0.003812252093447896 
0.007639299863939463 
1.084202172485504e-019 
0.003040673845789146 
-4.336808689942018e-019 
7.700263671203223e-005 
0.004642000193006459 
-0.05144677576822081 
0.0113563143466034 
-0.03757812510435375 
-0.0006105094475719111 
0 
-0.04216828512210088 
-0.0378255821102091 
0.006059604911343896 
-0.01117727094556368 
7.700263671203223e-005 
0.000154005273424064 
-0.002939417396499021 
0 
0 
0.009975019093814415 
0.02488942237101717 
-0.01408526888260833 
-0.02731186874469411 
0.0002829933656291509 
0 
0.003101781853212895 
0 
-0.03961781675999682 
0.02881033336109265 
0.001718793439689996 
0.004496788078934744 
0.01216351589706868 
-0.005277068876558376 
0.0085876662106464 
1.084202172485504e-019 
0.005545632457833341 
-0.03903533459139803 
-0.0001180059040199965 
0.008774566719564517 
-0.0007322007714330004 
-0.007430759325460334 
0.0003738797255367178 
0 
-0.008002932951367073 
-0.01117727094556368 
0.001041676284923565 
0.0001289880922050864 
0.04723990417718408 
-0.01435876788404007 
0 
0.0002310079101360971 
7.700263671203174e-005 
0 
0.002815594857543566 
-0.003270055160122591 
0.000604060776467027 
-0.004776663002879967 
0.00971201032547625 
-0.003205943710604954 
-0.00255004170824584 
0 
-0.004715797517239724 
-0.003060862566414964 
0.01800882713493382 
0 
0 
0 
-0.04033316972097127 
-0.02912080150358826 
0.01952361258958449 
0.0003107998589207238 
-0.0315732317834419 
-0.002388331501439983 
0.02062218548251334 
0 
0.001664106153647202 
0.006185911413800926 
0.0001289880922050866 
0.01635837861388173 
0 
0.006088322814403196 
0 
7.700263671203223e-005 
0.004084190587923845 
0 
-0.01666236628220741 
0.002374694689066656 
0 
0.004448200725018238 
0.003070236122884232 
0.004796005466430523 
-0.0003311244896801811 
0 
-0.00484580913774542 
-0.0313391148129475 
-0.02925318660676358 
0.002174902675503046 
-0.0001213975271371106 
0 
-0.004715797517239724 
0.0007677799672682605 
0.004188224090957787 
-0.03667436612069361 
-0.01925596122238464 
0.005772059720555789 
-0.003996178796021362 
0.3645345385607878 
-0.02851941292404879 
-0.007153127904186034 
-0.0009372564004743552 
-0.01296458476786601 
0 
0.008726190780930308 
-4.439489042507842e-005 
0.002240251147201271 
0.02233197917940882 
0 
0.007057130773379591 
-0.009095343407359216 
-0.02675109061178205 
0.01894051910997013 
0 
0 
0 
0 
-0.01530119917044788 
-0.04178522260568669 
-0.001252592290194721 
0.004158634773887173 
0.004331677822774084 
0.01815397652244092 
-0.0110269219366106 
0 
0.006083951878973411 
0.01910830209669503 
0.0006215997178414481 
0 
0 
0.006017929944261185 
-0.005652244856315004 
-0.004684614721768093 
0 
0 
0.0326663100404276 
-0.0001213975271371106 
0.003589556224868425 
0.004084190587923845 
0.01087758925422697 
-0.008437419959717397 
0.01093992092084733 
-0.02279341337527684 
-0.02311746710211143 
0.05100085013201563 
0.01898777357902456 
0.0001001049801603196 
0.01875420733479004 
-0.005123063710573909 
-0.01022177627369269 
-0.0006460207676900336 
0 
-0.01296866407278001 
0.004084190587923845 
-0.00388669627941122 
-0.03349572618107016 
-0.05157576386042591 
0.005076548806355703 
0.0009998589109265325 
-0.002951726690674114 
0.001090593172680072 
-0.007523586153556939 
0.004994262075882093 
0.004672565639967025 
0.004084190587923845 
0.033395670035863 
0.0001963772407911021 
0.05779195474803147 
-0.01645347462845677 
0 
0.004153496495357054 
-0.008431275839155121 
-0.0462895075144346 
-0.002728455635531779 
0.000205990728917117 
0.003930333332998782 
0.00596843696134689 
-0.06106828586935801 
0 
0.002400835092035738 
0.002815594857543566 
0 
0.004496788078934745 
-0.01089977780651511 
-0.01248367693542128 
0.0001963772407911021 
-0.01408526888260833 
0 
0.003822673693501115 
0 
0 
-0.03519445943059002 
-0.002058525812186746 
-0.003431463616015346 
-0.01179813940491137 
0.002211890966677238 
0.01620246357205778 
-0.002223411138918499 
0 
-1.796879727480516e-005 
0 
0.007265792670710587 
-0.002763456948697504 
-0.02057379831313091 
-0.006714077372220646 
-0.001563434028333918 
0.00420776050762224 
0.002251905312215078 
-0.0009632086815690972 
0.0001963772407911021 
0.002538890965464022 
0.0008966868732961606 
0 
0.00233937994127804 
0 
0.01087660956576967 
0 
0 
0.004642000193006459 
-0.01928201333060454 
0 
-0.003959940352715034 
0.00732943040299151 
-0.0006695380617499874 
0.00246943065126779 
-0.008841907426999588 
0.01012902436723848 
0.0003878024956327558 
0.0007797933137593463 
-0.004729755098098962 
-0.006643841635253854 
0 
9.38814204341933e-005 
-0.01408526888260833 
0.0001963772407911021 
0 
0.001613625333163939 
0 
0.04344624032546239 
-0.01149866698206402 
-0.00410130810515824 
-0.01848083205612373 
-0.001066855512043022 
0.01144883673013876 
0 
0.07095132552973103 
0.001041676284923565 
0.00447143586814825 
0.002308974518238778 
0.00332655200553003 
0.00246943065126779 
-0.02052345406423869 
-0.01386667693128062 
0.02861608729594246 
0.003603285216500777 
0.004496788078934743 
0 
0.007840879015204451 
0.01173352177289519 
0.007444576189937329 
0.0001963772407911021 
0.001219632809226521 
0 
0.001744324608131984 
0.002893757014579798 
0.0007916228697631919 
0 
-0.003542285590580899 
-0.0142854101631774 
-0.0002837081788987297 
0 
0.002374694689066657 
0.000471826790910621 
0.0003927544815822042 
0 
0.004207760507622242 
0 
-0.0001213975271371106 
-0.004171913144549662 
0.003450087550998613 
-0.0006460207676900336 
0.01683696727311697 
0.04929274905592624 
-0.005150079702139745 
-0.005123063710573909 
-1.192622389734055e-018 
0.0001963772407911021 
0.02443853032333773 
0.006658056088279183 
-4.336808689942018e-019 
0 
0.0735364728188217 
0.00452611217278493 
0.001041676284923565 
0.001718793439689996 
0.000979919282147637 
-0.005938788026061594 
-0.01418700998268828 
2.168404344971009e-019 
0 
0.001535118061442116 
-0.005023080779779647 
0.003461048649622484 
-0.0008409829647402193 
-0.04283230566326159 
-0.0004800854196898317 
-0.002546285269480825 
-0.0009632086815690974 
0.006438321500136943 
-0.007884907770415527 
-0.0008660635459977653 
0.003710679580616843 
0.003298159094003998 
0 
0.0001540052734240645 
-0.0168432950860818 
-0.01015333381235359 
-0.0248943219253323 
-0.02113965908587355 
-0.03892628357931906 
-0.01466008487586643 
-0.001769044620668171 
-0.002662162823670525 
0 
-0.002662162823670525 
-0.06243989528068771 
0 
-0.001886333121707024 
0.09030286387967332 
0.009489991114930041 
-0.0019380623030701 
0.03615880525495071 
-0.002183646314074894 
0.001597395912552886 
0 
0.0288473863118365 
0.0157470788143702 
-0.1162435888199666 
