solver_type L2R_L2LOSS_SVC_DUAL
nr_class 2
label 1 -1
nr_feature 1448
bias -1
w
0 
0.002443857262500993 
0 
0.008298247923907803 
0 
-0.005451623890913399 
0.007974574246236236 
0 
-0.001965727749319374 
0.0008065555572759363 
-0.002778145969378933 
-0.003797801465646054 
0.0002206112902806681 
0.06516803052876254 
0.006570357261982321 
0 
-0.000333734008675855 
0.02193357763740589 
0.00713071335960828 
0 
0.01240868486204917 
0 
0 
0.003378566339968299 
0.0001774890914473703 
-0.004459298114395599 
-0.0001668670043379275 
0.004395284138530534 
0 
0.0004187063602786126 
0 
-0.01109817711441104 
0 
-0.00568814697671148 
-0.005598643517461238 
0 
-0.01020187583217188 
-0.005362879345189714 
0 
0 
0 
-0.0236253812262038 
0.003737471944120854 
0 
0 
0.02145111828095356 
-0.00997580252009082 
6.057724782114302e-005 
0.0007340492040090603 
0 
0.009199013552032237 
-0.002046462372695078 
0.01907809011522217 
-0.03340300481958718 
-0.001965727749319374 
-0.0008817358813702943 
0 
0 
0.01057332991697146 
0.006637531167684481 
0.02537560293978191 
3.028862391057151e-005 
0 
0 
0.001684149990975721 
0.002518877575270929 
-0.008648625305865817 
8.874454572368516e-005 
-0.0272579118581687 
0 
0.001606027532361479 
-0.000333734008675855 
0 
0.003378566339968298 
0 
-0.03168717129937028 
0 
-0.006078491597723342 
-0.0374523059661212 
-0.04098139639673695 
0.0004203811657207307 
-0.008185849490780313 
0 
0.003378566339968298 
0 
-0.007771637665229524 
0 
0 
0.002522286994324384 
0.0008916855613142436 
-0.007484720434111309 
0.007234225364797915 
0.007467951711003157 
0.001316712032195821 
-0.003090755365091544 
0.001886804768296734 
0.01282837322248516 
-0.03018183167129995 
0 
-0.01436888947597746 
0 
0.005148376488463309 
0.003276666524496251 
0.01101352194749341 
0 
-0.002990658969897787 
0.0115939707424137 
-0.0003933171671700097 
-0.0163786899947588 
0.002750789831549901 
0 
0.0001673647952348747 
0 
0.0001673647952348751 
0.003528565147469965 
0 
0 
0 
-0.03017563258714985 
-0.03836432694548892 
0 
0.01036148834986715 
0.0008065555572759363 
-0.006395820488116108 
0.04492908430213223 
0.006965569607043347 
0.0007885295122310375 
0 
0.003342699118940274 
0.0004203811657207307 
-0.01677590776612433 
0.007876678692747746 
0.01072555914047678 
0 
0 
0 
-0.03261571655253771 
0 
0 
0 
-1.084202172485504e-019 
0.01248671328323613 
0.01236069178709621 
-0.003257622369429472 
0.003318765583842241 
-0.01520310643531945 
-0.005451623890913399 
0.000788529512231037 
-0.004061922539043646 
0 
0.01054304129306089 
0 
0.001468098408018121 
0 
0 
0 
0.009969104502248504 
0 
-0.001033163583128434 
0 
0.004455733124667333 
0 
0 
0.001484076827430696 
0.006254515091474227 
-0.004882810870460134 
-0.009884976009399592 
0 
-0.002046462372695078 
0.02140025521116247 
0 
8.87445457236851e-005 
-0.005344294089287672 
-0.002319575222539846 
-2.710505431213761e-019 
-0.0460039186641439 
0 
0 
-0.03750665583234078 
-0.001244793981691736 
-0.0001668670043379275 
0 
-0.002046462372695078 
0.0357741267552882 
0.004832120482160303 
0 
0.003378566339968298 
-0.0004680639186656825 
-0.03425728948088155 
0 
0.01192470891842941 
0.0007340492040090603 
0.007564013467877016 
0 
0 
-0.002319575222539846 
0 
0 
0.01133426987315155 
0 
0 
0.001431575221880473 
0 
-0.002244793369153085 
0.00657035726198232 
-0.002319575222539846 
0.03034551892199824 
0 
0 
0 
-0.01069153156667553 
-0.009803770655515982 
-0.001835537047717203 
0 
0.0007340492040090603 
0.0004187063602786126 
0.03820397616226709 
0 
0.003974902972809802 
-0.006554787316963196 
0 
0.05763956440424104 
0.002811228841124714 
-0.0001668670043379275 
0 
0 
-0.002320013774316127 
0 
0 
0.000505597028079871 
0.004564658150995232 
0.03021629832584282 
-0.02076184897062067 
-3.252606517456513e-019 
0.1239898749673618 
-2.710505431213761e-020 
2.168404344971009e-018 
0 
-0.00251013581551224 
-0.002244793369153085 
-0.005756196512359722 
-0.01132428387521094 
-0.001882371067346663 
0.01215612784850707 
0.00497904283010802 
0.006637531167684481 
0 
0.01781694661805998 
3.028862391057151e-005 
0.01143010780504677 
0 
0.0001673647952348747 
0 
-0.005451623890913399 
-0.03261233964983496 
-0.02124451399578522 
0 
-0.0372024461244942 
-0.007051914159337206 
0 
0 
0.01282837322248516 
0 
0.0001673647952348747 
0.0009243033883584845 
0 
0 
0 
0 
0.000505597028079871 
0.01052281377817311 
0.001684149990975721 
-0.002244793369153085 
-0.02678529895182063 
0 
0.01781694661805998 
0.001959954492300431 
-0.000944196597202709 
-0.003777354054020904 
0.007975559373501971 
0.01078127616487181 
0.007057130294939929 
0.001479768676164246 
0 
-0.008107292964354119 
-0.006276829389318988 
0 
0 
-0.02503148702722778 
-0.04117779229676906 
0.003318765583842241 
-0.0001668670043379275 
0.0001975843000222811 
0 
0.02023300685914013 
0 
0.002418199194984783 
0 
0.01054304129306089 
0 
0 
0.001874185571257651 
0 
-0.005290373719284815 
0.007972977724030127 
0.01072555914047678 
0.001316712032195821 
-0.000944196597202709 
0 
-0.02397354830625104 
-0.002244793369153085 
0.003974902972809802 
-0.004831142276477442 
0.01470040184974289 
-0.004640027548632253 
-0.004113766650400792 
-0.009219097790851076 
-0.0004759201165184275 
0 
-0.01037108827680445 
0.02108608258612177 
0.006757132679936596 
0 
-1.084202172485504e-019 
0 
0 
-0.005344294089287672 
0 
-0.000944196597202709 
0 
0.004845277179665786 
0.0007340492040090598 
0.003318765583842241 
0 
0 
0.002419666671827808 
-0.02271147325291166 
0 
3.028862391057151e-005 
0 
0.00982430589599094 
0 
0 
0.003318765583842241 
0 
0 
-0.009246549234424563 
-0.01593292974210651 
-0.002320013774316127 
0.006308236097848296 
-0.01506197796256298 
2.168404344971009e-019 
0.06988586563135166 
0 
0 
3.028862391057151e-005 
-0.0003933171671700097 
0.000788529512231037 
0.004183588159085494 
0.002022388112319484 
0 
0 
-0.03016012288493905 
0.01331572442808083 
-0.05598756478231519 
0 
0.01518983112367158 
0.006516270473136025 
0 
-0.00613991943201771 
-0.07325255723084312 
0 
-0.02856945954875353 
0 
-0.002319575222539846 
0 
0.002416060241080152 
-0.006885047154999278 
0.01832254364613985 
0 
-0.003146420342674063 
0 
0.001959954492300431 
0 
0.0008065555572759363 
0 
0.005404367844655068 
0 
0.01770063509781006 
0.01330048278958662 
0 
8.874454572368516e-005 
0.002365588536693111 
0.01008914797729754 
0 
0.00655832800912483 
0.0004203811657207307 
0 
0 
0 
0.0004203811657207307 
0 
0 
-0.013888545775438 
0 
-0.001279628512478052 
0.001316712032195821 
-0.002244793369153085 
0.1072288382677808 
-0.168984411865227 
0.00328517863099116 
0.002189747019055593 
0 
-0.02271147325291166 
0 
-0.002319575222539846 
2.168404344971009e-019 
0 
-0.03997908533830368 
0 
8.874454572368516e-005 
0.0009014139992439372 
-0.01058884162870002 
0.003429393251144523 
0 
0.003378566339968299 
0 
-0.0001668670043379275 
-0.007922604651642715 
0 
0 
0.006133875562986305 
0 
0 
0.005626160664779611 
-0.01062225699789261 
-0.006734380107459256 
0 
-0.02194627888512784 
-0.01132428387521094 
-0.01753020594214922 
0.06127313514213525 
-0.04123323575267764 
-0.01068858817857534 
-0.004018412755926724 
0.001316712032195821 
-0.0004759201165184277 
0.0010047775157921 
0.002189747019055593 
0.0001190331696342566 
0 
0 
0.002365588536693111 
0.0001190331696342566 
0 
0.006657862214040414 
0 
-0.03349641283170938 
0.0004203811657207307 
0.0004203811657207307 
0.003368299981951443 
-0.002320013774316127 
-0.03813396015662837 
-0.0428908147337706 
8.874454572368516e-005 
-0.004018412755926724 
-0.005344294089287672 
0 
-0.002320013774316127 
0 
0 
0 
-0.004034951962294251 
-0.02626461830983968 
-0.005344294089287672 
0.003657495607584187 
0.0004203811657207307 
0 
-0.003358875541381096 
0.0007340492040090603 
0.009130908576504648 
-0.04123323575267764 
0.0007340492040090603 
0.000788529512231037 
-0.003090755365091541 
-0.04420090420507844 
0 
0.0001673647952348747 
-0.001480455541233453 
0.003737918327609271 
-0.01591931420843658 
-0.01131989186308845 
-0.004639150445079692 
-0.005090588585818075 
-0.01595830882903807 
0.01072190034501177 
-0.005626201229921714 
-0.004018412755926724 
0.0006162906603008935 
-0.01069153156667553 
-0.01191792780432829 
0 
0 
0.03575204738038709 
0 
-0.02232725973055376 
0.007475836655218541 
0 
0.002416060241080151 
0 
0.002922312014011571 
0 
-1.084202172485504e-019 
0 
-0.005344294089287672 
-0.007713622993119243 
-0.007713622993119243 
0.01324083772845192 
0.01500634447525454 
0 
0.008251881924865243 
0.0001975843000222813 
0 
-0.0003933171671700097 
0.05759904686086634 
0 
-0.006337987978466568 
0.005875123848126987 
0.0004203811657207307 
-0.02397354830625104 
0.000788529512231037 
0 
-0.001387976372379911 
0.00669733192381054 
0.002434779754235281 
0.001316712032195821 
0.005581657632398261 
0 
-0.001442739716361404 
-0.02486805152367377 
0 
0 
0.003378566339968298 
0.0009842440029120153 
0 
0 
0 
-0.02799196106217777 
0.003678169933382246 
-0.02072134781975139 
0.01114594030619751 
0.0008188181361416084 
0.000655836938907023 
0 
-0.008352611442405336 
0.01160550862978336 
0 
-0.04490114658654597 
-0.006006519552528259 
0 
0 
0 
-0.002322915827767327 
0 
0.0001774890914473702 
0.0105290223093285 
-0.007601553217659726 
-0.000639846415958426 
0.004063647518533487 
0 
-0.006734380107459256 
-0.01955964581712846 
0.01340694816113569 
-0.007554708108041808 
-0.009429181895334394 
0.0007885295122310372 
-0.002213329377033006 
-0.00448958673830617 
0 
0 
0.0007885295122310369 
0 
0.0007885295122310369 
-0.0001668670043379275 
-0.04804625945810633 
7.589415207398531e-019 
0.0009921782914996929 
0 
0 
0.004710670307241517 
0.05366182078276355 
0.03547205173014213 
0 
-0.004663094378682362 
0.001316712032195821 
0.0004187063602786126 
0.001959954492300431 
0.0109725123493786 
-0.01107011478616472 
-0.004018412755926724 
0 
0.008784663743198983 
0 
-0.005344294089287672 
0.01958550590242176 
0.004725391590917834 
0 
0.0001673647952348747 
0.06395837685949495 
-0.004072797101904 
0.0007340492040090603 
0.008103896195636461 
0 
0 
0.0003951686000445623 
0.08648477113881044 
0.01865770894950144 
0.02108608258612177 
0.01356109568968537 
-4.743384504624082e-020 
-0.01140149953845976 
3.028862391057151e-005 
0.02284056009849135 
0.003318765583842241 
0 
0.0004203811657207307 
-0.002046462372695078 
-0.002319575222539846 
0.0001673647952348747 
0 
-0.06357913455722258 
0.001316712032195821 
0.01319408424215022 
-0.003090755365091544 
0.002465551520380303 
0 
0 
-0.008793551983570153 
0 
-0.004018412755926724 
0.0008390875259993433 
0 
0 
-0.002320013774316127 
-0.01090557751493233 
-0.0005674786218285278 
0.0003828981692043927 
0.002833567468287887 
0.003118311626653233 
0.0395934464674497 
0.002781839066907156 
0 
0.000588774099134802 
0.003318765583842241 
0.008036941281641124 
-0.01377009430999856 
0.01719413698278468 
0.0005927529000668438 
-0.03189710560857922 
8.874454572368516e-005 
0 
3.028862391057151e-005 
-0.01140149953845976 
-0.002319575222539846 
-0.01068915225238892 
0 
0.01282837322248516 
0 
0.0007340492040090603 
0.01493590342200631 
0.003318765583842241 
0.007467951711003158 
-0.006078491597723342 
1.084202172485504e-019 
0.0001673647952348747 
0.005626160664779611 
0.00657035726198232 
-0.02065514146499783 
-0.0001668670043379275 
-0.02492480262994466 
-0.002244793369153085 
-0.02152550477971941 
0 
-0.002320013774316127 
-0.01423786858391695 
-0.0003933171671700097 
-0.0167720071619288 
-0.005185492976579574 
0 
-0.02582822058797595 
0.0004203811657207307 
0 
0 
0.01781694661805998 
0 
0.001316712032195821 
0 
0 
-0.02799560372013743 
0 
0.002022743073910142 
-0.0163786899947588 
-0.02858316352631082 
0 
0.01663366109524827 
-0.002320013774316127 
-0.002320013774316127 
-0.009185525716968125 
0 
0 
0 
0 
0 
0.005023613480431374 
0 
3.028862391057157e-005 
0.002361457901186425 
0 
0.01994021420753174 
0.003581585805639792 
-0.006906588774919452 
0 
0 
0.01884106898772298 
-0.0001668670043379275 
0.002842845467323813 
0 
0 
0.0007340492040090603 
0 
0 
0 
-0.008036825511853448 
0.008426156906621565 
0.0007340492040090595 
0.002861368491544364 
0.01705129160929433 
0.004915694429802477 
-0.0008554520514790239 
0.008556607200301885 
-0.007696417260066484 
0.003620363097268347 
-0.005344294089287672 
0 
0 
-0.00650529353458078 
-0.003777354054020904 
0 
-0.002319575222539846 
-0.0524006874358716 
0.007885295122310369 
0.0007885295122310378 
0 
-0.01859768152667226 
0.003630405695908983 
0 
-0.005581467629285885 
0.006657862214040414 
0 
0.003974902972809802 
-0.002320013774316127 
-0.0126921418034778 
0.003318765583842242 
0.007467951711003157 
0 
0.0678792141061528 
0 
0.002416060241080151 
0 
0.01393725847610716 
-0.01901733057364916 
0.001261143497162192 
0.001172992547582718 
0 
0.05345083985417994 
-0.01283502804035496 
0.02564474098347133 
-0.005737611256457681 
0 
0.01291711776820884 
-0.01069153156667553 
-0.0001668670043379275 
0.0004203811657207307 
0.0004203811657207307 
-0.002320013774316127 
0 
0.01282837322248516 
-0.005608381448692384 
8.874454572368483e-005 
0 
0 
0.005626160664779611 
0 
0 
-0.0005006010130137824 
0.003378566339968298 
0.006765687239039982 
-0.0001668670043379275 
0.002472679503206759 
1.084202172485504e-019 
0.0007340492040090603 
-0.002046462372695078 
0.05910753894438275 
-7.812245861424234e-005 
8.874454572368494e-005 
0.003378566339968298 
0 
0 
-0.02799560372013743 
0.007340492040090602 
0.0004187063602786124 
0.0004203811657207307 
0.01420832207149022 
0.02503423425713234 
-0.003090755365091542 
-0.01140149953845976 
-0.0003933171671700097 
0.02146842064331827 
0.001577059024462074 
0 
0.0009322600542503729 
0 
-2.168404344971009e-019 
-0.007554708108041808 
-0.006885047154999278 
0 
-0.002214504745242512 
0.0004187063602786126 
0.006657862214040414 
0.02054722798730803 
1.084202172485504e-019 
-0.002244793369153085 
0 
0.003974902972809802 
0 
0.0002581290874906325 
-0.002319575222539846 
0.007556696256726841 
0.05075120587956383 
0 
-0.002319575222539846 
0.01784844509705405 
-0.01140149953845976 
-0.0163786899947588 
0 
-0.002319575222539846 
0 
0 
0.02145111828095356 
0.001959954492300432 
0 
0.008919910431800916 
0.01180431875349434 
0 
0 
0 
0.003318765583842241 
-0.0003933171671700097 
0.00817210781045918 
-0.02769144498749487 
-0.2740167468836978 
-0.02047161474014896 
0.003545931135203173 
-0.002244793369153085 
0.02145111828095356 
-0.01301154534099165 
-0.008212997853392216 
0 
-0.04755884934384425 
0 
-0.002244793369153083 
0 
0 
0.004955625364430372 
-0.04102388257253833 
0 
0 
0 
0.0046020733600658 
-0.002050812968934313 
-0.0163786899947588 
-0.01140149953845976 
0.02537560293978192 
0.003349054207752812 
0.004722915802372849 
0 
0 
0 
0.0001673647952348746 
0 
-0.01123553932948726 
0 
0 
-0.004366476147011205 
0 
0 
0.001226063172694648 
0.003528565147469965 
0.000788529512231037 
0.00104204367361384 
-0.0508657762019247 
-0.0004759201165184277 
-0.007516038693096961 
0.04730165104833266 
0.01941016157354473 
-0.001713705563304128 
0.0005961954517259825 
0.001959954492300431 
0 
0.005701238872071313 
6.057724782114248e-005 
0 
0.005867693323640562 
-0.002616358122395851 
0.01359395974036855 
-0.003264210371518834 
0 
-0.03780022614795253 
0.01072555914047678 
0 
-0.004113698802061628 
0 
0.002416060241080153 
0.03653523281538256 
-0.01745034348534531 
-0.002320013774316127 
0 
0 
0.0001673647952348747 
0 
-0.02397354830625104 
0.002361457901186425 
5.421010862427522e-020 
-0.0003933171671700097 
0.002756929218726725 
-0.01100639183668752 
0 
-0.0001668670043379275 
-0.004018412755926724 
0 
0 
-0.0023819756192163 
0 
0 
0.006502195129068742 
0 
0.01083575647309378 
0 
0.01282837322248516 
-0.01419458169379377 
-0.01132428387521094 
0.01627557147071232 
0 
0 
0.002365588536693111 
0.004185121897244234 
0 
0.01007606345335854 
0.002347160318560933 
0 
0 
0 
0 
0.004801188177125449 
0 
0.001959954492300431 
0.01072555914047678 
0 
0.000505597028079871 
0.003378566339968298 
0 
0 
0 
-0.003361275422506554 
0.0002093531801393063 
0.001684149990975721 
9.086587173171452e-005 
0.0008910151546766797 
0.01072555914047678 
0 
0.0004203811657207303 
0.003942647561155185 
0.001896185188460109 
0 
0 
0 
0 
0 
0 
-0.0004759201165184277 
-0.008910969570897643 
0.003974902972809802 
0 
-0.001509978032988048 
0.003253948634008617 
0.01234509008415013 
0.007877177399773417 
-0.01305992441091656 
0.001552362928776403 
-0.002319575222539846 
-0.02329261638984457 
0.02774597957087619 
0.001444005569798542 
-0.009957482362666466 
0.01063745527800898 
-0.02526372735583203 
0 
0 
0.02501863852925761 
0.001595085069506973 
0.01150211388655299 
0.002416060241080151 
0 
0 
0 
0.002361457901186425 
0 
0.004042478146239656 
0 
0.05397453747945102 
-0.003090755365091544 
0.001112590555879511 
0 
0 
0.00657035726198232 
0.0007340492040090604 
0.00328517863099116 
8.131516293641283e-020 
-0.04636714310302602 
0.00428728863398462 
0 
0 
0.003919908984600863 
-0.002319575222539846 
0 
0.008291327797981076 
-0.09181083831128928 
0.001316712032195821 
0 
0.007467951711003157 
0.00321169933563037 
0 
0 
-0.03100365579863385 
-0.0003337340086758551 
0 
0.003507579457215517 
0 
-0.01226848047241365 
0.009365307414342579 
0.02164870258097584 
0 
0.007715833974599885 
0 
0.003285993710064657 
0 
0 
0 
0 
0.01271323843066044 
0 
-7.812245861424234e-005 
0 
0.007888332876723886 
0 
0 
0 
-0.005090588585818075 
0.002416060241080151 
3.028862391057151e-005 
0 
0 
-0.0001668670043379275 
-0.007891403430778482 
0.01072555914047678 
0 
-0.004610244885278614 
0 
-0.01488679463382514 
0.002833567468287887 
0.009948923601950621 
0.01384926743702448 
-0.006290705581195722 
0.000788529512231037 
0.01061440916053388 
0.01054304129306089 
-0.01140149953845976 
0.0001774890914473703 
-0.002231269228592441 
-0.002504049968906127 
-0.001794623016754393 
0.001684149990975721 
0.006864304830315209 
0.003974902972809801 
-0.01062225699789261 
0 
0.002250840288248673 
0.007467951711003157 
0 
-0.01016670254135085 
0.002416060241080153 
-0.005090588585818075 
0 
0 
0.005630230723079759 
-0.005344294089287672 
0 
0.0003347295904697495 
-0.074811922783674 
-0.0108102916294629 
-0.01738503617357219 
0.003974902972809802 
0 
-0.0213129959833794 
-0.01535596624547292 
0 
-0.01062225699789261 
0 
0 
0 
0 
0 
0 
0.02498228577261191 
0 
-0.01377009430999856 
0.000788529512231037 
0 
-0.006237996075845986 
0 
0.003498982856291375 
0.02563370902956934 
0.003378566339968298 
0 
-0.001605147339724701 
-0.01052416677144065 
0.002637746134459436 
0.000505597028079871 
0.004462273278968018 
-0.02481998522105906 
0.003449538955076433 
0 
0 
0 
-0.004018412755926724 
0 
0.00514793793668703 
-0.01062225699789261 
0.001714438614886293 
0.000788529512231037 
0.05851337833462 
-0.009957482362666463 
0 
0 
0 
-0.0003933171671700097 
0.01054304129306089 
-0.01132428387521094 
0.003150109445089212 
0.001959954492300431 
0.002399731912049462 
0.000788529512231037 
0 
0 
0 
-0.00430025138572895 
0.02119551295802828 
-0.001817399561720472 
0 
0 
-0.02904946123137823 
0.006697849058016298 
0.03769464907223356 
0.0005943415738035568 
-0.04123323575267764 
0 
0.004937076404380722 
0 
0.000788529512231037 
1.084202172485504e-019 
0.0007885295122310369 
0.007191569082048119 
0 
-0.005090588585818076 
0 
8.673617379884036e-019 
0 
0 
-0.02271147325291166 
0 
0 
0.01684869360565705 
0 
0 
0.005389347743444956 
-0.0004759201165184277 
-0.002320013774316127 
-0.0234706696193814 
-0.003257622369429471 
0.003974902972809802 
-0.0001668670043379275 
0 
-0.0003933171671700097 
0.01037617428872296 
0.003378566339968298 
-0.00151301966526391 
-0.02558515947300133 
0.007829415780684535 
0 
0.2149807932979418 
-0.03537504784471082 
-0.002244793369153085 
1.597319410956199e-006 
0.005557290527807515 
0 
0.0008065555572759358 
-0.000136578380427356 
0.007057130294939929 
0.02579598410550264 
0 
-0.001906063345411142 
0.01340446897380451 
-0.03819354331512254 
0.01781694661805998 
0 
0 
0 
0.0004187063602786126 
-0.002168570654763269 
-0.000944196597202709 
0 
0 
0.00844187206351397 
0.0147582763867173 
-0.01997275332890178 
0.001959954492300431 
0.000509125711444416 
0.02145111828095356 
0.0001774890914473703 
0 
0.001959954492300431 
0.01000778454484221 
-0.01095384090525695 
0.00503931155167351 
0 
0.0007340492040090603 
0.0124917639892436 
3.07864148075189e-005 
0.003528565147469963 
2.168404344971009e-019 
0.001219532765061211 
-0.005090588585818075 
0.02145111828095356 
-0.02799560372013743 
-0.01069153156667553 
-0.008869892787069376 
0.01282837322248516 
-0.002319575222539846 
0.01493590342200631 
0 
-0.01252356441193013 
-0.000944196597202709 
0 
0 
0.0004187063602786126 
-0.005090588585818075 
-0.04681185991383663 
-0.07560045229590505 
0.01072555914047678 
-0.002073057550945102 
0 
0.00245020244691011 
0.003761321254308314 
0.00243670898581049 
0.006719679055527148 
0 
0.00657035726198232 
0.005443994646152105 
0.04151532462052536 
0 
0 
-0.005757781843789441 
0.006661223133714035 
0 
0.0007643378279196315 
0.01361690273471619 
3.02886239105714e-005 
0.009439701280947562 
-0.01968478780060992 
0 
-0.01185674912050474 
0.01054304129306089 
0 
0.002361457901186425 
0 
-0.0020730575509451 
0.0004203811657207307 
0 
0 
0.006663744970959458 
0 
0 
0 
-0.002230830676816161 
-0.0001241304693922274 
0.0002561093409585596 
0.0001774890914473698 
0.003108983086663238 
-0.003563617252371541 
0 
0 
0 
0.007382413102375728 
-0.02678439299146104 
0.0005394143353549875 
0 
-0.005451623890913399 
0.00657035726198232 
0.003974902972809802 
0 
0.0004203811657207307 
0 
0 
0.0008065555572759363 
0 
0.0004187063602786124 
0.0005324672743421113 
0 
0 
0.0007340492040090603 
-0.0009441965972027087 
0.0008065555572759365 
-0.02113441422844959 
0.006657862214040414 
0.003378566339968298 
0.0003347295904697497 
0 
0.0008065555572759364 
0.0005074509060022977 
0.0007340492040090603 
-0.008005518291368703 
0.01203585275607926 
0 
-0.004312819207028151 
0 
0.0004203811657207307 
0 
-0.005031242725192667 
0 
0.05310526067020185 
0.002776353712048072 
-0.02617492608371114 
0 
-0.002244793369153085 
0.009976627797882654 
0 
0.01128195754301669 
0.004100210232055873 
0.00495154970314479 
3.028862391057151e-005 
0.003723278164846184 
0.001347000656106393 
-0.004018412755926724 
-0.0163786899947588 
0.006122823115670559 
-0.00734938090240114 
0.0004187063602786126 
0.0005860711555134872 
0.02469995603228975 
0.01323760196946659 
0.02301465724511771 
0.01046760812658347 
0.003031151768310169 
3.028862391057151e-005 
-0.01843971688006 
-0.0006996471720844832 
0.002833567468287887 
0 
-0.003356972888300172 
-0.005229719404729321 
-0.001626081206974348 
0 
0 
-0.001488501716703687 
0.0008407623314414616 
0 
0.001226063172694648 
0 
-0.0001668670043379275 
-0.0003933171671700097 
0.01042340553818181 
-0.000944196597202709 
-0.003777354054020904 
0.07126778647223993 
-0.002046462372695078 
0.0002093531801393063 
-0.003090755365091544 
0.0004203811657207307 
1.084202172485504e-019 
0 
0 
0 
0.065071368169853 
0.008292547268528388 
0.001684149990975721 
0.004006625880386216 
0.005519706585617257 
-0.0001668670043379276 
-0.01518586443912069 
0 
0 
0 
0 
-0.008022933198491462 
0.001149845027857893 
-0.04551726878121978 
-0.002046462372695078 
0 
0 
0.007467951711003157 
0.01936930954683638 
-0.009595110647252722 
0 
0.002513912967113793 
0 
0 
-0.001001202026027566 
0.004063647518533487 
-0.00743418842242485 
0.00295767595753566 
-0.01818630205198496 
-0.006544485439183871 
-0.004335056653150945 
-0.002320013774316127 
0.0008374127205572253 
-0.001901307414037514 
-0.07549719414845219 
0 
-0.007109168121018271 
0.1059442877032327 
0.000788529512231038 
-0.002832589791608126 
0.003752335100394917 
0.0002093531801393063 
0.00321169933563037 
0 
0.04198705314651954 
0.006657862214040414 
