solver_type L2R_L2LOSS_SVC_DUAL
nr_class 2
label 1 -1
nr_feature 1448
bias -1
w
-0.0005524765325951189 
0.005514186274537186 
-0.001261796008027549 
-0.007284763301188574 
0.00120695681305484 
-0.01459990448910702 
0.005027582801986546 
-0.009748615514179375 
0.007631316258190383 
-0.003043176731717692 
-0.008742147166901209 
-0.03395456241919903 
0.005376222129085616 
0.03287697515061099 
-0.006494715303575106 
-0.006424298170475071 
0.01280883258582607 
-0.03811524486635241 
0.004340705389116438 
0.0007726353241527775 
0 
-0.0003491645739879058 
0.0008727826734756378 
-0.008410067984698545 
0 
0.005524700189287534 
0.01459029734158089 
-0.003597042879833685 
-0.006184314143176292 
-0.002487533987289967 
-0.01314880580912805 
-0.01541213572049383 
-2.168404344971009e-019 
-0.005063516141631138 
-0.005214646377927955 
0.01101149511843253 
0.003997914591897966 
-0.02316067470663101 
-0.004294113036522539 
0.01616877760786152 
-0.0124349406879438 
-0.01326843356142405 
0.01035375111137567 
0.002346852836028228 
-0.006917060569881086 
0 
-0.005908040388864933 
0.01365140018070361 
-0.002378283284909678 
-0.0005467356770973193 
0.004782033641486163 
-0.003939512768016042 
0.00695353310327285 
-0.03617218078526928 
0 
-0.03998994057220401 
0.01191951227577215 
0.002414245700335277 
0.004100579567856163 
0 
0 
0.007534091274739781 
-0.009354863356764592 
-0.04775032173589687 
-0.01131663469898745 
-0.03146434696908784 
-0.06981890034567051 
-0.00622034485215341 
-0.03944844267309128 
-0.04143096631261172 
-0.01457048980294784 
0.0006711740308065083 
-0.01433091812529783 
-0.01109372926970694 
0.005311256030362767 
-0.02244687107017656 
0.002197795125236298 
-0.03213197047002917 
-0.06447000086136283 
-0.01864749613131206 
-0.009054200937004011 
-0.01556185019874331 
0.02092504836870541 
-0.005341184718163024 
1.084202172485504e-019 
0.005864292478426851 
-0.0002051517741931 
0.009042728605338689 
0.002444629967498378 
-0.01757560466597515 
-0.006858944265535805 
0.01301134700209557 
0.0002333270731289497 
-0.004818814372006043 
0.00458684731179557 
0.02371225408561515 
0.009201739714234571 
-0.0164706267224013 
-0.00576166380872512 
0.0002009468275415771 
-0.0040695650987173 
0.01292300402576491 
0.006212967917580303 
0.002978350811610727 
0 
-0.003048959794138813 
0.03310643530395283 
-0.00609258498500677 
-0.04819371261131521 
0.01988920923171803 
0.004082951558089673 
-0.02644543878082856 
-0.01228595742184768 
-0.007276527274334932 
0 
-0.01883020983877669 
-0.002918772604766749 
-0.0006983291479758112 
-0.01673636208627467 
-0.0002002017927260548 
-5.421010862427522e-020 
-0.02991913699840303 
-0.00415211904063905 
0.005023838243056447 
-0.003879254599547402 
-0.001928042355550025 
-0.005091020011114302 
-0.03456370160141922 
-0.004849087695893074 
0.005129803133927044 
-0.03347871613880589 
-0.01203856893071239 
0.00235285315999253 
0.01176779428978537 
0.005181985315667515 
0.000729803100021634 
-0.03732324239416553 
0.004386780771183555 
-0.01189532032704437 
-0.003462665839778978 
0.008536046476648374 
-0.001614347615361899 
-0.01060521319383823 
-0.004125146245693917 
0.002209048761488465 
0.00415357626879639 
0.00512487105570882 
5.421010862427522e-020 
-0.01436115443693696 
-0.02886714942130046 
0.07461740746973247 
0 
-0.01177414183930313 
0.001300742843428212 
0.0009549052940674224 
-0.005923729579650915 
-0.01581419071360361 
0 
-0.02905328458723301 
0.002684097094373778 
0 
-0.002073364444831061 
-0.02078449658081643 
0 
-0.02902648013018448 
-0.01645880777397185 
-0.007656400656813125 
-0.002090625500399395 
-0.01798865322331482 
0.05272428205465519 
0.02392180751388675 
-0.01312900006490492 
0.0008411242367322178 
0.02017940406162061 
0.01238854280804226 
-0.02315185924429076 
0.000143804398504065 
0.002852745649436209 
-0.03221756250630194 
-0.0449053656030618 
0.01804230382647757 
0.0009549052940674221 
-0.006379640797850453 
-0.002404475505058184 
0.02333751850645537 
0.003483412036308481 
0.01584908695057961 
0.00288419425424533 
-0.01397588777049243 
0.02002898989043191 
0.01952516931760187 
0 
-0.009599764500833951 
0 
-0.0004678829946364587 
0 
-0.003144784328890319 
-0.00816572461929873 
0.009105199903997491 
2.710505431213761e-019 
0.009288854661858985 
0.01516099646730541 
0.1336448923372637 
0.003179008748606626 
0.01788188783368854 
-0.02056422255733012 
0.005021630567005778 
-0.002591450083691571 
-0.02144688699643917 
-0.007286611822958372 
-0.0286790239026955 
-0.006805747305664577 
-0.04069329348020196 
-0.01989456832142906 
-0.001754969672423514 
-0.03214532534562847 
0.004806203273373985 
-0.002179212552893387 
0.004844470631751127 
-0.01034392867965625 
-0.004133511063671783 
0.0361768788157982 
-0.001360005155256561 
-0.04293558155887209 
0 
-0.06309354220342245 
-0.001863162386480831 
-0.004015762004314405 
-0.005850370767715876 
-0.01392514989563386 
-0.02749842856377258 
0.008010059355683132 
-0.01033239178860344 
0.01186311447460597 
0.1166274121579175 
0.01568868885536014 
-0.002215401480355755 
-0.001036099464892397 
-0.0241034861168151 
-0.0178984997351908 
0.01413642953245443 
-0.0009542488521736175 
0.005862151965950552 
0.03467578853713965 
-0.006764969415565652 
0 
-0.006364590712901548 
0.003561453561815919 
-0.005836065865639181 
0.0321204168072966 
0.001659725310228096 
0.003586906215709877 
-0.01444007992928137 
0.007568553496237826 
0.001319249245551921 
-0.04215979669712926 
0 
-0.07548568234045133 
-0.005402766688553553 
0.001640644185133075 
0.007990668469279089 
0.009201739714234571 
-0.021001146283557 
0 
-0.01539810324269758 
-0.0003525803563052282 
-3.388131789017201e-020 
-0.0005448049204011213 
-0.007555692205943626 
0.0003676944628429526 
-0.01841122706955609 
0.004443209052347266 
0.001584217149356021 
-0.00680525554151351 
0.0105997838243376 
0.002899376397274482 
0.004937838565324771 
-0.0006983291479758112 
-0.0173906948967241 
-0.03813989096502163 
-0.00608489635581575 
0 
-0.008226291478916509 
0 
0.03043384015067317 
-0.006436053462278892 
-0.02250470803837187 
0.01528085637593275 
-0.009366543120529505 
-0.04455428163052425 
-0.004601360260170924 
-0.01732492183825793 
0.007667814115810608 
0.005138465896145479 
-0.005738321455739727 
-0.02082097985409246 
0.007344523822358231 
-0.00277322929612228 
0.001097201900491689 
-0.0001402034969344474 
0.003180710257227148 
-0.002164466803095974 
0.0009549052940674221 
0.005835945858149413 
0.02728082161653582 
-4.336808689942018e-019 
-0.008124883638371093 
0.02731081882658926 
0 
-0.01299170860038484 
-0.01000925853285313 
-0.002134440734371007 
0.005266241366680601 
0.006421215475426515 
-0.008821929198225576 
-0.01815405844143262 
0.0181811589334496 
-0.02921190443837569 
-0.005231259688711346 
0.008092174032780033 
0.06373264201071699 
0.002641448834616568 
0.01184343869161784 
0.0006366071491607124 
0.01255935104319059 
-0.001926322058729557 
0.008994444557031077 
-0.02492823114123877 
-0.01438735384200928 
0.02515459829660542 
0.02193335683847745 
-0.02998305924000196 
0.0001438043985040675 
0.003383465799123767 
-0.02720884805904054 
0.001780945977648898 
-0.03046158157835308 
0.03509289384939102 
0.008063558304095806 
0.002684097094373779 
0.003318904689445061 
0.0007922553848223804 
0.01241616008839514 
0.009038115770221289 
-0.004717472912095367 
-0.01561732073805427 
-0.01275478294977253 
-0.01558362515858814 
-0.02218794060780694 
0.005616400825314616 
-0.04881093024070454 
0.007100345741443479 
0.03062975035707708 
-0.02615005613277874 
-0.006924813604800121 
-0.005038113290761733 
-0.03140245963573189 
0.01323323611704935 
0.002598250386464288 
0.02561791787671179 
-0.0040695650987173 
-0.02846681379618305 
-0.02893750958581545 
0.02102715725240304 
0.007375586792879659 
-0.01639054578159953 
0.01862109390202372 
0.01091800251804495 
-0.002363564181212958 
-0.02412212080337805 
0.005681158911161557 
0.00324990250185288 
-0.03442114346159156 
-0.001940157635109448 
0.002905719435212797 
-0.00510063952208333 
0.06414108612810369 
0.007826947005945448 
-0.01169090574062563 
0.01704343641212157 
-0.01121496871727375 
-0.02985165409978641 
-0.01582065627673909 
-0.003192216491278117 
0.004476652088385927 
0.006820445617820333 
0.06700171016072846 
-0.01347350007132794 
0.0123833751717619 
0.01031826532417625 
0 
0.006554459464630591 
-0.004789611802137586 
0.001338244457365123 
0 
7.589415207398531e-019 
-0.0102577625209799 
-0.007432645505247639 
-0.01405980486251878 
0.001538620824928429 
0.01236130142075217 
0.01622324175367238 
-0.001387988173933645 
-0.007890435795810443 
-0.004847402401998207 
-0.02724502248986966 
-0.01228459512733076 
-0.001216147190366074 
0.1827097938727653 
0.01555615535363501 
-0.002228904700892132 
0.002110068853157097 
0.008324283987574377 
-0.009345901622784448 
-0.002127524487797324 
-0.02513553309805641 
-0.006197215642704852 
-0.0006016442495928935 
-0.05668575682300209 
-0.00513472439832559 
0.01156057873739821 
0.03322634093117125 
-0.00861536763040311 
0.01052147426493006 
-0.007695909441995365 
0.0008596707362539915 
-0.008887568728974683 
-0.004456284550822007 
-0.04249927298606192 
0 
-0.001161456829457568 
-0.007327625356226622 
-0.005981043267910465 
0.009511732708767637 
0.002516720363487985 
-0.006805747305664575 
-0.0002649757719744545 
0 
-0.01374485154700232 
-0.02186854964705763 
-0.02428900305871953 
-0.02196228886994939 
-0.009167425042727325 
-0.004048333864480171 
0.002926983858447034 
-0.01520460427747109 
-0.009165429933098919 
0.03017869658564009 
-0.002517463976786515 
0.02648732282722033 
0.003009026160185205 
0 
0.008367121204156128 
-0.05061382338400273 
0.008556375693192408 
0.003529051848607838 
-0.002533618602848944 
-0.0319661736220702 
-0.00262890472912381 
0.004414486346273892 
0.009055456883440137 
-0.00153211942318329 
-0.01845011802352677 
-0.01610240630324097 
-0.01141563273289617 
-0.008849461867193308 
0.005921723858743904 
0.02626591990216449 
0.003201209437760544 
0.005427248475288496 
1.084202172485504e-019 
6.313545960436669e-005 
-0.0007448038335089594 
-0.0001030515072927946 
0.02850385655103491 
0.0002729816586070094 
0.001010665479790968 
-0.01625556296031745 
-0.02844053008498162 
-0.01052860631408321 
0.03201173172358977 
-0.006772761014599434 
0.00681882973197429 
0.006457310616021283 
0.0379852437176379 
-0.01790897906789735 
-0.02656996891175622 
0.002690239504497947 
0.02084901619353231 
-5.421010862427522e-020 
0.002915875473913859 
0.006615688354292528 
-0.002413310276568549 
-0.0001758818620690967 
-0.03408334236228667 
0.01992751400601285 
-0.003205537672031237 
0.009670004025966602 
0.02648701862192699 
-0.01644521753052984 
-0.006494198603914551 
-0.01221658531269507 
0.01004947898360963 
0.04337508616432934 
0.01865774261998746 
-0.01991858688326947 
0.0193666685313343 
-0.01302941029291296 
0.003557006486791091 
0.003431453052318077 
0.0133028480032121 
0.01086282353781313 
-0.002454703588419127 
-0.02212056469667213 
-0.02600747905781529 
0.01600715900099303 
-0.005758552039087076 
0.0118618277685511 
0.0001155481887221573 
0.01021073604097068 
0.00342951047316587 
-0.01418849720414031 
-0.00299502591185004 
-0.03690590050005811 
0.07062336198887774 
-0.02620017490832564 
-0.002143354449757919 
0.0006531237624025091 
-0.01271735271307874 
0.00696546732112693 
0 
-0.01393797403584115 
0.001395138730772215 
0.01738770560331452 
-0.03358831460790044 
0.02979808775238244 
0.04217654284700364 
-0.01019934552639449 
0.006462507629960054 
-0.02066462314621194 
-0.01580961850897168 
-0.02248752767120263 
0.001300742843428212 
-0.008589787003996884 
0.00223719371854867 
0.03403050011340826 
0.01300498287853836 
-0.01300297525160494 
-0.0004318698670117156 
-0.02358229753900336 
-0.01278131742571747 
0.0008870050767839083 
-0.04061201403152082 
-0.004283131438787361 
-0.007071111698589589 
0.01957379248688944 
-0.009129774860892809 
-0.0390585654576374 
0.02275807607668411 
0 
0.0001624617582013277 
0.0001205458102094404 
-0.005164387652350421 
0.01143471309978707 
-0.0007071521905559789 
0.04491667981732676 
-0.02139712553624705 
-0.01839780064881758 
0.0100059787547517 
-0.01802530619415272 
-0.004009910872905527 
0.00730485558727615 
-0.001273788039763153 
-0.01262245455723125 
-0.009198810064414101 
-0.04066152022567415 
-0.03955123660608593 
-0.01111172990788202 
0.003305586610573725 
0.0003770053778144324 
-0.007367344897536073 
0.0002428584516766912 
0.01374487775981458 
-0.02138859925964175 
-0.04576947173474828 
0.0100555284878001 
0.001921033715801496 
-0.005747959988491543 
-0.003326812258624208 
0.0009642029323301072 
0.02165235759198024 
-0.005210543332611581 
0.005311256030362767 
-0.04137897723509704 
-0.005446669742019353 
0 
0.005816333883831539 
0.001097201900491689 
-0.02787835825906068 
0 
0.00284472168143438 
0.0008477376903642384 
0 
-0.001560151832546071 
0.02364668273780839 
0.00918703347735741 
0 
0.02115923106836348 
0.01121172746751207 
0 
0.01096088160193022 
-0.003877990047584101 
-1.084202172485504e-019 
-0.02368611752260583 
0.01183031586416899 
0.167050442848128 
-0.01544406178906823 
0.0119867300744897 
0.01364216534965423 
-0.002096152712327743 
-0.001503411333675051 
-0.004015106105304488 
0.03499647996410334 
0.002550415220211374 
-0.002086818801834981 
0.008591806662371922 
-0.02693333096116323 
-0.003682258194824812 
0.02068151727091802 
-0.003139780410202147 
-0.02645642500225965 
0.004059451618118508 
-0.01165654060516413 
0 
0.02338223096328452 
0.01061158683569057 
0.003180710257227149 
0.01806963658664572 
-0.002713428407136168 
0.005311256030362767 
0.006055862508275504 
0 
0.00875646861616812 
0.002253741470950986 
-0.002854594275814911 
-0.0001971325822553031 
0.0196843763974529 
0.09229166616673028 
-0.04711719872676119 
0.009494359541951457 
5.576018572354682e-005 
0.0005598621342426304 
-0.006025016260216137 
-0.01921998276743434 
-0.0004188772918256725 
-0.001118770021083451 
-0.01530440335680767 
-0.01301461347565743 
-0.02734734084397385 
0.04652443381273289 
-0.002310386582928928 
-0.0006552780336385966 
0.009508863221491269 
-0.03862746283006885 
0.0133487518589669 
-0.01273551314763437 
-0.00124297378155586 
0.008842371035780679 
0.001262498795120116 
0.03499335413457137 
-0.008695177318226664 
0.01921213479764807 
-0.00752776938441656 
0.01141735148631971 
0 
-0.02769192614444012 
0.01762540527268372 
-0.02915446218373162 
-0.04606568273112163 
-0.02188244662706903 
-0.001690784667915293 
-0.006081960486748308 
0.01105219754636082 
-0.01254554768444053 
-0.0156116505033094 
-0.01052740262107045 
-0.01572960412577044 
-0.010190600527374 
-0.004239121987383214 
-0.02565769057078072 
0.00894879747207011 
-0.0276630144463405 
0.04407061775920156 
-0.02383361910176095 
-0.03536385521661248 
0.01019660710288867 
-0.003880883970923565 
-0.01275644514385507 
-0.01186943308517482 
1.626303258728257e-019 
0.01386411000276739 
-0.03684827479656606 
-0.02917120889502028 
-0.002119560993691607 
-0.002299340303710933 
-0.02469744042787345 
-0.005923729579650908 
0.0218482769124134 
-0.009148338862072034 
0.007760161908961474 
0.01673635532218932 
0.008426658933851295 
-0.005033838799854295 
0.009195124003740292 
0.001730355385392267 
-0.004002493433437025 
-0.004823253255880319 
0.002303454263638208 
0.02482646905498896 
-0.01414835308487523 
-0.01165278826924774 
-0.001666230827368105 
0 
0.06813490929646504 
0 
0.008173456146497022 
0 
0 
-0.03284907529381102 
0.0105621160010926 
0.0005145138209023379 
-0.02298181677269679 
-0.02323967743557941 
0.02302577518372497 
0.02287501704202076 
-0.01982099675385817 
0.04514161030903351 
0.006775728405203362 
0.02885850757774789 
-0.02338949966204597 
0.01786299101899721 
0.04141797524218779 
0.001135746358867976 
-0.005468118385427241 
0.003183035745803563 
-0.01626534999456851 
-0.03463629052870582 
-0.005987780219307643 
-0.004237023769948963 
-0.04994008296993438 
0.009424384538220379 
0.01710143469232814 
0.001780945977648898 
-0.01748697588670098 
-0.0109272133573944 
-0.009721957387471622 
-0.003735490164525851 
0.01194237818033294 
0.0009023290853677353 
0.03615126999264707 
-0.0007455095525072479 
-0.01239797685479027 
-0.01978178131479454 
-0.04050203040254702 
-0.005187404998459908 
0.001346128531981518 
-0.003650239863631916 
0.0004888006176076772 
-0.00138661464806114 
-0.01884208407193113 
0.0121334004614494 
-0.0129687226308314 
0.02667743762260581 
0 
0.0007045919990071492 
-0.001068717302833893 
0.03071817441593665 
-0.02170004704077981 
-0.002526367509354637 
0.001120954929275595 
-0.009042054471730177 
-0.001135963533240944 
0.007371964090492315 
0.008591806662371922 
-0.008102128434324188 
-0.02976935414450376 
0.01980152353857218 
-0.003772931249454299 
-0.01775169534594163 
-0.04009835404572244 
-0.001864405397109988 
-0.008387965051184851 
-0.008749562141498645 
-0.01228021138782077 
-0.001693662676880534 
0.01101149511843254 
-0.0224834780337269 
-0.0009015345764151083 
-0.04066126406627411 
0.00117558023678799 
0.002990761587265647 
-0.01168307142914622 
0.0638562047992598 
0.002187268737175967 
-0.0153240285954971 
-0.03033645879040148 
0.007574905452240772 
0.0160449203321062 
-0.01143674732342258 
-0.01411991381371886 
-0.006333543776741479 
-0.01035514766926625 
0.04315756349388812 
-0.01604974826481684 
-0.006716943982768397 
0.01120683154245713 
-0.00395240462724292 
-0.001522863607036659 
0.003819621176269689 
-0.01097420816742485 
0.001014930041088695 
0.002543893597439332 
0.0643336129287618 
-0.01981507879270512 
-0.006259483880525952 
-0.0007195183831409869 
-0.004615777054962938 
-0.02277669744779453 
0.03365339391446749 
0.04976793845023107 
-0.01298756239340965 
-0.007260754404564003 
-0.02323085332687958 
-0.003854993942945713 
-5.421010862427522e-020 
0 
-0.0183855199131801 
-0.007682885704903621 
-0.009987512466762204 
-0.00390662781558293 
0.02988552785463668 
0.02389119503024317 
-0.005755936278210396 
-0.01130307599433869 
-0.01444007992928137 
0.02375164561230881 
-0.01367277656831019 
0.003543460365547669 
0 
-0.004534886031351685 
5.421010862427522e-020 
0.01427000771154991 
0.01850443833093508 
0 
0.004527413587244496 
-0.01252045626859816 
0.003383465799123767 
-0.01325926004666502 
-0.01894360227672635 
0.0260332287762329 
-0.6617764518974133 
-0.02357687538725484 
0.01844904671683215 
-0.04805680094903219 
0 
-0.05463106631709942 
0.004139946559900727 
0.002417165551128605 
-0.02470645126110902 
-0.004857326405825297 
-0.01000922683037418 
-0.0101860403469544 
0.01316166964090239 
-0.0006763475322020928 
-0.001053804281228154 
-0.001421399075491203 
-0.01211573473307557 
0.01703785335638611 
-0.003901891701014876 
0.01168864897712502 
-0.0319525902131485 
0.0006039143567053637 
-0.00586986202914932 
-0.006395997082770751 
0.005311256030362767 
0.01316894065736839 
2.710505431213761e-020 
2.710505431213761e-020 
-0.001809580104081925 
0 
-0.006430897030594266 
3.252606517456513e-019 
-0.002757856133444041 
-0.003229549525372876 
-0.008096639998490623 
-0.01157306199185379 
-0.05161399410739172 
0.01511504828263109 
-0.00230691494567969 
0.003761496886451918 
-0.06050242937416508 
-0.02840235957836437 
-0.002127811327973757 
0.02881499462612765 
0.01982267979050107 
-0.02974147305475228 
0.04035939048730768 
0 
0.00322865530801064 
0.006764615226377589 
-0.01341189011483699 
-0.02128007461259551 
0.02132324378781268 
-0.01420600369080784 
-0.02973209366140809 
-0.03019846216186527 
-0.001490133108147418 
0.008101190743229045 
1.626303258728257e-019 
1.084202172485504e-019 
-0.01841598102300939 
0.0005788053253008705 
-0.04844041182367914 
0.01844069903503086 
-0.005234849136699768 
-0.01990905741231822 
-2.433061830842066e-005 
-0.01099099523521857 
-0.005971177408808619 
-0.008000847665843087 
-0.01081732200587269 
0.001331511211308537 
0.01110108502077799 
-0.002127524487797324 
0.008623587922816377 
0.008194830271157104 
2.168404344971009e-019 
-0.01764084540618234 
0.01127767342156198 
0.02493876381768833 
-0.008425473758031156 
0.02053839819540671 
-0.0005906654788231343 
0.001767882177517391 
-0.002756171617317644 
0.009511566823288957 
0 
-0.00193434218195299 
0.001925212439899648 
-0.04732912149845239 
-0.01863639620498751 
0.02638617790679581 
0.003224479449609022 
0.01893287967670302 
0.004774526470337113 
0.001858472535537862 
-0.01238907405079268 
0.01858778994047588 
0.0372139357422978 
0.000539538916400188 
0.0009549052940674221 
0.01003142727028119 
-0.03533202031372489 
0.0129996398902328 
-0.009095535338950186 
-1.734723475976807e-018 
-0.0002360764644906123 
-0.01088403940007251 
-0.02019482567773958 
-0.02466074274539606 
0.01338937660737377 
-0.002992106136179219 
-0.01950800450896044 
-0.002652954691700609 
-0.001503411333675051 
1.626303258728257e-019 
-0.006110496039432227 
-0.07788445612275166 
0.003800149689225087 
0.004183560602078064 
0.00155114097935637 
-0.02251590596257145 
0.007395737631842795 
0.006770418565244088 
0.03899485681172529 
-0.007265596258275868 
0.02024233713730094 
-0.001158648476843473 
0.007413222162185507 
0.006455058658536012 
-0.01169518604401187 
-0.01014448374254421 
-0.0004298007869224015 
-0.02750845694714961 
-0.03213080376512949 
0.01483092198033399 
1.518214302915374e-005 
-0.008612703431313328 
0 
0.0006154888985282152 
0.008155551680596522 
0.02653108610728337 
0.01204165182610552 
0.02425958664732789 
0.003826789001892146 
-0.05809128476333777 
-0.05734483891424216 
-0.001000540743571642 
0.01459329254368845 
0.005202996623992521 
0.008934911073230703 
0 
0.01171675673387552 
-0.00712797867233011 
0.01077539053467997 
0.02398121795316186 
-6.505213034913027e-019 
0.003284415493734182 
0.03865447454397407 
-0.01472127747834682 
-0.006249045671614962 
-0.002549813037252685 
0.006502980533278715 
0 
0.005005654251330451 
0.002115409180727651 
-0.0003598898009622034 
-0.001058665411434298 
-0.02251362162129046 
-0.007142453662630851 
-0.006940601356813275 
0.0009549052940674217 
-0.02334669941031841 
0.01694187491774319 
-0.01005060333254992 
0.01686883222304705 
-0.03932839665531002 
0.00178530957440981 
-0.01508530170158868 
0.01146693947449524 
-0.02161447925444571 
0 
0.001213807700495864 
-0.007221260888184167 
-0.03121044938023719 
-0.004858119830290002 
0.02192777405300822 
0.01419220537565969 
-0.01658497151421234 
0.01573583366970006 
0.002292668079835013 
0.006533352122744412 
0.02897954991463294 
0.00322865530801064 
-0.008559824256489688 
0.003383465799123767 
0.0006366071491607133 
0.001273214298321426 
-0.0005824571933917244 
0.01950147246451597 
-0.021796320640494 
-0.02719780837296174 
0.01120683154245713 
0.07171107032298263 
-0.007823100905765315 
-0.001873591817801995 
0.01060800522383504 
-0.003176974065331936 
0.002189517630386593 
-0.008760551811463698 
-0.003090909940657558 
-0.001126603423378397 
-0.001316488436476089 
-0.01195592632198286 
1.626303258728257e-019 
0.001909810588134844 
0.03270524459346767 
0.005900100070934793 
0.001708972220944717 
0.01151270409726005 
0.003262229915995232 
-0.02754978992831229 
0.02215473247646757 
0.02942219441063173 
-0.0040695650987173 
-0.001386614648061139 
0.00946643983835151 
-0.01869892595113286 
0.002423470298905401 
-0.04053822655715439 
-0.0489662112193795 
-0.001579882704785376 
0.04201608295681714 
0.02799423855196735 
0.009001905830497162 
0.002483145755503393 
-0.002490144370181733 
0.006267660053369106 
-0.008829783293494729 
-0.02406475378600982 
0.01361637565184145 
0.004497368942482692 
0.02529258309406047 
0.002991647031165935 
0.01407781988551904 
-0.01393038750454047 
-0.006833704434009517 
0.01090477159250418 
-0.03018836409142418 
0.0004538892039260685 
-0.0562379592454461 
0.01017439865920725 
0.000466139084629711 
-0.04484647118791514 
-0.1211919344494294 
-0.00983164382097714 
-0.01386961850226171 
-0.001986882925751631 
-0.004156780280338581 
-0.01606420119805907 
0.0001380222084202068 
0.0005395389164001885 
0.003383465799123767 
-0.01791536372882924 
-0.004209768595651751 
-0.02629909231843702 
-0.00496380734471166 
0.004507482941901972 
-0.0007017183543080415 
-0.001950554951450301 
-0.0003461959405037446 
0.03124263098592096 
-0.003031084650025123 
-0.01691584428709083 
0.004279799070248942 
0.001958899026620811 
0.0244129012433498 
0.007746623110830701 
0.01942730467400176 
-0.05289367532918614 
0.0008079142841307892 
-0.002231680042140946 
0.002864715882202269 
0.001269768066339343 
0.02900207241927483 
0 
0.007235914569881017 
-0.0065636750755406 
-0.02770198813024694 
-0.01894396825231858 
0.005609438789625498 
-0.01965452186456061 
0 
0.01527259271835818 
0.0126177421996517 
-0.002924499550358688 
-0.02902914412389342 
-0.02346514121730158 
-0.02344640335898608 
-0.005103296098418602 
0.008024428606820788 
-0.0180152688961964 
-0.0005467356770973206 
-0.007738102534217251 
0.001820503409209016 
-0.01158075173851699 
0.0007913153716337731 
-0.02063976666362743 
-0.003947011430246642 
-0.003552265289995187 
-0.01954176302502642 
-0.01248087854842053 
0.01541091775759815 
0.001040225729301221 
-0.03189400140059355 
0.003404111523073207 
0.01431153299672885 
-0.01356664317761745 
0.00506537857246415 
-0.02128958168372231 
0 
0.008107955972180192 
-0.003729914548419587 
-0.002849010708832344 
0.008536046476648377 
-0.02028106989512898 
0.01411139488114946 
-0.0007715188900768963 
-0.007837228694454959 
0.0006280589483001547 
0.0001438043985040653 
-0.02017922768118512 
0.00264153638472029 
0.001909810588134846 
0.006524827998955884 
0.01802130124672097 
0 
-0.01964588167575218 
-0.04342364652124254 
0.01086371957556787 
-0.0004483769070965024 
-0.008225154772091479 
-0.0003045040581362667 
-0.02687943714486759 
-0.004983701192219652 
0.00386299560965202 
-0.01530332071533935 
0.008205307424601481 
-0.02953042743911863 
0.7092220997527263 
-0.01952973963444908 
-0.009545135349882947 
0.01770984853455136 
0.003993271104587231 
0.002253741470950986 
0.02108105048316131 
0.0009549052940674224 
0.004334837741428974 
0.003837400272160158 
-0.008364404892851412 
0.005406238071933021 
-0.001385788252633867 
0.02459693436779828 
-0.005394035346300625 
0.006235428985116781 
-0.005027303344792158 
0 
-0.004745206783678834 
-0.001400964208291561 
-0.02663274771492767 
-0.006678156145260274 
0.03835589081865724 
0.02632612352337764 
0.008387759894810961 
-0.01230883698246675 
-0.007704776148920126 
5.576018572354687e-005 
0.01094779897887523 
0.004690915565071822 
0.002881424319880984 
1.626303258728257e-019 
0.02487967430166948 
-0.009795171086680179 
-0.009998995033215124 
0.03137095661047122 
-0.001566589118651589 
0.02901463855764748 
-0.00415211904063905 
0.01081487848702964 
0.01514166256311464 
-0.004029464164143413 
-0.01184828338455128 
-0.002646903086869088 
-0.04828269475251144 
0.001913564064727535 
0.009059467582813145 
0.005844831551268161 
0.009454671639011519 
0.01995651352509315 
-0.02118869734842218 
-0.01956982718572807 
-0.004755576855806531 
-0.01088004484875907 
-0.008055204729628004 
0.009670004025966602 
-0.01338904032639689 
-0.04235653955385083 
-0.01816364577171639 
-5.421010862427522e-020 
0.00754521498133383 
-0.01703257908458074 
0.005864807351600927 
-0.01204434167867686 
-0.001697729505968782 
0.006844293027372213 
0.01476812557313281 
-0.001706237131257939 
-0.008657013935870048 
0.03045531863566795 
-0.0349606060069523 
-0.0005807284147287837 
-0.0191089002901219 
-0.0149852088884167 
-0.001539652380488086 
-0.01560393995216266 
-0.00433316960448001 
0.01381575153583698 
0.00390492113178503 
-0.09284394523181172 
0 
-0.004015640635953027 
-0.003361869171391958 
-0.005725955955361399 
0.02415573114097656 
-0.007930406608566153 
-0.03017917625672809 
0.004845860703152454 
-0.005517950500153879 
0.01061496596736676 
0.01016716143464598 
0.002899376397274485 
-0.01320479220468946 
-0.003713308512317142 
2.710505431213761e-020 
-0.01131534851141208 
-0.007645608636261634 
0.02348337431069271 
0.01098805921444097 
0.003078525360246482 
0.00476620794376587 
-0.0005692973405119417 
-0.01347112307945327 
-0.03572656665777137 
0.02812148588348138 
-0.008860395229500599 
-1.756791969218817e-005 
0.0006161480467401926 
0.02641380794787427 
0.0009549052940674221 
-0.00107507384706789 
0.01778381941896668 
0.003011904822718111 
0.008232491752451367 
0 
0.02254627635534837 
0 
-0.003070997665006506 
-0.01522248956748641 
0.0003743661829765604 
0.0004700706282366495 
0.003188426139099343 
-0.003994486395175635 
-0.03663469170793166 
0.007071952953619405 
0.006561615457248147 
-0.005924416129019976 
-0.01394949588189375 
-0.006518400565281568 
-0.003197213746571628 
0.0007373726778801013 
-0.01556298325367336 
9.618928372833824e-005 
0.00056214227691231 
-0.01079426410430745 
-0.006834915066421487 
5.576018572354677e-005 
0.001591100927736623 
0.03101843459033166 
-0.00349991908337768 
-0.001518282163127391 
0.005318276692798952 
-0.004320585706185126 
-0.0178452437341651 
-0.0001611127637875244 
0.0145370788944164 
-2.168404344971009e-019 
0.06621222456417016 
1.436567878543293e-018 
0.05618903664811153 
0.02442860249830128 
-0.003183192218473118 
0.03459512388808264 
-0.008752055912735313 
-0.01682044125881803 
0.05498588191552317 
-0.002413160042740463 
-0.007507214145988892 
-1.490777987167569e-019 
0 
0.01601523947672268 
0.03086213619861159 
0.004952439528616155 
0.001780945977648898 
0 
0.006637316714495388 
0.01957204324272743 
0.002397709879000557 
0.004179477888006601 
-0.009234879749122207 
-0.04466222278910999 
5.576018572354824e-005 
0.03756777527024633 
-0.001567909870157314 
0.03204270092261792 
-0.003440744918548094 
-0.04559936677493499 
-0.003543517389669346 
-0.007938678785028776 
-0.001386614648061141 
-0.01846798006924173 
-0.002131607084172733 
-0.02164962020428417 
0.03522686543768876 
0.005585235105647036 
-0.02199382474555592 
-0.01161093986784276 
-0.004730241339095108 
0.007315580297934035 
-0.003223990892772648 
-0.01705503354212045 
-0.01996929672178533 
0.003761973389394724 
0.04204893231758333 
0.009673784818949345 
0.01227203634757971 
0.02301464443086295 
0.001726860351979904 
0.01911159041252764 
-0.004678375928332262 
-3.589948665735373e-005 
0.000489440652423501 
0.0008456418100568956 
0.009270574120696762 
-0.01205147479644081 
-0.01373704936154438 
-0.04726141211104051 
0.003180710257227148 
-0.004678229337092869 
0.007031402063765533 
0.002609616190757831 
0.002820296752837829 
-0.0398011315062107 
0.004372214279139239 
0.003236470442950691 
-0.03389725300433378 
0.02813104990249491 
0.0140312190896758 
-0.01678142145895213 
-0.02628653377058352 
0.005453066740286575 
-0.01805353599779227 
0.002835018829837494 
-0.01533618219989184 
-0.001448385401436577 
-0.008781224456046097 
-0.01466449812935367 
-0.1320612269407138 
-0.006185911819835313 
-0.03828137228755719 
0.04790456184047544 
0.005861539273575515 
0 
0.0153039881658326 
-0.001590925840033307 
0.001492217362795311 
7.047314121155779e-019 
0.01532372933827025 
0.0017548338764202 
