solver_type L2R_L2LOSS_SVC_DUAL
nr_class 2
label 1 -1
nr_feature 1448
bias -1
w
0.002778820712748972 
0.005902495287109444 
-0.0008418348391515715 
-0.0105882790357428 
0.009245679978850757 
-0.006405744003329291 
-0.009867956488229756 
6.505213034913027e-019 
0.0006039256122576242 
0.02140980776493957 
0.004960437405991676 
-0.02044200853721776 
-0.002892462747569756 
0.04678276381269585 
-0.008957463098559527 
-0.006427317354083332 
0.001849269492747139 
-0.02983637233536013 
0.005854828405471892 
0.002406372876406541 
0.00193152336717653 
-0.003088410606477978 
3.794707603699266e-019 
-0.01476210865406129 
-0.004542758658250895 
0.006577369365444514 
0.005034675973238055 
-0.008422311130893454 
0.0007953804140470404 
-0.01421357737741834 
-0.01043452484932729 
0.01440885804569919 
-0.0007827709107126097 
-0.01772883161164313 
-0.009506473723155821 
0.01036200808851012 
0.007609895104974565 
-0.01133349832727319 
-0.006080902684967773 
-0.0007592785536052968 
0.007788042654605944 
-0.01707611790614858 
0.01891639485439227 
-0.0001105271511508927 
-0.02075192477538321 
-8.673617379884036e-019 
-0.008855843186268256 
0.007183414330745049 
0.003212977903842905 
0 
0.001111701742073173 
-0.002916889972811018 
0.02464275258825045 
-0.02426544482851638 
-0.0009107274799692001 
-0.04385371849216666 
0.01242428034895781 
0.0099156386494181 
-0.004357136324033469 
1.301042606982605e-018 
0.01655844382992117 
0.01004304638845169 
-0.0009331327995755931 
0.00413972940738746 
-0.006937392659834991 
-0.02874151827754693 
-0.05155438853092118 
-0.001222844054687656 
-0.04508353258337539 
-0.03565854973353055 
-0.001544029232672014 
-0.002145805399156114 
-0.007540685070658729 
-0.003884626790142353 
0.00194410438581161 
-0.01755469707396672 
0.001986050719876024 
-0.01615605546323638 
-0.09403583038393525 
-0.02373653072284396 
-0.01140103218808406 
-0.01925138754355329 
0.03724554712027543 
0.002273375890353255 
0 
0.001032104816425872 
-0.005013075611366942 
-0.00237173121285635 
0.01347466025772951 
-0.001865849463934198 
-0.0151019445511582 
0.00186869434004134 
0.005130932110556163 
0.002633317037951054 
0.01525235120888159 
0.03011835215077783 
0.01564960799079415 
-0.03382217609967279 
-0.002654102598947838 
0.01145991966730985 
-0.007308397208114614 
0.008647439730021923 
0.01726434329315178 
0.004498841109691328 
-0.001108552732198695 
0.005642673089378606 
0.01095811823289766 
-0.02105833800554058 
-0.04989710522422109 
0.01877925786247755 
-0.000863640260304132 
-0.01680134052020849 
0.0007680878065482973 
-0.004685218605203303 
0 
-0.02108706318680543 
-0.00723117998017455 
0 
-0.01595073921017196 
-0.003518007836049629 
-0.001727817458966806 
-0.03747904149893713 
0 
0.004858012247398884 
0.007715732607154725 
-0.007412558749756043 
0 
-0.01953519233195756 
0.01137299707227428 
0.002931498461642075 
-0.02732342986601612 
-0.003770758484875665 
0.002426299860883933 
0.01268567502814627 
0.004095130365950911 
0.00547319373200956 
-0.02802026526115078 
0.008083734734757958 
0.01218123638045893 
-0.001271097182742537 
0.0100105544775948 
-0.01086403395896632 
0.007619574547200847 
-0.007022402726805097 
0.004937181344463237 
-0.01985963633485282 
-0.01411601479649742 
3.824372493720143e-005 
-0.01309626781307667 
-0.004079315395128192 
0.01249207494312639 
-0.002306208454183999 
-0.02307322606207206 
0.0007934865407238747 
0.002133614483004543 
-0.007822682154119718 
-0.00733083510404639 
0 
-0.02155542188871479 
0.002885994585211668 
0 
-0.002654861012276363 
-0.01166228709869559 
-0.0007166091471745125 
0.006125878482480023 
-0.01307300309977248 
-0.003792881166306676 
-0.00591119046340089 
0.004746025581583506 
0.03894659037500121 
0.02431718961929584 
0.009281771362449599 
7.728378241234979e-005 
0.002475798998025936 
0.01000111388658736 
-0.02657205467592172 
0 
-0.0207806050476254 
-0.004736368481513319 
-0.02550636414769564 
0.004940056311907752 
0.001159473261904602 
0.003288594663803892 
0.01996414413183615 
0.008879913590167732 
-1.704214527056396e-005 
0.01627473182589468 
0.00245847362765599 
-0.02066879381281794 
0.02719584655201397 
-0.001557857479424429 
0 
0.001566001544280704 
0 
-0.02038070812308073 
0 
-0.006117340637717434 
-0.005232285955236067 
0.005554405785067105 
-0.0002243670994621257 
0.02196996946582089 
0.00519250602658579 
0.1152957048928084 
-0.01377547021734757 
0.02751637810447557 
-0.0170505437259387 
0.01772851229496093 
-0.007696244652202309 
0.005147419795291117 
0.006047934536216454 
-0.02153014614549097 
-0.01061062399801571 
-0.03656493506467386 
0.009725327025394394 
-0.01012708538710888 
-0.01466356242654524 
0.003747713589234855 
0 
0.005731258423402557 
-0.004174597169103822 
-6.248268914506421e-005 
0.03163486646713662 
0.001644564289646405 
-0.02620985340402247 
0 
-0.05001058649131298 
-0.004593603005118372 
-0.001211210354812597 
0.006723197063320459 
-0.01217705275084396 
-0.01206558642506815 
0.0171044511131449 
-0.02893071595144838 
0.006767525915880772 
0.08310208840849845 
0.02633278696081585 
-0.002581192402430457 
-0.00728813007291567 
-0.004319688781244281 
-0.01715197509030143 
0.01065195673326596 
-0.01253689722369077 
0.01342648540375913 
0.0232264209082783 
-0.0111054451933879 
-0.01128818195172592 
0.00820880179764027 
0.002193988282705433 
-0.01688776238627977 
0.04200035516825609 
0.02258876411308337 
-3.252606517456513e-019 
4.336808689942018e-019 
0.00782186833211895 
-0.005548133119432443 
-0.02516298847923986 
0 
-0.06507038224872137 
-0.00643977231080601 
0.005165031280490767 
0.008326781178973683 
0.01564960799079416 
-0.02834399240054842 
3.252606517456513e-019 
-0.02517155680927891 
0.0008160769185539015 
0 
-0.0002478852097684477 
-0.008357468852448266 
0.00970213652221353 
0.002142591688157171 
0 
0.00517733483706462 
-0.02374585800045309 
-0.002172649541662007 
0.005728039478525558 
0.002665876984669789 
0 
-0.005416807415108266 
-0.01776327975592633 
-0.0008636402603041355 
0 
-0.006781692168806823 
-0.0004654740467680227 
-0.004226532254997227 
-0.02256028259111378 
-0.0228790468568299 
0.01987057057186851 
-0.002158445875939675 
-0.05216515278146801 
-0.007031241141689335 
-0.0190989795059907 
0.0007015480669740181 
0.009042143587129674 
-0.0125595334818312 
-0.007276372351769358 
0.02225037645442282 
-0.003241125863522675 
-1.023670086511904e-005 
0 
0 
-0.004522136006726787 
0.001159473261904602 
-0.008386526168060734 
0.0237471950326335 
0 
-0.007823584225104058 
0.02238781323120449 
0.0009880112623815501 
-0.03076890003761339 
-0.003501370290637017 
-0.01055955465000472 
-0.0004597900030645879 
0.01337551268954755 
-0.01540575963094585 
-0.01860169639192434 
0.004476276392638631 
-0.00760916790470061 
-0.0188298263075906 
-0.01306494211959425 
0.0402451773753317 
-0.002457338708744351 
3.469446951953614e-018 
0.002893871923255958 
0.0104372245803548 
-0.005611230433069277 
0.008824027775488116 
-0.03290083758346862 
-0.00401003200447078 
0.01043234556613052 
0.03886845904151179 
-0.01552180665726422 
-4.336808689942018e-019 
0.003178600370107052 
-0.001287380088283605 
0.0005332876755136723 
-0.02546918992399266 
-0.002548272461749592 
0.0168108619710094 
0.002885994585211668 
0.01438201921304975 
-0.008191371126178985 
0.02291145330629904 
-0.001791220751972231 
0 
-0.01272293958616174 
-0.02348484557568859 
-0.01226097033331451 
-0.0339543436296243 
0.01286119398184678 
-0.05496035210605332 
-0.00110098975644344 
0.0622886544966868 
-0.007115626521235397 
-0.01338864753937907 
-0.001215693935436183 
-0.0444210403225779 
-0.01060140475587131 
-0.01184374917070022 
0.02909013079087881 
-0.004704942869712276 
-0.00209060990871639 
-0.02343925085098033 
0.01810780335215275 
-0.01412733518301519 
-0.01873639653484491 
0.02658923686421309 
0.01035808608044479 
-0.006689493335823749 
-0.02938898149444552 
-0.0008906846740200025 
0.001159473261904602 
-0.04464954827202359 
-0.007250725632437153 
0.0009555526811952184 
-0.01162909278325225 
0.05230072541108395 
-0.004877958950448465 
-0.01616071832441431 
0.001856075603130997 
-0.01801483421619527 
0.00428385477186978 
-0.02136370428993215 
0.00550305739189517 
0.01756786734221016 
0.002880430685762446 
0.05071086010909703 
-9.357081271933401e-005 
0.006440770623871698 
0.01124586947035871 
0 
0.01559756268898111 
-0.003289694223446662 
0.003918475873133015 
0 
-4.336808689942018e-019 
-0.0084853841781347 
-0.003754886465303802 
-0.01336726023697963 
0.008483005960310479 
0.0005651686290290497 
0.01881041313555296 
-0.00266125861278436 
-0.006398451779837328 
-0.001955006816039528 
0.004554629934470731 
-0.02057003776687095 
-0.003407799477917681 
0.08566140219698437 
0.02637554492536599 
0.004628437899101404 
0.01249504128944625 
0.01164916533405961 
-0.008948557114654632 
-0.001795586169916588 
-0.02795658314664319 
0.004027148890582067 
-0.01018272232753435 
-0.04470273232547863 
-0.004678951874241615 
0.008920374382219846 
0.03212507570934847 
0.001657710001878467 
0.006247520644723125 
0.0004154585676857693 
0.007621579101325101 
-0.01167242423364526 
0.001849269492747139 
-0.03782222460319018 
0 
-0.004181219817432781 
-0.005428680762742382 
-0.009333291280640085 
0.007561074525809164 
0.009092097342730256 
-0.01666189276291276 
-0.005367874747308614 
-0.000863640260304132 
-0.04251113220824151 
-0.02515787321274204 
-0.02013468725501482 
-0.01139593150598599 
-0.02159773011310008 
-0.01115892994645412 
-0.006241535743713255 
-0.003961620555180317 
-0.01410943233881535 
0.03462404417017425 
0.007927237823581151 
0.02177885165507608 
-0.0006305896940712176 
0 
0.01576534065045013 
-0.031080751028263 
0.002318946523809205 
-0.01172537337111052 
0.0007337779933537137 
-0.04903792527197062 
-0.0007003704322569231 
-0.0001950347455400464 
0.01460999251050709 
-0.00745495920269316 
-0.01168770599389906 
-0.01131114080421175 
-0.01421586834883951 
-0.003686205518531213 
0.01100691491872649 
0.02930077466326993 
0.005014120941585147 
0.002056857397875692 
-0.001621720480673497 
0.003645141984619067 
0.006420920495058611 
-0.0007132212329983624 
0.05415785911147967 
0.007225928430417729 
0.00132274308995181 
-0.008200803579434949 
-0.02705349122182578 
-0.01846647174412241 
0.01062667460703301 
-0.02275720337500469 
0.000170740621989109 
0.01442053534774085 
0.04399095358288638 
-0.02983271182262996 
-0.02661732493188784 
-0.004928348543665005 
0.002067161550072384 
-2.168404344971009e-019 
0.01239643974358503 
0.003229167407092351 
0 
-0.003006799073914655 
-0.04383243374592159 
0.02935827883460499 
-0.01921053968477253 
0.01248470531752736 
0.01237109728032027 
-0.01167322660349585 
-0.01390789477427975 
-0.01537111049120537 
0.01588870508746109 
0.03804971497727053 
0.01220410667580245 
-0.006898788584524898 
0.0156437366642379 
-0.02689812760486463 
-0.00455631796271487 
0.007519625360646914 
0.02390775850411499 
0.0155402553353401 
-0.01329064244250771 
-0.01417138317415357 
-0.00685623757893672 
0.01510578645730474 
-0.003238228605307388 
0.001781411549629767 
0.007024692584650768 
0.01285968064576621 
0.009973292282228199 
-0.0009717323654821631 
-0.002962227421583513 
-0.03681358924973038 
0.1206405449654328 
-0.007725076159371142 
-0.00114624819039146 
-0.01609345562531093 
-0.009675834543002169 
0.003643989947314062 
0 
-0.01461549511256507 
0.001917819191591376 
0.02787998441537185 
-0.04180668668242525 
-0.002537723585719295 
0.06060686536631559 
-0.008551834956354101 
-0.001098804675906397 
-0.01657706682472785 
0.0005332876755136725 
-0.03154277974439829 
0.001326774216237545 
0.001291689223719093 
0.008494593235606855 
0.01168370728215008 
0.01473846513594675 
-0.01025735825364742 
0.001759681798023121 
-0.0232310924470101 
-0.02000400152691891 
-0.001638300791614425 
-0.0377335465216907 
-0.00935503293811079 
-0.01481097610624757 
-0.003571826424128007 
-0.0003913854553563049 
-0.04743690700946428 
0.04395065208518552 
0.0004469809044338537 
0.002063251612062859 
0.004991036032959036 
-0.01010698467218407 
0.005073654916570279 
-0.005850300671872573 
0.05998146055469145 
-0.02508097396431532 
-0.0149367782900847 
0.001645475353173611 
-0.0215431811089762 
-0.01022339843375304 
0.003714332606601113 
0.02167421577586937 
-0.002111181271590031 
-0.004565948348661212 
-0.03690893616709887 
-0.006474553612721786 
-0.0129533435546073 
0.006586933304709226 
0.006250840185092118 
-0.01040922646119871 
0.001977665559887654 
0.01501074347089799 
-0.02034468887247735 
-0.05066625126096232 
0.007802847842802068 
-0.01549579618636448 
-0.004292604541088783 
-0.004722218736413503 
0.00239259975437757 
0.04305857173142128 
-0.02496916278956014 
0.00194410438581161 
-0.02355618123565585 
-0.0130098785012095 
0 
-0.004617490912616574 
0.000352975878540705 
-0.01644495968360766 
0 
-0.004800097818739925 
0.0004154585676857696 
-0.001108552732198695 
-0.00837828156813775 
0.01791433605122705 
0.003684714152377498 
0 
0.007506767580441648 
0.06069505152062673 
-4.336808689942018e-019 
0.01748419292784829 
-0.01183563715922451 
0.00114098616213036 
-0.004061229969311397 
0.01502216573595249 
0.1679857436754617 
-0.01113772315930488 
-0.008346565756778957 
0.03157863284884915 
-0.01097051477518785 
-1.694065894508601e-021 
0.00925455531541956 
-0.03022626294245137 
0.007642781567014719 
-0.005232285955236067 
0.009315378994178638 
-0.01096710758432412 
0.00401170868511976 
-0.009656886187831214 
-0.012602400859436 
-0.02127582062709182 
-0.002732536108688443 
-0.02148462255773514 
0 
0.03430012563737965 
0.0005754316226578822 
-0.001379277883615146 
-0.003805762596625956 
0.003298472076911301 
0 
0.01233075236564508 
-5.421010862427522e-020 
0.008036612617505948 
-0.001536139006599202 
-0.008456186776821069 
0.004883659687694959 
0.01331795067136311 
0.08002134612325429 
-0.03997130818030437 
0.005117438532626651 
0.0001632698280472103 
0.004096756592340042 
-0.0189727378163122 
-0.01684642699781935 
-1.831548377315327e-005 
0.000776063976156901 
0.0004170969709760607 
-0.009710926638110311 
-0.0308455225714719 
0.03934370498649482 
-0.01120630243557484 
-0.004313557414355971 
0.001441631032883088 
-0.01863120730706552 
0.010125450961879 
-0.00159160844012768 
-0.003972960747854999 
0.01363753907509591 
0 
0.009694940104339347 
-0.007737799458455309 
0.004013065774607793 
0.008378965744300406 
0.0231013208123278 
0.000533287675513672 
-0.01365245842439026 
0.02135571094390695 
-0.0401401076718306 
-0.007128277794284688 
-0.02499522043261736 
-0.004697937521936738 
-0.01155601109814012 
0.01945252823193583 
-0.02923961769957932 
-0.01521107908930993 
-0.003584987864439742 
-0.003261539808113848 
-0.009039658261564391 
0 
-0.02967147092498195 
0.0160541712305438 
-0.02253912641158859 
0.04280441860196048 
-0.01137241973747494 
-0.03207774836628057 
0.006225311023495216 
-0.002452621133430422 
0.003293072291611675 
-0.02309447371421306 
0.0009741412210999406 
0.01405856755098031 
-0.01378825339505692 
-0.03279872208716816 
-0.003271325618985713 
0.005039151536574098 
-0.03164505302383958 
-0.006846598284094866 
0.02021010779133522 
-0.008200803579434949 
0.0134898351268585 
0.01373290836687875 
0.02261160558742792 
0.004162647453881005 
-0.000220117600541878 
0.01006535309042303 
0 
-0.007792418150342048 
0.006666249745647499 
0.02533409578540673 
-0.01458886839778336 
-0.0134337698062417 
-0.001828103912333433 
-0.0007827709107126098 
0.03602243700439008 
-9.357081271933358e-005 
0.01370900159223099 
0.001856075603130997 
4.336808689942018e-019 
-0.01826500919199932 
0.01922608933782768 
-0.01069357094906178 
-0.01871204556350442 
0.003171538996591747 
0.03943418364007199 
0.007340302734121741 
-0.042780755268953 
0.06584919915482491 
0.003660998311887736 
0.02530497069742492 
-0.002647152893930845 
0.0006598067721298221 
0.05663521194949848 
0.01312099502235121 
-0.005828829522350734 
-4.336808689942018e-019 
-0.003327904732888975 
-0.004707258332532237 
-0.01534300728678892 
0.002886548799232617 
-0.04933202977363056 
0.003095704615462508 
0.01278779201863919 
0.0009741412210999404 
0.0009967589570863246 
-0.0121738323257096 
-0.01004725264067178 
0.006498579329371424 
0.0103109670688965 
0.0005770303681367961 
0.02171443028261192 
0 
-0.01247104014147956 
-0.0175758473249397 
-0.06085429013765492 
-0.0002469974666268749 
0.003087533857998729 
-0.00908623758928977 
-0.009603826894963728 
-0.003615217735541872 
-0.01609474766617184 
-0.02458524720778582 
-0.01258177047495362 
-4.904181182401849e-005 
0 
0.005457556935346568 
-0.01347117028119429 
0.03983152098334625 
0.005504098855448509 
0.01165332209025973 
0.01199654228379566 
-0.009080340917480799 
-0.007065072455861985 
0.005431861455807341 
0.009408949806897967 
-0.009186973221453844 
-0.001524780555234223 
0.01564960799079415 
-0.01597590706810372 
-0.0002311107208679947 
-0.03022354808846236 
-9.357081271933358e-005 
-0.002494287684902442 
-0.002807622775699157 
0.003571240472581746 
0.01125340581509446 
0.0135957970343622 
-0.01503632888067607 
0.0005462498728020776 
-0.02138634842741999 
0.01123855667768217 
0.002790521844583191 
-0.0116280366819536 
0.1049947375891867 
0.006006352496323367 
-0.02246049265271192 
-0.02285465513456433 
0.0008948711308233848 
0.02907638902101675 
-0.01535003197230201 
-0.001759208705269248 
-0.004029409165132641 
0.01863646753752758 
0.05747942953551136 
0.0004506001821285534 
-0.0131582113477023 
0 
4.336808689942018e-019 
0.008912820835859647 
0.004637893047618409 
-0.00888777937876719 
-0.01278976926131609 
0.002885994585211668 
0.032516741605278 
-0.02424229562409432 
-0.004240383662013684 
-0.002038564022142144 
-0.01681731662512476 
-0.01821229686042506 
0.05367637023732338 
0.05566927801238146 
-0.01971596311147905 
-0.009239109681759209 
-0.00770705289200737 
-0.004564788308341419 
3.252606517456513e-019 
-0.0005109355849846323 
-0.02343641054550324 
-0.007412275221960295 
0.02311355986930845 
0.005855955780736719 
-0.008478145759301645 
0.02955867317101654 
-0.002727955770993923 
-0.002699173932705137 
0.002922423663299823 
0.01924170823251114 
-0.003442524459040606 
-0.0009292128556817924 
-8.673617379884036e-019 
0.005851066274040977 
0 
0.01211320038782674 
0.02451338065368808 
-1.084202172485504e-019 
0.008782108038487602 
-0.01351332141350909 
0.004215607600462503 
-0.001795586169916588 
-0.01410096339668662 
0.007892763928259742 
-0.5820971686983862 
-0.01834825543607242 
0.01765093987364833 
-0.03963507076939994 
0.0009880112623815494 
-0.024982565177297 
0.002256321641978276 
0.003854051506823923 
-0.03903090706880197 
-0.01103682863934217 
-0.01215703667211284 
-0.009933493066218059 
0.01164798219320535 
-0.008191927093797114 
-0.015555108698393 
-0.005445529747892529 
-0.02111315316922247 
0.01765093987364834 
-0.009040411659253077 
0.01231468505102133 
-0.03298289570488439 
0 
0.01655844382992117 
0.007050783784857011 
0 
0.001944104385811614 
1.084202172485504e-019 
0 
0.02879780193510821 
0 
-0.0187076190954342 
-0.0004256952685508883 
-0.004476236124795045 
-0.006999569982190841 
-0.01051705318529638 
0 
-0.02809180144571795 
0.0102376114531495 
-0.002752797242940056 
-0.002989567639820815 
-0.07422400097275245 
-0.02305080470089604 
-0.01110712947443736 
0.06413390655574561 
0.01899164024985479 
-0.03013862298987888 
0.0363294601481015 
0 
0.00672319706332046 
0.007125013583716427 
-0.01811743246334883 
-0.01902350184426271 
0.0396039250754082 
0.02047221541952242 
-0.03991380618535325 
-0.0333196471010674 
-0.001524780555234223 
0.0102301797583247 
2.168404344971009e-019 
0 
-0.003307012339015533 
0.01272736504863139 
-0.03746215379580328 
0.03355842479448163 
-0.03233133228083704 
-0.02072176771386616 
0.01752175727150751 
0.001417868644399258 
0.001941527555676601 
-0.01256412379893664 
-0.01489998189229259 
0.008911554306234304 
0.001702724855738019 
-0.001889156982635922 
0.01328538913470392 
-0.001375868411770665 
5.421010862427522e-020 
-0.0292966420193179 
0.01768887977051598 
0.001773152491048594 
-0.004383059450697802 
0.02220033369243551 
-0.0004256952685508884 
0.006573526296482389 
-0.002519598984565392 
0.01136121650515845 
0 
-0.001759199188396673 
0.01249572351558203 
-0.04241003940672183 
-0.02596747751209257 
0.04226007550719029 
0.004340272672166994 
0 
0.00579736630952301 
0.01224116767030904 
0 
0.009554453003606418 
0.03979820314328952 
0.002117986371610376 
0.001159473261904602 
0.01064094090114235 
-0.01878777393131078 
0.008336456032263642 
-0.01043452484932729 
0 
0.003343568926137946 
-0.02035563790216029 
0.01135666627263168 
-0.01632313593347872 
0.01169519903758749 
-0.00265555615211314 
0 
-0.006534095935422818 
-0.0004655950516771311 
-0.002172649541662007 
2.168404344971009e-019 
-0.02640245225689573 
0.007591765173866235 
0.007882670325225069 
0.001893766428664193 
-0.02216764781879549 
0.001054244705684973 
0.008409624538814687 
0.03513467996310837 
-0.0002807124381580007 
0.013332499491295 
-0.005450015959671235 
-0.001215302920280055 
0.01195894391935527 
-0.01500018102150927 
-0.01115813597431273 
-0.01032395967393245 
-0.02612249566252803 
-0.03500595291362097 
0.0009737500944517941 
0.002013030871764247 
-0.009796915958249622 
0 
0.004609624995969263 
0.00457445984945122 
0.05550195202633566 
0.006878044819494609 
0.009597957857558303 
-0.003532108785099258 
-0.03619283376505331 
-0.04839784439562585 
-0.001639658599267427 
8.331878411521981e-005 
0.004900641294644868 
0.01143873461861612 
-0.002172649541662008 
0.006372378407269178 
-0.003887429032898527 
0.009734755255457315 
0.0241413992583214 
0 
0.005646304871517202 
0.03382352337499085 
0.01340343873716379 
-0.004065067827226414 
-0.02471598233968858 
0.009245679978850755 
0 
0.01359784608717011 
0.004991036032959036 
0.006597817002174284 
0 
-0.02553979727534631 
0.002476657249845451 
-0.01362905652112241 
-0.001167896971935511 
0.003372262542033547 
2.059984127722458e-018 
-0.01987222126651096 
-0.003643115167055959 
-0.1030341337470989 
0.003674729996081856 
-0.007683395844220736 
0.01881041313555296 
-0.02403051301142061 
0 
-0.01064613967681116 
-0.01711756125007198 
-0.006000331836014561 
-0.003309390467943788 
0.02930106304088492 
0.01359579703436221 
-0.03254033924536612 
0.02310538384825557 
0.001535396707941949 
0.000773365805398265 
0.00105515988054075 
0.008400120379657828 
-0.004849048687197788 
0.003178600370107052 
4.336808689942018e-019 
0 
-0.003926815139079615 
0.01997174614161242 
-0.02838819529759472 
-0.02930741610622451 
0 
0.0483209092065174 
-0.01139364469782963 
-0.0008198292996337136 
-0.005762970620294489 
0.001887957168303037 
0.008522026064395812 
-0.0178214703354495 
-0.00337309213327356 
-0.0006210869005562648 
-0.0008999438653356466 
-0.004500648922906762 
-0.002815867778273422 
0.001455306263505072 
0.04377167105420907 
0.005170634094912242 
0.02112208875671713 
0.02854545183161292 
0.01128552049566737 
-0.004796164334584136 
-0.008681286507345697 
0.005568066401095827 
-0.004138574312429561 
0 
-6.248268914506421e-005 
-0.02758811221742554 
0.001025331863620457 
-0.00383502146082529 
-0.03123090080211623 
0 
0.0127158486017204 
0.02125764142977493 
0.001159473261904602 
0.00672319706332046 
0.005112969841880982 
0.0070889839728076 
-0.003629856922249692 
-0.01249610692870928 
0.0008400689219933664 
0.01877389048112159 
0.0283306760904861 
0.008337753419748946 
-0.007663156447767291 
-0.009962993482239634 
0.0004416599558694607 
-0.01398407018516074 
-0.02798277132952403 
-0.011968981512643 
-0.06009084511282836 
0.0124570707940879 
-0.001791220751972231 
-0.07267188586522888 
-0.1045232619040952 
-0.001581525695347684 
0.003528741455218406 
0.001159473261904602 
0.002318946523809205 
-0.02214612248142449 
-0.004303904749903494 
0.002651274047124049 
0.005034675973238055 
-0.02955352837395349 
-0.0044927097011496 
-0.01438651423063214 
-0.002720504768127308 
0 
-0.007745304154122258 
0.005824582667029803 
-0.007228877021647299 
0.01547740180304262 
0.001460404146036665 
0.0004842770746401525 
0.003177903871865328 
-0.0008423272147309027 
0.01079095582026916 
0.009939854703729333 
0.001880937878799899 
-0.04362578496167607 
-0.0008237335534105462 
-0.001075806104733136 
0.003338960905209457 
-0.008704593781642041 
0.03827595128920455 
0.00194410438581161 
-0.004785613552124752 
-0.003887429032898526 
-0.004184976850084582 
-0.02696210849495531 
0.01063240106503473 
-0.02337141455851784 
0 
0.01146615337719288 
0.01241591383005497 
-0.003346364363223607 
-0.001638300791614422 
-0.01053012232353678 
-0.00979794478222855 
-0.006534095935422819 
0.02007833303914926 
-0.01882641563201268 
-0.000425695268550889 
-0.01527109216745168 
0.002696144525124363 
-0.01867185999908026 
-0.001827881944815233 
0.0004995689481988846 
-0.001499938187555001 
-0.005217262424663642 
-0.01815536799236257 
-0.01358700456112265 
0.02477031909052359 
-0.01681618972885659 
-0.04432755360552392 
-3.160891276396958e-005 
0.02368271116112394 
-0.009997936083215373 
0.0007934865407238729 
-0.01448735292560856 
0 
0.01885328029754415 
-0.008464926052544321 
0.002469012063175532 
0.009054220421563184 
0.001159473261904602 
0.008926881221649212 
0 
-0.008522861846103737 
-0.01299462727318422 
-0.002172649541662007 
-0.005696468860553168 
-0.01192530438244394 
0.002318946523809205 
0.01201467076830049 
0.01656025059058981 
-0.000863640260304132 
-0.03897885775324355 
-0.04980915087783316 
0.01788311310671346 
0.006247520644723125 
-0.0125210709698581 
0.004209356952742203 
-0.0001560535018644013 
0.008056069319389521 
-0.01448568084897926 
0.01368503734024414 
0.005618090440180602 
-0.01223688451619344 
0.5373318417471287 
-0.01982148454761493 
-0.02023827540479404 
0.03598717783509087 
-0.006802013523677012 
-0.0002201176005418778 
0.02695654497825644 
1.322507151314226e-005 
0.01026804293097099 
0.02271563266292444 
9.279031279596799e-005 
0.01373544732240596 
0.01260439508564485 
0.004222349997921318 
-0.006935444781442108 
-0.00813335285880281 
-0.0006288071174676588 
0 
-0.01054684291444164 
-0.008326224164145125 
-0.02560641429418694 
-0.001919869286727281 
0.01355164571949764 
0.0309188675233644 
0.01618552193557077 
-0.001973892568014791 
-0.01609631991420239 
0.0003976331539472357 
0.02171968938199096 
0.009886501960039824 
0.00144472878832789 
0 
0.01467595981953985 
0.004175260439537191 
0.005502955581399814 
0.03254385001935969 
-0.003710987017340845 
0.04765561756918198 
-0.0002201176005418778 
0.004160770764852131 
0.01053958045111605 
0.003970202577128709 
-0.01358727570263599 
-0.002542084203171556 
-0.03917235761723314 
-0.0172967122214621 
0.04356535859403868 
0.005903055716108502 
0.007448433394420148 
0.02790068942148512 
-0.01288467462222426 
-0.007674362690486101 
0.00526946871899275 
-0.01120672590257639 
-0.0170928948997208 
0.006666249745647499 
-0.005097408982631044 
-0.06422327812862774 
-0.01634594852861615 
2.168404344971009e-019 
0.002182472689987713 
0.001674735963303938 
0.003120357911111697 
-0.006955087482589955 
-0.01097955039358404 
0.01082709753710676 
0.005027948954033076 
0.003620459451295142 
0.001151281090428761 
0.02572363301589445 
-0.03625851710790291 
-0.002090609908716391 
-0.03700283229958336 
-0.01005264251914267 
-0.008216073303700349 
0.003986788712729229 
-0.00953258230316743 
0.0101179549323215 
-0.0001529809564042231 
-0.08928612736747466 
0 
-0.007613207716671097 
-0.001656160072273696 
-0.0001554918488791403 
-0.003644688590405132 
-0.00394431551557729 
-0.01443981345401717 
0.008014270207838873 
-0.006303838124216567 
0.002013030871764248 
0.01287886864569534 
0.003534051195820131 
-0.02583470752160588 
-0.02365485538637637 
0.0007676510014137001 
-0.004772297100985144 
-0.007532830143059584 
0.04111531909446803 
0.03318674618596836 
-0.007856723262917108 
0.001085886447208404 
-0.001108552732198695 
-0.005256329890063385 
-0.02333445726886342 
0.01400471455839101 
-0.005895205373724701 
-0.003815029414017741 
-0.0009258313406694089 
0.00734965043068505 
0.001159473261904602 
-0.002480135630765997 
-0.007431746365472845 
0.01295214707677088 
1.624609192833748e-018 
-0.003771323290200474 
0.0243256602927598 
3.604125190567048e-019 
0.001251995445512396 
-0.01730513822041863 
-0.004231888200535948 
0.007549532249503268 
0.002273375890353253 
-0.0008418348391515718 
-0.05782655369622553 
0.005868030887404094 
0.01351917213990327 
-0.006654314645831706 
-0.01014944520087547 
-0.00614788599823886 
0.001393836587804632 
-0.0001554918488791405 
-0.02356917965240712 
-0.01425372942004289 
-0.006286965668395354 
-0.02858585191774687 
0.001933963230367152 
0.0001632698280472095 
0.001941527555676601 
-0.001733293659105352 
-0.0002311219859854057 
0.0110662971631821 
-0.00387290050084669 
0.01178322468417349 
-0.007611730967885562 
0.001048500414833213 
0.01014022644690739 
0 
0.07945201708041769 
2.168404344971009e-019 
0.05720297624512242 
0.005099356566323796 
-0.02230583340139864 
0.0379594964444815 
-0.02039355618654194 
-0.001931548689874383 
0.06704933290534733 
-0.01548747082787067 
-0.009310406935480362 
0.0005332876755136725 
0 
0.02368190782775268 
0.04604013286370675 
0.02699255196760697 
0 
0 
0.01621384157749302 
0.009347757775951222 
0.002549321658565187 
0.004281255507503268 
0.004918154247866765 
-0.04377566932380109 
0.0001632698280472078 
0.01359579703436221 
-0.008464926052544321 
0.03665778459900329 
-0.004890722768569227 
-0.002163142277552328 
-0.002607429518892685 
-0.01149610623277189 
-0.0002201176005418787 
-0.005091361163767176 
0.003342769696436525 
0.004595717054613648 
0.03376320168131134 
0.01566710778145184 
-0.02685986521377349 
-0.009968116524406902 
-0.004502264593940672 
0.001983047969115275 
-0.004667893650996146 
-0.01715322990839165 
-0.006946026541346845 
0 
0.03998630864814105 
0.00173109110441039 
-1.084202172485504e-019 
0.02097696522514894 
0.0001826187714247859 
0.00320013937460112 
-0.01042976331339249 
0.002117668372699982 
0 
-0.005174237214461161 
0.01313959834974536 
-0.01248643213554007 
-0.02930740964659069 
-0.05114604333722762 
0.001981189984374432 
-0.00650680453352652 
0.02089841454807904 
0.009734755255457318 
0.001245632801808556 
-0.05725113666811747 
-0.0002651587064176762 
0.0001632698280472089 
-0.01844716220156915 
0.02081030648151071 
-0.000340967275462519 
-0.02449876399547477 
-0.0594914007080517 
-0.006170152517627617 
-0.003257560204177503 
-0.01472423272231375 
-0.007371186490235058 
-0.001990280709860594 
-0.03102275309634584 
-0.01393305879162196 
-0.1271485202919792 
0.01372079333395718 
-0.02831772693937078 
0.0448765794405981 
0.01657693187843491 
-0.0001871416254386672 
0.04868647480703649 
-0.000863640260304132 
0.00780423822293659 
0.001948282442199882 
0.04134588075853064 
-0.00743643934017711 
