solver_type L2R_L2LOSS_SVC_DUAL
nr_class 2
label 1 -1
nr_feature 1448
bias 1
w
0.02211037843105166 
0.005758873253477486 
-1.084202172485504e-019 
0.01193646098801871 
0.003003229718920793 
-0.01409168662734085 
0.01404040047365017 
-0.0131989747413205 
-0.003040209902882628 
0.002014614486255002 
-0.002781698727294927 
-0.03154530836256049 
-0.03376740601589393 
0.0188352861713904 
-0.008914730275835843 
0.0002461939839847057 
0.01099988033961307 
-0.03429346700573196 
0.001407103942069361 
-0.004772532260591088 
0 
-0.001898856337810433 
-0.00157317699764314 
-0.007698382012971586 
2.168404344971009e-019 
0.005437086354264219 
0.01247990262694894 
-0.00642191624375683 
-0.005461173745560983 
-0.00373311755345196 
-0.003118308015031128 
-0.01807354554325777 
2.168404344971009e-019 
0.005073751639223938 
-0.01150555478843394 
0.003670767387672167 
0.004372869134661967 
-0.02026532691923496 
-0.007942550960925519 
0.00231615200843542 
-0.009710277636285895 
-0.02199549886158636 
0.008598870855437008 
0.01185759280796093 
-0.01915947127120032 
-1.301042606982605e-018 
-0.01484253295014242 
0.01103129374518514 
-9.215718466126788e-019 
-0.001526560333038577 
-0.002973730584127874 
0.00124502784481542 
-0.004718600464378863 
-0.05658624556406366 
0 
-0.0295983704139439 
0.01115305131074073 
-0.01523363998981469 
0.01506427505794557 
0 
-4.336808689942018e-019 
0.003030129529719333 
-0.0061473970022465 
-0.02944807233607396 
0.0008629697378081437 
-0.03143035692283333 
-0.09702189798800234 
-0.00986303098848223 
-0.04762200343690529 
-0.04293784103871776 
0.00174691490745476 
0.002269658521871775 
-0.01447738446329483 
-0.02148007932918737 
0.01269911039582693 
-0.02473672441070947 
0.00181500244219868 
-0.0207203189401833 
-0.07647476024387959 
-0.01090487045633819 
-0.01560948522751374 
-0.02568748338101813 
0.01149545546168513 
-0.01938727082668374 
-2.168404344971009e-019 
0.005907865287422189 
0.01058116329893399 
0.004536426941261451 
1.084202172485504e-019 
-0.01473756504417917 
-0.004044561185763709 
0.003138723292713732 
-0.003138277857997209 
-0.01828311926598643 
0.007345589732116437 
0.02929323350874976 
0.00753481112525882 
-0.01757034250581644 
-1.084202172485504e-019 
-0.02274502421329787 
0 
0.01203519036480942 
0.01188314323076804 
-0.001054801408936803 
0 
0.0001484201894976757 
0.003478031071080402 
-0.005598916886082561 
-0.03510107459335375 
0.01463809926979113 
0.004874184496073194 
-0.02453902545587115 
-0.008826582499049022 
-0.001290837422494771 
0.003761644234728589 
-0.008197806730490283 
-0.01125659660527369 
0.0008262577126903873 
-0.006673422235263698 
0.02284272577177564 
0.003761644234728589 
-0.009253441378431926 
-0.002565873208224817 
0.003142670000003147 
-0.009947682289398149 
-0.001789104434391491 
0.005619236872202399 
-0.01885760158178123 
-0.00833557062429165 
0.005041078491257442 
-0.04922869842476322 
-0.02133696772710597 
8.289881768264316e-005 
0.005723113710538136 
0.005835414349740575 
-0.003113647049164499 
-0.07161856464629277 
-2.032879073410321e-019 
-0.01429454901078548 
-0.0007073553962801121 
0.01398615143686864 
-0.003759685965224314 
-0.0105609498558044 
-0.002185386254694284 
0.00894160151250272 
0.01474918433522991 
0.00882276317702348 
-0.003203756723959221 
-0.01621493746595043 
-0.01073752688491266 
0.07858069709672591 
4.336808689942018e-019 
-0.00328286368785637 
-0.005594322024446158 
0.0003813394038500244 
-0.01262312409170261 
-0.005111887103745844 
0 
-0.03711895515645416 
0.001107647045918568 
-2.790567187248953e-005 
-0.002700855000919998 
-0.01901186327569575 
-2.168404344971009e-019 
-0.01942581847645149 
-0.02107230198007018 
-0.009250476913760157 
4.336808689942018e-019 
-0.01220354854067797 
0.03984954748417728 
-1.150888909167672e-005 
-0.008926861967984787 
0.005127499695964698 
0.007286263189839811 
0.01034530276440883 
-0.01861152821606452 
0.0005188419531109253 
0.006767206660437941 
-0.01448563992317203 
-0.03051250224757829 
0.0116984498218544 
0.0003813394038500241 
-0.01300011333270552 
0.01159502046654491 
0.02643831651982444 
-0.01159054465478412 
0.01141006204961273 
0.003030129529719334 
-0.01319086906791494 
0.01281291144539517 
-0.04914234291089754 
0 
-0.00793568170278104 
0.002185172692334844 
-0.01117147142060404 
0.000980159775544388 
-0.001613019402616792 
-0.000177551208592987 
0 
-0.0001098521768241556 
0.006218928194595599 
0.00879037533982766 
0.08940462946116705 
0.006737926276381555 
0.01859106392916484 
-0.007394729288744753 
0.006390167679943866 
-0.001201952459267767 
-0.006166484702940556 
-0.008638992778749643 
-0.0370698887260752 
-0.002400070976478702 
-0.05175998845863676 
-0.0268620200643421 
-0.008325955109969927 
-0.02759841357977739 
-0.001629205802925983 
1.355252715606881e-019 
0.006046344264567333 
-0.01263428823311576 
-0.002527505044568112 
0.1596531994680115 
0.002664029368436996 
-0.03882282306293473 
-0.01109786714256377 
-0.0534907822122648 
-0.006218226106388301 
0.004486842356741322 
-0.002375575887233904 
-0.01905899083107337 
-0.01239637773610323 
0.01354965666705327 
0.002124336333377256 
-0.01617806304883579 
0.1030528796709331 
0.01548684737318845 
0.00286502295614392 
-0.003980713795642689 
-0.01462050416833902 
-0.02605736789525726 
0.01348167300144737 
2.168404344971009e-018 
0.002322127428052323 
0.0456705923089649 
-0.004578969421461855 
0.007110615717736135 
0.0007097120723511844 
0.02358563489332734 
-0.004323836095725264 
0.03010930693328662 
-5.421010862427522e-018 
0.004307933100837861 
-0.01185084628952879 
0.01140078819689369 
0.004204497447113566 
-0.04109196005686081 
0 
-0.06921185410150633 
-0.003535320009559613 
0.003497064116922515 
0.01185383146082903 
0.007927684204981286 
-0.03091852188884751 
-0.004005667488508709 
-0.01327583226266758 
-0.0009661085797129806 
-5.692061405548898e-019 
0.005880131173461261 
-0.002246786326645222 
0.0004771804888748716 
-0.0214781657052787 
0.03312953018144529 
0.003021635233906167 
-0.002191190325631063 
0.005190039921524941 
0.003349740890748654 
-0.001187115004796941 
0.005909349566057588 
-0.002311705971556402 
-0.0398767335292842 
-0.02588672089563768 
0.007523288469457178 
0.002816169221055848 
-0.0105692801706448 
0.02657274980346198 
-0.004641691880412371 
-0.01142469172882678 
0.004361892913888219 
-0.01569367704827692 
-0.04891283438666524 
-0.001292920372750238 
-0.01820533270613874 
0.003180553699388126 
0.0007626788077000483 
0.01129419425612957 
-0.01491324292087739 
0.01544390753187401 
-0.002316273650970424 
0.001414110848163829 
0 
0.001536444995400845 
-0.004063718538563226 
0.01129939601755177 
-0.02170054490868452 
0.01989453363488587 
-1.301042606982605e-018 
-0.0005057214373331779 
0.01299225172229084 
-1.084202172485504e-019 
-0.01000850943842266 
-0.007972814990551587 
0.00218286813621347 
0.00455303869596373 
-0.004835263294313993 
-0.004426561379629832 
-0.01143384337671449 
0.0214586298751014 
-0.0250678643079666 
-0.03879711431716443 
-0.002817713771449902 
0.09135777360884941 
0.004054154181541651 
0.01258581353684646 
0.01107947399989979 
-0.006850520463850316 
-0.009925114430513474 
0.01076522371480875 
-0.008119225513742124 
-0.01336721530666237 
0.01225025987690111 
0.01723426879235455 
-0.008915353649732644 
-2.168404344971009e-019 
0.003504633495856593 
-0.03652608260448482 
-0.001244398049810354 
-0.02521149358393394 
0.04417244820454005 
-0.0005234506467498401 
0.00181500244219868 
-0.003577915707955249 
0.006488484548888921 
0.01149532678545252 
0.01121171640192607 
-0.0006710260029230056 
-0.005936270382178032 
0.003542701368133409 
-0.0198216669174917 
-0.02178711180659415 
-6.505213034913027e-019 
-0.04472607877353339 
0.0004288887223907415 
0.03013924450103531 
-0.01008758932835606 
0.002516132238027098 
-2.790567187249231e-005 
-0.0221169925002332 
-0.004026329383925647 
-0.0008352572259521165 
0.01653045548759086 
-0.001898856337810428 
-0.03787123142871171 
-0.01881589308173772 
0.01119260245473408 
0.01560756570516314 
-0.004337368585348601 
0.01147136913718895 
0.01226545317021934 
-0.003150212741253322 
-0.002557219760995068 
-0.001348226883462359 
0.001668900266290223 
-0.0218070487303325 
0.01642634354004801 
-0.004537079428432221 
-0.004136522654987497 
0.06648989985170559 
0.004560617169380501 
-0.008440567218387202 
0.003565083599476031 
-0.0144292597555092 
-0.02228354353431805 
-0.01477645404015294 
0.001295725921761076 
0.01285011686562102 
0.007741438165879515 
0.05843824217128548 
-0.01500584368755134 
0.01231703350081725 
0.01050958782425989 
0 
0.01522783538396295 
-0.004858925531973892 
0 
-0.002331066484759997 
-0.0004662870811362424 
-0.00257143414346495 
-0.001953493937044246 
-0.01658404291052954 
-0.001195642355529245 
0.01098180151989995 
0.01777051016797245 
0.009170977557937386 
0.0005117213768647833 
-0.001504675789327733 
-0.02205636835044996 
-0.004253405813778997 
-8.494295813164683e-006 
0.167882529588456 
0.01457818795182143 
0.01387391682704585 
0.07279395151202306 
0.01013668924233604 
-0.009094396854467826 
0 
-0.04372687596392096 
-0.01250014287666776 
-0.004005667488508709 
-0.0685672747087555 
-4.336808689942018e-019 
0.01015260168538312 
0.02885144936976769 
-0.007125577984691917 
0.0630524717657658 
-0.003414649393476336 
0.005844750904056957 
0.002805495249508028 
0.006374549848373446 
-0.03399810053704443 
-8.673617379884036e-019 
-0.002599265609043455 
-0.01388482852751957 
-0.003917901359101667 
0.00614930346240346 
-0.0003960482011239706 
-0.02210602858979486 
0.006537775627841161 
0 
-0.01831080735258352 
-0.01771888107092394 
-0.02462883028088084 
-0.01107372061170098 
-0.01021265519821475 
-0.0008322646471685854 
0.007550940706637404 
-0.01762774454402149 
-0.00827343375705797 
0.02571586304173723 
0.06811725802059138 
0.01655587397198538 
0.003206011829920565 
0.00807010417243415 
0.001742838583244434 
-0.04917139528733756 
0.02390149453057175 
-0.009505738665632924 
0.008536981535311516 
-0.01666901177013033 
0.004939155965892079 
-0.0001973571367246214 
0.01111162953181657 
-0.01080499137713728 
-0.004889582146930215 
-0.009287470958003013 
-0.007867942200173448 
0.001642359010956375 
0.00506978364838658 
0.01753221015152716 
-0.00739532847186756 
0.001408578306629763 
-1.821277394964448e-005 
-0.0008849698730365259 
-0.001689687648282675 
-2.670706976280908e-005 
0.01680192140641282 
0.009541414047495552 
0.004807185826508858 
-0.02283019222468192 
-0.02896108584337939 
-0.009371899403188472 
0.02929430081973598 
-0.001442006777163487 
-0.01236816905810651 
-0.006768083673432286 
0.03902104528845236 
-0.00709412347967134 
-0.02154908528225331 
0.003594078986630583 
0.003434171877539542 
0.003761644234728589 
-0.003430346653629399 
0.0009861096732557138 
-0.009585895478549312 
-0.007977868337824753 
-0.02334974953913752 
0.02862044489642273 
0.03728882709424234 
0.07808730385845222 
0.01608442327322608 
-0.01653547466253015 
-0.009067223665756848 
-0.004738143078428785 
-0.004712567336341746 
0.02914008142411224 
0.01260898690348393 
-0.01042564525012405 
0.0263284186276918 
-0.01211916292110594 
-0.001712785573991755 
0.008395493210419245 
0.0100141971018067 
-0.01712398554894546 
-0.005298551343486227 
-0.03383095757254484 
-0.01971031271274246 
0.00977743800715564 
-0.002272414029797591 
0.01903561908861629 
0.01247135755169753 
0.006916469176985611 
-1.626303258728257e-019 
0.008039148897437128 
-0.02121604470911178 
-0.05104772213449797 
0.08577151262621212 
-0.01862133882605344 
-0.001743291965445872 
-0.008940308134401807 
-0.004098235825553943 
0.01337632117832915 
0 
-0.03641224486324649 
-0.0201898372183767 
0.0236708853710908 
-0.02862695427588151 
0.02335108984171762 
0.1316978801257278 
0.006720561454579752 
0.01207591516300749 
-0.009819002760195147 
-0.01760580393817115 
-0.02075918073642787 
-0.006709500897789612 
-0.01779133574079162 
0.006987742839789721 
0.03475287494307824 
0.03284757971536988 
-0.02256649159855589 
-0.001029428212823973 
-0.02397750086200295 
-0.01604791053048484 
-0.001198103132890022 
-0.05009645531668021 
0.0009278814668185266 
-0.007925082911308418 
0.01074758747165681 
0.000302842772262431 
-0.03144812374556587 
0.009909966544284934 
0 
-0.0169652949124575 
-0.001837096105243592 
-0.02144515465410718 
0.01318539478206331 
-0.003938642923496802 
0.05405465853850118 
-0.01385367136320814 
-0.02124232809441977 
0.007667641428972321 
-0.02718719341347195 
-2.548288743949405e-005 
-0.00197723903599621 
-0.01911626754354049 
-0.006990000387655095 
-0.01224282986450292 
-0.03525152554858529 
-0.01801726346719388 
-0.01002235774995042 
0.07308057218016634 
0.0009304451206446947 
-0.02735298433967108 
0.008611832208549126 
0.01725433165644598 
-0.015394326623462 
-0.04221949892959162 
0.009759644773348921 
0.004765959668430225 
-0.003570335065059764 
-0.002797187993771589 
0.02185099512404909 
0.01489200467863294 
0.003357761131276093 
0.01269911039582693 
-0.04291101856798177 
0.001757102588568697 
-0.007687977984991396 
0.005584350511196274 
0.001414110848163829 
-0.003894304629715023 
-0.00389887602725424 
0.0107247093521534 
0.001731478110438519 
0 
-0.008760243035596775 
0.03571550365222456 
0.01052155931243947 
0 
0.02179490199750888 
0.03173497214656537 
0 
0.005691942492149556 
-0.003530400349188697 
0.01218560333809864 
-0.04285923605923635 
0.01151717085503336 
0.1587534922854412 
-0.02563093400458466 
-0.01372067157711695 
0.005244709224937924 
-0.006252547201448582 
-0.01267104414020691 
-0.01015606580434183 
0.02100519736119016 
0.02250835577111726 
-0.006123253906600462 
0.007648417814884141 
-0.01858706558959121 
-0.01884447640753986 
0.005452956739778991 
-0.004442807960130216 
-0.0406892132683251 
0.001208200126589582 
-0.006723157155806764 
-0.0006341164768845502 
0.07195393052453401 
0.004361190767133026 
-0.0004058248827813976 
0.008286297399818945 
-0.0007510094772584 
0.003267317855619277 
0.005044829870168033 
0 
0.01157505900452908 
0.0007604239592463181 
-0.002562285662184765 
-0.002532546824742682 
0.01707933557759555 
0.03936229549204516 
-0.02048922728891672 
0.03005977418141072 
-1.084202172485504e-019 
-0.0005727099008459045 
-0.006422458883459788 
-0.03256910661325371 
0.003135560453098256 
-0.04893923135993176 
-0.02043214744627424 
-0.02005216081674212 
-0.01459856714300156 
0.04296655086383781 
-0.004570230952701541 
0.01558780205669292 
-0.0207435641006309 
-0.03413058292622004 
0.001793948825463025 
-0.009962575592703277 
0.007469934613965348 
0.003515546394720933 
0 
0.01812944036952525 
-0.006715486133258199 
0.01033723834964753 
-0.002231606947474958 
0.0006668709699095428 
0 
-0.02875483095087517 
0.0101406724266867 
-0.02630805229129519 
-0.05226891307439496 
-0.02347632263638348 
-0.0317676094875218 
-0.02322197418585332 
0.0163685218317669 
-0.003774778521944615 
-0.006806717090558623 
-0.004238087800064846 
-0.008538980593912924 
-0.008805991678659851 
-0.00274941509093182 
-0.03035389458659406 
0.006857443860908983 
-0.0203495509634518 
0.02349037440315641 
-0.01152747469439912 
-0.02794273913764377 
0.0008291830431058601 
-0.00309856817482404 
-0.01848913898053916 
-1.084202172485504e-018 
-0.002464537650112264 
0.0155259213669731 
-0.03577456270755414 
-0.008691723038421919 
-0.003395078119925633 
-0.0009794929711873252 
-0.01366507423031391 
-0.004707895198747885 
0.02544688224177362 
-0.003996319005344957 
0.008065553530016532 
0.01460453482815419 
0.01040108902332785 
-0.004675196247670625 
0.001372464004013783 
-0.001840549464639733 
-0.006682540245702871 
-0.004833256140924276 
-0.006834086821941406 
0.004447003812020784 
-0.0107881533409971 
-0.004281153272361106 
-0.0007175470647716394 
-0.01179292213323659 
0.05886268340191236 
-0.003055302680888972 
0.01104067261623682 
0.001473120663766028 
0 
-0.01818364499899777 
0.01176776975882266 
0.008213055992314327 
-0.02744998657406339 
-0.02410809170800627 
0.01951143401053722 
0.02115039216257195 
-0.01146567321112165 
0.02908118372914584 
6.140481574266638e-005 
0.03222918450468887 
-0.0295276275815818 
0.007769605791017766 
0.01570408819581202 
0.01007409578731536 
-0.01454704944614864 
0.01167448032068125 
-0.01197816607687647 
-0.01945308003021515 
-0.02085824819478566 
-0.001202969954327223 
-0.04385530107160791 
0.009612688882743465 
0.002085456729462152 
0.002013425300229407 
-0.01423564271618533 
-0.01254592467523108 
-0.003366375856114469 
0.003202505535907133 
0.005561042090899741 
0.004768167228504421 
0.009554557401987482 
-0.007986641658146266 
3.750881176906875e-005 
-0.04919821096871712 
-0.05636311184760119 
-0.02178796867372591 
-0.00818964190982027 
-6.487651129348225e-005 
0.01492724239112157 
-0.0006870304202031563 
-0.04638834334895105 
0.01285114192828534 
0.005852832696167104 
0.01922829518169564 
0.0003928730797224547 
0.01403573543507259 
-0.01203687270240345 
0.05568507637445623 
-0.02266625997440103 
-0.0060576236754883 
0.01158803367642253 
-0.001704120431091462 
-0.003514899949667401 
0.003135560453098255 
0.007648417814884141 
-0.007525875778539371 
-0.02315567420654218 
0.01283470322360792 
-0.008426949782769543 
-0.01152497872215095 
-0.03986236098291317 
-0.003355091497715447 
-0.01124613819488924 
-0.005445951407519661 
-0.01360008812838808 
0.016821993860531 
0.006329396323052707 
-0.03271843773472497 
-0.01502762744296286 
-0.04285796656637928 
0.002417044149755368 
0 
-0.006527984117040298 
0.05600535117770302 
-0.006100078442257125 
0.01000214570359219 
-0.02978252939257383 
-0.001220153625246983 
0.01380249771042454 
-0.000244826572451396 
-0.01569838396863632 
-0.0007697039603732555 
-0.01746997097289631 
0.02257016568391522 
-0.01537088016946324 
-0.01953240746447317 
0.01242439615064842 
-0.00579717634089344 
0.004507619112315784 
1.605023579163349e-005 
-0.002985036452264442 
0.0006527617635973012 
0.00181500244219868 
0.05665204559062848 
-0.01064238302204017 
-0.01969371786002935 
0.001495253907588033 
-0.005622434100178912 
-0.02550435696410979 
0.02901891066772191 
0.03362268254786285 
-0.03563266007973816 
0.002203313789802226 
-0.00519997805600216 
0.004617408427794493 
-8.673617379884036e-019 
-0.0003905974464728274 
-0.01091699701239521 
-0.00820296539914633 
-0.02576573126554243 
0.01803713826963593 
0.02099708921564377 
0.02051091456890027 
-0.007874343997331886 
-0.01606541602503197 
-0.0118508462895288 
0.02342454561341338 
-0.01240346792496115 
0.003430627700352842 
-1.301042606982605e-018 
-0.006885264388877174 
0 
-0.01649892905037202 
0.2080689356535013 
0.003135560453098255 
0.01504219703726051 
-0.01164528275916475 
-0.02605489375278978 
-0.006963886341360658 
0.010708738975478 
0.1049110578858566 
-0.5157843795417177 
-0.03681801317242434 
0.01890243372687083 
-0.03787852546504809 
-1.301042606982605e-018 
-0.06371308161445663 
0.0122099639006334 
-0.001759277824845624 
-0.02364744374592462 
0.00206777452599741 
-0.01514130189676806 
-0.01336069996019478 
0.01174421091841317 
-0.004666669989866603 
0.01083472773352365 
0.001041435475256479 
-0.009503973108680175 
0.02287388235976876 
-0.002444782223541647 
0.000211631806880271 
-0.02883699616923863 
0.005929800272390122 
-0.008898327920907407 
-0.007999863904351437 
0.01269911039582693 
0.008298236194889458 
-1.456049636330142e-018 
0.001473120663766028 
0.008206152810730161 
0.007743517910463367 
-0.01326719866316061 
0 
-0.006049500011384817 
-0.002449446747666669 
0.002209645785057158 
-0.009207921902899048 
-0.05946530738750323 
0.00967817995110578 
-0.001553722671729527 
0.007260168280539525 
-0.04742194310537976 
-0.02138456468878301 
0.006942570221221551 
0.04273744104541884 
0.01150837301166642 
-0.01389922251452849 
0.04408319484753498 
0 
1.084202172485504e-019 
0 
-0.01511351345104273 
-0.04131760491384029 
0.02518912141847733 
-0.06173380539574622 
-0.02436100069723463 
-0.04042434681183041 
-0.005014434000780753 
0.0009526883738592384 
0.01086739338969099 
0 
-0.01514615920390294 
0.003155612225371846 
-0.05175097104198435 
0.01985798992318503 
0.01557442926836984 
-0.01648754535611249 
-0.0006234112549897143 
-0.008696756921861811 
-0.01103863391900813 
0.05235662844559 
-0.003388133371396021 
-0.00365294238523825 
0.03776601688372052 
0.001473120663766028 
0.07922257026248855 
0.01104869107722167 
-0.004675377126294492 
-0.02213797236183212 
0.02594455712305311 
-0.01329712161938922 
-0.004511551632513575 
0.01504444401475447 
0.00100880186606205 
0.02117765250622838 
-0.009788998278341635 
0.006262783298035122 
0 
-0.00303724755095817 
0.006243973702764052 
-0.1007200596325098 
-0.02318900485295092 
0.02794886412300736 
-0.01072916233036833 
0.01105711069085877 
0.00147447505271878 
-0.009307152001081228 
-0.01407930793983487 
0.02013492206414233 
0.03394344953251312 
5.421010862427522e-020 
0.007490309189789887 
0.007648417814884138 
-0.02379146396114186 
0.02316174253623737 
-0.00555651880130339 
0.0007263602825272435 
0.004063663828734182 
-0.01188386329461951 
-0.02367145945756259 
-0.02853581971098887 
0.0114007881968937 
-0.002545011739565335 
-0.02078675577861745 
-0.00406966369195554 
-0.02499470536440625 
0.0001322679173515902 
0.007525847858577418 
-0.1045477726926647 
0.001772347024738652 
0.0003813394038500264 
-2.168404344971009e-019 
-0.007390816770530589 
-0.001022361102276924 
0.01166339864070444 
0.03826558398599965 
-1.13841228110978e-018 
0.01251308357768896 
-0.006771280196083937 
-0.0008417972805570663 
0.006588201332792952 
-0.01454179746900766 
-0.005777414381027078 
0.007417351570501005 
-0.01268800306839778 
-0.0327341547662425 
0.02848960996155313 
-0.001682130047393132 
-0.009089439356505056 
-0.001806868946230838 
-0.01143372862472354 
0.00548077143234449 
0.01520196507267357 
0.007614575688130326 
0.01056742235708933 
-0.00214742628970865 
-0.06657187819332312 
-0.04213044851265513 
0.001481806673551912 
0.002235458990955183 
0.00591805437567511 
0.07851191203385217 
0.0007164055358662307 
0.00938129935014621 
-0.006701507719574368 
0.01244311825240099 
0.0235902870557308 
-0.001826678002019076 
0.03402171656550213 
0.009062948458125286 
-0.01042216829757298 
-0.005006858631340205 
0.004590525685903582 
0.006251530037155757 
0 
0.00121869423699701 
0.006092871019232322 
-1.734723475976807e-018 
0 
-0.01810837864618166 
-0.003938787233252697 
-0.005847913395095425 
0.000381339403850024 
-0.02313302403541905 
0.01551844983474842 
-0.005436080749680611 
-0.004124103028762871 
-0.0543125018382642 
-0.0162766283564925 
-0.01981599733316766 
0.005153045981820681 
-0.01387461828100189 
-0.001423745142991144 
-0.008039861033055719 
-0.006368574982105139 
-0.03433022206568358 
-0.01974334674565056 
0.01873044825767207 
0.006608434579471291 
-0.02764058459831434 
0.01651702155384357 
-0.0005743790901974801 
0.01365820958458043 
0.01420844584173159 
-0.00676808367343229 
-0.002720811054251528 
0.003504633495856593 
0.000161417386198051 
0.0003228347723961011 
0.001855445188852734 
0.01564594181911481 
-0.01959425186575985 
-0.03984118822386875 
0.01242439615064842 
0.03789098682191176 
-0.001600648024919806 
-0.002150222299655979 
0.005839089126911187 
0.00961615816377384 
-0.003441887744182985 
-0.003155304420206131 
-0.006900338702846353 
0 
-0.002211103821636795 
-0.01166429022272022 
2.710505431213761e-020 
0.0007626788077000483 
0.001046761328445798 
0.001278740754622882 
-0.002238435075867698 
0.01150054643923278 
-0.004209659167646969 
0.003842470255155736 
-0.004645819915245769 
0.03682462634613955 
0.001855445188852737 
-0.007470188161416642 
-0.01157010658620118 
-0.0008341444058582536 
0.0005225035463160176 
-0.02864309098361303 
-0.06281150361255694 
0.007245429629836339 
0.02876643771531168 
0.03938210689456084 
-0.0003986980471390036 
-0.0002488841329606443 
-0.001855199091893725 
0.006534763025575923 
-0.01257139882582255 
-0.000322165762523962 
0.003495098860394048 
0.009471864127940832 
0.02722777435773371 
0.008596884038227767 
-0.04409992969848488 
-0.01382431364665942 
-0.00879343612793603 
0.01412857213287658 
-0.02570943319922167 
0.007651921710406357 
-0.04660458042127595 
0.006661672062430957 
0.01292570455354061 
-0.03448135555595452 
-0.120992318117478 
-0.02150594573341587 
-0.02070855384764597 
-0.006781387503649011 
-0.007471737605633765 
-0.01409740559389572 
0.003434976159638492 
-0.03497800022421027 
0.003504633495856592 
-0.01477233398443369 
-0.004831007341421782 
-0.0345833315053225 
-0.02055052623768387 
0.002924788462190123 
0.003845737259503737 
0.005398830182493915 
-0.001690230250994558 
0.02903240079503222 
0.001722270094311362 
-0.001919580420058486 
0.004928395019900105 
-0.006982748204516383 
0.009719725099395695 
0.009306126441030129 
0.02654780782088413 
-0.03281340486542125 
-0.002344523437580229 
-0.008240416050817585 
-0.008402883797058672 
-0.002054726015339524 
0.04403245310524788 
-1.084202172485504e-019 
0.01027568303084943 
-0.00351330782966762 
-0.01907706221979643 
-0.008663121031419158 
-0.0003502028212075654 
-0.01456359887952089 
0.00314715162015122 
0.02565557244145791 
0.007830413575305142 
-0.002343525702815842 
-0.01713787533343754 
-0.02115243170901134 
-0.02219737995318558 
-0.005317832364666911 
-0.006090853256594105 
-0.02181466979676896 
-0.001498654661166087 
-0.01687739493083196 
0.002825924909333551 
-0.01353149492190526 
0.003686366028848868 
-0.0307876498326119 
-0.00526403970656261 
-0.006823449401247721 
-0.02258048365452153 
-0.02683244841060219 
0.02355981556831579 
-0.009524665477226139 
-0.02743384775716938 
0.0004137802458004088 
0.03889782226874541 
-0.0217688651149357 
0.0007155908716294233 
0.002207220429607695 
0 
0.0367026459059759 
0.0008591500038569621 
-0.03094534245663975 
0.007538565638059982 
-0.01990061282210045 
0.005727903363444998 
-0.00487946908506302 
-0.01045691453131373 
0.0006854452243826538 
-0.001409371914757744 
-0.02051894031379865 
-0.004247601815403876 
-0.002419621861836192 
0.07378137624146447 
0.01775527677827716 
0 
-0.0216901948532406 
-0.02966737102637579 
0.02440711141664882 
-0.02117233840826777 
0.0101566220233356 
-0.00550695848011336 
-0.04709022072790707 
0.003617584694489381 
-0.01085477746814617 
-0.02071190951014067 
0.002491842456138837 
-0.04003470283571728 
0.893014375610281 
-0.002336417731193162 
-0.01239475136941512 
0.05356288745509107 
-2.703242552892765e-005 
0.001462394231095061 
0.07956413877404872 
-0.03402188724824565 
0.0129896924427666 
0.003226355583083409 
-0.006699079056348661 
0.008353797015593262 
-0.01250280305989033 
0.01916804201625096 
0.004411908274891035 
-0.008942535558428926 
0.003030129529719334 
-6.505213034913027e-019 
-0.003919269480147869 
-0.008322785325931011 
-0.02955983664183445 
0.008959119445677389 
0.04049383735308628 
0.01424175991898708 
0.01415059662174569 
-0.01290431470662271 
-0.0103024978291014 
0 
-0.0005350138913826634 
-0.002337688563147244 
-0.01092296637780784 
1.084202172485504e-019 
0.01700461368681175 
0.02536428839784571 
-0.02922212435813609 
0.02653015024932778 
-0.002488817085830611 
0.0239849201413069 
-0.002565873208224818 
0.01844818740934309 
0.007583348552297729 
0.0003582876893832339 
-0.006040698010215912 
0.003571269985920743 
-0.06134940453314178 
-0.005279574415374917 
0.01162908817988731 
-0.001325555027767202 
0.01152051029139475 
0.01062117208462005 
-0.02248633566616762 
0.003394543124455861 
-8.043133239214371e-006 
-0.003747715259964494 
-0.005226585070016958 
0.005727903363444999 
-0.003896903500967788 
-0.02854812485841847 
-0.01062229991089494 
2.710505431213761e-020 
0.002376685162043014 
-0.02227348154929607 
0.003351447437599527 
-0.02164622361289589 
0.002095729735727235 
0.006788246737767751 
0.0001429937090867841 
0.0198587160334305 
0.03030925826043721 
0.02075381307726704 
-0.03601478790085379 
-7.218804565857926e-005 
-0.007985914471240432 
-0.02025302991903614 
-3.469446951953614e-018 
-0.03740478705005014 
-0.006046761259811621 
0.01152274243724578 
0.003542337157397731 
-0.07834385044213879 
0 
-0.002397075117210777 
0.008887689753150598 
-0.00437666537751006 
0.007984538612676541 
-0.01251237378073986 
-0.02381844852869581 
0.01035909114427238 
1.463672932855431e-018 
0.007647339796646 
0.00764841781488414 
0.003030129529719333 
0.003171048792467302 
0 
-2.710505431213761e-019 
-0.01146782241770703 
-0.01006263206062015 
0.02448777607793163 
0.007803817460151484 
0.01061279382570667 
0.006868608311760957 
-0.00325036067753331 
-0.01452203683735143 
-0.02059952957506605 
0.003113759796215601 
-0.01686154195554426 
-0.001661639556868176 
-0.0008574897302687121 
0.02482843873295397 
0.0003813394038500241 
-0.00425900878041946 
0.01701006670756495 
-0.03769694993787542 
0.006622297946631947 
9.085702248908087e-005 
0.02466380878280029 
0 
-0.002100255289736495 
-0.01258555643242528 
-0.004169208953119063 
0.001117021462237325 
0.0046869092313084 
-0.002760867403433188 
-0.02284802290034823 
0.01238864673675549 
0.006536104035532 
0.008967976142187317 
-0.01096329677605865 
-0.004794515415830685 
0.001228872226078003 
0.000783599276752818 
-0.01728125781330782 
-0.02991257192160035 
-0.04678913501633254 
-0.02150218244679901 
0.0009615469985065008 
0.0009801597755443874 
0.0013043816223841 
0.01545073252771973 
-0.004052971993732301 
-0.0008692686563571816 
0.02123289825103475 
-0.02367459433823717 
0.003947338006514159 
-0.003596810721966067 
0.007143970131022664 
0 
0.05792479439398806 
6.505213034913027e-019 
0.01724125428821356 
0.03082438502073588 
0.004831049434862263 
0.03020597838818382 
-0.001933051331136527 
-0.01654977368239796 
0.0414562790139703 
-0.02583654879757281 
-0.003834807819839133 
-2.168404344971009e-019 
0.02633150964310013 
0.0140312730142417 
0.04446521208713839 
0.004687146174141752 
-0.0002520422723473687 
0.001640092302016788 
-0.0005143235812708393 
0.009867944951076187 
0.00105727685079896 
0.00181500244219868 
-0.02100184202291096 
-0.01219242487388617 
2.168404344971009e-018 
0.02420340620931361 
0.004974021345280334 
0.03442228814736736 
-0.001250608060207204 
-0.04130408117746373 
-0.0002116287381357117 
-0.00265361841317524 
0.02411501207505748 
-0.01220354854067798 
-0.01636984505937418 
-0.01982476192817751 
0.01582565448191748 
-0.01234961528742681 
-0.026723103166078 
-0.01204680343518202 
0.003058650622592961 
0.00747767443277334 
0.007526896499455262 
-0.002634587059700625 
-0.01170540457366144 
0.002899811649455579 
0.05160937116803047 
0.1064837463754725 
0.00818989957531854 
0.01129439095070364 
0.002500486370502942 
0.02343320558985192 
-0.005562157253723428 
0.002911717350075503 
0.0001335117143255608 
-0.002125010417153107 
0.004953197732242891 
0.004531379443202658 
-0.002630835225475477 
-0.0578402150040508 
-0.0008012435677464002 
0.01346681121298228 
0.01561500499799512 
-0.00239786421851507 
0.002076154566788325 
-0.05790380350117081 
0.009898775937146803 
0.002803991719797745 
-0.03836034639758344 
0.01815565183148505 
0.014921801208138 
-0.007518382505926483 
-0.04400501377721044 
0.001011585881766317 
-0.0122334400310348 
0.01339105235924401 
-0.01377758811644621 
-0.0005589654694293546 
-0.007886209225712874 
-0.01153165368117173 
-0.1321254349657305 
-0.000936180692015617 
-0.03073586081460923 
0.05450521881618667 
0.01172630975455516 
-0.0007073553962801121 
0.01270792654726506 
-0.01270828723962177 
-3.642554789928853e-005 
1.734723475976807e-018 
0.003102823361608828 
-0.007347993170035621 
-0.1649346629312031 
