solver_type L2R_L2LOSS_SVC_DUAL
nr_class 2
label 1 -1
nr_feature 1448
bias 1
w
0.005632710274890057 
0.01032327139746098 
0 
0.003929505117455792 
0.006219727023971492 
0.001006249479690734 
-0.009612200115186608 
0 
0.003317184782970157 
-0.001770117304033699 
-0.003776775028619663 
0.0131387952267835 
-0.005934668939518193 
0.05050808311172827 
-0.01006529296669091 
-0.008501416136510768 
-0.000933926019302016 
0.02158088982286488 
-0.003052438841621165 
-0.01857934784319391 
0 
-9.122177262888757e-005 
0 
-0.01842412407784544 
0.002536427496270499 
0.001006249479690735 
0.008446576209339923 
0.0003464972493110381 
-0.004078668587460405 
-0.01669067716513437 
0 
-0.0135293273659672 
-0.000396992132854025 
1.951563910473908e-018 
-0.01461708447291782 
-0.00130574889757198 
-0.0120814672944103 
-0.01087707651838124 
-1.626303258728257e-018 
-0.00389717167849133 
-0.005150651047602857 
-0.008730553739625023 
0.006292618855829113 
-4.336808689942018e-019 
-4.607859233063394e-019 
0.003735835941344124 
-0.007406714454379342 
0.008227960102030042 
0.001296037594171087 
0 
-0.02230563884047956 
2.168404344971009e-019 
0.008901716851400891 
-0.01731873686801651 
0.0003366418325678599 
-0.03598631301139467 
0.01513326624296242 
0.007681725410607698 
3.998756702103994e-005 
0.01481521451345436 
0.02349589832779957 
0.009534911054895085 
-3.252606517456513e-019 
0.0006296152192835211 
0.005033338772956525 
0.004366789164954044 
-0.02507417984328928 
0.00126821374813525 
-0.03752087900204815 
-0.001675559217161222 
-0.01456408824399449 
0.009199628975681667 
0 
0.0003203675281954989 
0.001464701329320939 
-0.0110302068490443 
-0.003606900409730158 
-0.001688765676736316 
-0.04796718227686748 
-0.02039414701305969 
-0.01930020556038654 
-0.01205214573522154 
-0.009809075001401794 
-0.009076565092301555 
0 
0.01269792292664825 
4.336808689942018e-019 
-0.004429548208624213 
3.252606517456513e-019 
-3.128246731926764e-005 
0.002815244384079659 
0.0003470760340191256 
0.005810424755173474 
-0.001170636868649894 
0 
0 
0.01506847013816985 
-0.02260875534934509 
0 
5.811968373995477e-005 
-0.009504428697498303 
0.01240968994202785 
0 
-0.002857894086253593 
-0.005791693089661273 
-0.003367740908533399 
0.006132173994663205 
-0.01352358537377372 
-0.01064454372070228 
0.002433328988015761 
0 
-0.01673137184717655 
0.001006249479690734 
-0.006821996423840611 
0.00100993364091724 
-0.0177130108690268 
0.002595249827139994 
0 
-0.03099080040290577 
-0.01383113782597463 
0 
-0.01822189396986569 
-0.002685594988903037 
-0.002361491428842664 
0.02665770767491688 
-0.00354112876154773 
1.084202172485504e-019 
-0.02803503351879805 
0.005458890893046543 
0.004896157307250414 
-0.004834819033852966 
-0.01060717514984105 
0.003135719206491361 
0 
0.002012498959381469 
0.003537166787325343 
-0.01650744320248842 
0 
0.01732741073210336 
-0.006821996423840611 
0.006219727023971492 
0.001134476447489188 
0.02832981000587121 
-0.004073863419381161 
-0.0008722010504003483 
-0.003587175293216011 
-0.00197763210921674 
8.673617379884036e-019 
-0.01093059348256153 
-0.002067112730277278 
3.998756702104298e-005 
-1.084202172485504e-019 
-0.005303281108366698 
0.0008768720214538961 
0.001006249479690734 
-0.006750525059464541 
-0.003909524518456528 
0 
-0.00446037172447108 
0.0009930499981370814 
0 
-0.00130574889757198 
-6.509721748944303e-005 
-2.710505431213761e-020 
-0.005084442601953637 
-0.01689270885986281 
-0.00533783547308647 
-0.003665914478713329 
-4.336808689942018e-019 
0.02780758732147487 
0.01344429398450428 
0.004299016426757182 
0.000563994510134245 
0.02045394663777705 
-0.003375082841382109 
-0.03412410555802482 
-0.005945124402386717 
-0.01659883783718002 
-0.02202524168785761 
-0.01276426962311869 
0.002353009541020217 
0.000974993264723635 
-0.001406080351761103 
-0.002661722374074799 
0.009927184930041289 
0.0006296152192835209 
0.003961439875274819 
0.001705114084007598 
-0.03064916007789312 
0.005632710274890057 
0.003009395721635149 
0 
0.0004414819488671099 
0 
-0.0002299839911499745 
-0.0005932704692931881 
-0.001749355818299979 
-0.007251150169090887 
-4.336808689942018e-019 
1.717678611416477e-005 
-0.0001812711145353991 
-0.001049717192210215 
0.0888934228653433 
0.0009476499806460741 
0.01482286434053031 
-0.01057838151092759 
0.01538103285919895 
0 
-0.003606900409730155 
-0.004344369493533819 
-0.007333362583875677 
-0.0009339260193020161 
0.004671578183360217 
0.007331109732052297 
-0.00239973252331722 
-0.001842153813698681 
0.02987475387999567 
0 
-0.001059583102450064 
0.003059502354406945 
0 
0.05288892515960495 
-0.0008050218142342716 
-0.02751413375719845 
0 
-0.06963302073119787 
-0.008965610577817848 
-0.01692458347088149 
-2.168404344971009e-019 
-0.003665914478713328 
-0.01480809195121857 
0.02653041187502928 
-0.0003708820831979766 
0.006223489941156559 
0.1136103144514373 
0.01966190440355469 
0 
0.001006249479690734 
0.004430392806453448 
-0.01055344085649856 
0.01039536682168841 
-0.003806598756901301 
0.008872333959374243 
0.02203914671083328 
-0.007107467835552658 
-0.008775386840966676 
0 
0.01138079487151242 
-0.01569800936823339 
0.02017528790737899 
0 
-5.421010862427522e-019 
0 
0 
-0.004723258168458876 
-0.0172523103975156 
0 
-0.05471328918102609 
-0.007873677464030357 
-0.007946804214899697 
0.00448301120937751 
0.01506847013816986 
0 
-8.944667923005412e-019 
-0.005791693089661272 
-0.01067182417718888 
0 
-0.006960240698473047 
0 
0.006509582296343952 
-0.008712694649677232 
0.0004414819488671099 
-0.004078668587460404 
-0.01958287965972632 
0 
0.01160636291092419 
-0.0003790971312815581 
-0.003367740908533398 
0 
0.004097511502602506 
0.005953347962802631 
0.002019867281834479 
-0.008438027500060379 
-0.004078668587460404 
-0.02655987479886705 
-0.02613962304285356 
-0.02284849991892767 
0.01789383503076681 
-0.008208340477466001 
-0.03150568985547075 
0.001396044271872219 
-0.0004669630096510085 
0.005632710274890059 
0.002481335360883004 
0.01145961449385175 
0.00123341104627852 
0.01951860113218764 
-0.001675559217161222 
0.002635237394161037 
0 
0 
-0.003498062085616548 
0.001006249479690734 
-0.01152224895428936 
0.03165442609835042 
0.002208317613432071 
-0.00094296433237675 
0.0174325906961418 
0.001933537730822473 
-0.01952122486302358 
0 
-0.002313167749711556 
0.005013209569866352 
0.02242955090096219 
-0.02490488552871732 
-0.02731362986981701 
-0.01114923370185244 
-0.01104131419793399 
-0.02397676202503117 
-0.02146514061153343 
0.009055852890498262 
0.000673283665135723 
0 
0.00112798902026849 
0.001006249479690734 
0.001006249479690734 
-0.001667585213408102 
-0.02033333209136659 
-0.007797289117157621 
0.01506847013816985 
-0.000377344893627928 
-0.005949747150928028 
0.0008033581667608733 
0.008913539218990926 
0.0012678012358193 
2.168404344971009e-019 
-0.007829243346184444 
-3.418338530819117e-005 
0.001829191989093084 
0.0009007068191866939 
0.01293279335329075 
-0.002056779184761538 
0.02183717628888275 
-0.0005023907308111083 
0 
-0.01010258704704087 
-0.02295824799118137 
-0.01800221135573401 
-0.01352358537377371 
-0.009504428697498299 
-0.009628837501140047 
0.001766623923171977 
0.09041082082901905 
-0.001322023201944341 
0.0008887041045377419 
0 
-0.01010258704704087 
0.01208253617658191 
-0.008229784028606182 
-2.168404344971009e-019 
-0.01209880191377245 
-0.003095139539432747 
-0.0455127777432769 
0.00914106604315605 
-0.02001824879615663 
0.0005639945101342449 
0.002556874514677175 
0.01098643338580474 
-0.004797013557038939 
-0.004059839193514844 
-0.01279955740970365 
0.001006249479690734 
-0.01887556281758484 
0.0003827233955988457 
-0.001055768413524793 
-0.0152823923598107 
0.02473147595704842 
-0.007406714454379345 
0.001219899602450317 
0.0004539315557113677 
-0.005255291522197628 
0.003241553523410657 
-0.005667422092810212 
-0.01775096126431055 
8.673617379884036e-019 
0.006568229419159069 
0.02773366765510987 
-4.336808689942018e-019 
-0.001603632467203496 
0.003905791854807108 
0.0004688364015015348 
0.00957253513691295 
-0.00602411810027911 
1.301042606982605e-018 
0 
0.0003464972493110384 
-6.505213034913027e-019 
0.005130852298778593 
0.01360885086918312 
0.01190062374386221 
0.0006271523484091793 
0.008817833189304956 
0.0009976453747053554 
-0.006426162202143071 
0.001006249479690734 
0.0212523148155409 
0 
-1.270549420881451e-021 
0.08215073220048154 
-0.1180733027534145 
0.002432186379421952 
0.0004414819488671099 
0.006295060669099222 
-0.007829243346184445 
0 
-0.006266639310804532 
5.421010862427522e-020 
-0.007331828957426656 
-0.01816516886793125 
0 
0.005400971380798043 
0.0234299782166925 
-0.006083765309740473 
0.0004414819488671099 
0.002595249827139994 
0.0003366418325678591 
-0.009413206924869412 
-0.0004669630096510081 
-0.01013985760210338 
0.00332324458560729 
-0.002812160703522206 
0.02568383632065175 
-0.009964776814537283 
-0.002454136612051946 
0.001496631850310504 
-0.0151159071602705 
0.006935907109774186 
-1.084202172485504e-019 
-0.02981205287365999 
-0.0344124095803855 
-0.02068287174174485 
0.03767332734222321 
-0.01847878635283522 
-0.0190386414839122 
0.0006064655021019322 
-0.003191257834803764 
0.008579040145597992 
0.02022230079296217 
0.003833762003146967 
0.002536014983954549 
-0.007303858349802223 
0 
0.002012498959381469 
-0.02560867391277602 
0.002012498959381469 
0.00698518178386347 
0.002759993522598525 
-0.003068178001773809 
-5.421010862427522e-020 
-2.710505431213761e-019 
0.005418370971824852 
-0.007640556625843026 
-0.01867974776961456 
-0.02675499679364588 
-0.01133221951019408 
0.0004688364015015346 
-0.001667585213408101 
-0.002366737384317077 
0 
-0.01571452913017008 
-2.439454888092385e-019 
0.003199190966550224 
-0.008164754465572344 
-0.0004669630096510083 
0.04819523817336176 
0.01071463570542173 
0.001006249479690735 
-0.01010258704704087 
-0.01088009859901854 
-0.01107794941052311 
0.01506084057799626 
-0.01948503583252596 
0 
-4.336808689942018e-019 
0.01354837467610707 
-0.04395332315607464 
-0.0235885574789244 
-0.007261259879600139 
0.01970527340704959 
0.005168652121477626 
0.002061287276299334 
0.00307729666497606 
-0.001186540938586374 
-0.002410350888080279 
-0.04490225132016502 
0.03109455256576486 
-0.006404148093386976 
0.008031863814509184 
0.006196704785024302 
-0.009458796359737768 
0.0002510914379670463 
-0.008199429443172092 
0 
0.01227465126439606 
0.009536562963705857 
-0.0242389841298116 
0.006178585762394858 
0.0003403996427600097 
0.001006249479690734 
0.004171793385534134 
0.00126821374813525 
0.003905791854807111 
-0.02040132516516206 
-0.01779868898295066 
0.0102259757865501 
-0.0006284442182952185 
-0.003743961398508241 
0.002555242887304217 
0.03317014652344573 
0.001475085881192269 
0.006850472755118068 
0.02019567297878946 
0 
-0.004429548208624214 
0.1240692882505362 
-0.009873735159523321 
0.01261522771063942 
0.002112187835980858 
-0.008869176000762353 
0.002722314333113214 
0.0002269657778556839 
0 
0.003820537246946587 
0.001139999999328733 
-0.01656105806274005 
-4.336808689942018e-019 
0.01515401038298748 
-0.009538154223334622 
-0.00625142781242013 
-0.01845600635815266 
0 
0.0005926861051113465 
0.0001553707180324606 
-0.007111134696883864 
0 
0.01670462659910551 
0.006219727023971492 
-0.02391202813286504 
0.001576543558394142 
-0.001020450976572517 
-0.0143344614083752 
0 
-0.02156623201461042 
-0.00407186792788656 
-0.005912164312892767 
0.009246463929175129 
0 
-0.05431489152738606 
0.04961087097153637 
0 
0 
0 
-0.00507859952050351 
-0.004245502954324899 
0.004548926455651964 
0.02313164783727329 
-0.01439322860866871 
-0.003546218190501521 
0.0008245171715233526 
-0.02664710742086165 
0 
-0.00999510821503182 
0.002782334095070875 
0.002012498959381469 
-0.01072186725702133 
-0.01309820814850166 
-0.0103970513942525 
0.002198257694285969 
0 
0.006128505251342605 
-0.01100732134811832 
-0.006749147674984581 
6.505213034913027e-019 
-0.006404534336845197 
-0.03509511598629039 
-0.0007907131919542055 
0.003027392963764304 
-0.01348063556925348 
-0.0009850221795524468 
0.005361529505158121 
0.03347515045555085 
0.006068766774869496 
0.001464701329320939 
-0.006301012742394813 
-0.004161208951696662 
1.626303258728257e-019 
-0.0171304857835039 
0.002595249827139992 
-0.02263950802751408 
0 
-0.001176736529808543 
0.007889051172307524 
-0.005791693089661273 
0.006638959754580792 
0.02096761969480726 
-0.01553634131620807 
0 
-0.003606900409730155 
0.04278639645600013 
-0.001414449883719468 
0.006219727023971492 
0.00201986728183448 
0.0005639945101342449 
-0.015192849552374 
0.0006807992855200195 
0.1302649141963214 
0.008857832029983519 
-0.02717324770591829 
0.03276824161300038 
-0.004972717635897156 
-0.00482170963583937 
0.0449506257876769 
-0.03548990655297352 
0.0008033581667608733 
-0.005373566582133563 
0.006219727023971492 
-0.007505081341679046 
-0.0117812489218762 
0.0008992355062559026 
-0.003665914478713328 
-0.02008796903318364 
-0.001775672564884086 
-0.004663595098313053 
0 
0.002664291515358391 
-0.00079398426570805 
0 
0.009892005773141007 
0.0139447866174446 
0 
-0.001976321596155664 
0 
0.005082312467694854 
0 
-0.004684868051128407 
0.0002830947143676586 
0.00467857531911089 
0.03238262405025788 
-0.02177204500399627 
0.03319521328467982 
-7.589415207398531e-019 
0 
-0.01217049107731953 
-0.008382955521588352 
0.001244840115627982 
-0.02017520798720806 
0.002654202745379405 
6.505213034913027e-019 
-0.02371844308065191 
0.00126821374813525 
-0.00396646815620642 
-0.01512755517731011 
-0.0002214092649891246 
-0.03207431421312054 
-0.02909833439488234 
0.003392280054279856 
0.03801390402611198 
0.001576543558394141 
0.00123341104627852 
0.01058760269033507 
-0.01272022720701284 
0.01092651162005759 
-0.006400464974688613 
-0.00307241910776967 
0.0003403996427600101 
-0.01503807450867831 
0.01482286434053031 
-0.02388772857654613 
0.003931566524319579 
-0.009963791569243544 
-0.005791693089661274 
-0.007355562118203718 
0.01420153697429447 
-0.003606900409730155 
-0.007659646825407232 
-0.006702236868644886 
-0.003263750588258725 
-0.0005265529605932083 
0 
-0.0134693103263359 
0.0274156853366353 
0 
0.01126542054978011 
0.01138079487151242 
-0.03315703008370047 
0.009306821404043795 
-0.00239973252331722 
0 
-0.0170784096582668 
0 
0.01240819783297588 
-0.02010552477147853 
-0.01249042665886718 
-8.673617379884036e-019 
0.01156282916008372 
-0.003379937622624215 
-0.00273314314772403 
-0.009491594490218832 
-0.01010258704704087 
0.005487049560879457 
0.001921277186752582 
-0.005815746944149877 
0.004979245790843203 
0.001271965141210019 
0.003018748439072202 
0 
-0.01352358537377372 
0.02360868304098509 
0.01138079487151242 
-0.006985331708115626 
-0.0009339260193020147 
-0.001675559217161222 
0 
0.01217859984214874 
-0.000466963009651008 
0.01065415095177793 
0 
0.003323244585607291 
0.0005646118270202562 
-8.673617379884036e-019 
-0.01376736964135232 
-0.01751211849763295 
0.008034635468833934 
-0.0132594663705655 
0.006155420478796666 
-0.03708944374597404 
0.03290251531885254 
0.00343957846770649 
0.0283527816594083 
-0.01643988580073614 
0.002175326208991663 
0.01448435815797226 
0.001325350910707965 
0 
0.003323244585607291 
-0.02244796247659331 
0 
0 
-0.004696394612146845 
-0.02466668882890561 
0.01038862510018319 
0.00938237562049246 
-0.004764730983601253 
-0.01548533256999158 
0.01256548694309749 
-0.0104180004797731 
0.005612219802710526 
0.004769029088005037 
0.004591045821426588 
0.000346497249311039 
-0.0003625422290707982 
-0.005845492589944354 
-0.02625638182733746 
-0.07402600059559307 
0.009611359370415941 
0.0317843680908306 
0 
0.0002269657778556845 
0 
-0.006812135653958378 
-0.009681680877074213 
-0.00675947984823061 
0.006501613525579535 
-1.084202172485504e-019 
0.03804817646934439 
-0.007281326056864812 
0.01497726410881578 
8.673617379884036e-019 
0.005031247398453672 
0.01630413527756039 
-0.004068822744213385 
-0.01913922415815535 
0.002433328988015761 
0.006446692801827177 
-6.776263578034403e-020 
0 
0.01506847013816985 
-0.009701752821116089 
-0.002810454839325154 
-0.03520335493793037 
0 
0.00272984710785691 
-0.01186734353692136 
0.001296037594171087 
0.002509472029214029 
0.0003366418325678602 
-0.001651845954512541 
-0.02938507297287051 
-0.01011563753614808 
0 
0 
4.336808689942018e-019 
0.09329366878725874 
0.0008012507384842417 
-0.001794748619762926 
-0.01572561601676162 
0.006339006179096496 
0.01022513508262007 
-0.01986127088104946 
0 
0.004158718480560382 
-0.001189047828049945 
0.06727039865692948 
-2.334510208672171e-005 
-0.005328750543539183 
-0.004574452833668994 
0 
0.0035794108478884 
0.004024997918762938 
-0.009411751000082362 
-0.01695795752403864 
0 
0.03640451824955634 
-0.005369709768751179 
-0.0143048211907331 
0.003905791854807111 
-0.01417739651224559 
0.00200389485439609 
0.01837787995718816 
0.01741019526623146 
-0.009847489661650014 
-0.005091847650554881 
-0.006438436532808053 
0.00656622427328253 
0.008375885729223227 
-1.301042606982605e-018 
-0.0005932704692931872 
0.006562015093302787 
0.04699179665559914 
0 
-0.003326413617017214 
0.03475905061756308 
-0.004445075375432154 
-0.006565875133241877 
-0.0001812711145353991 
0.007218313240321034 
-0.004017381911740512 
-0.006056300696677142 
0.003735835941344124 
-0.002281476533382712 
0 
0.005201687766912925 
0.01844622610394506 
0 
-0.000379097131281558 
0 
0.009716897385751797 
0 
0.01150642432049876 
-0.01074898624022951 
-0.3984903318332496 
-0.006565875133241877 
0.008148225542182074 
-0.04605554418516697 
0.004299830451478364 
-0.01074453642056912 
-0.002238161390782362 
0.001006249479690734 
-0.02681119507026411 
-0.007107244858309381 
-0.0008420858416268596 
-0.00150597301603034 
0.02183717628888275 
-0.004127951052182644 
-0.01704075813014774 
-0.0001503202921650976 
0 
0.007811583709614223 
-0.00535687707951291 
-0.005622796698239488 
-0.04304614980254965 
-0.005548970681357053 
0.02349589832779957 
0.0008033581667608733 
-8.673617379884036e-019 
0.001464701329320939 
-2.168404344971009e-019 
-1.084202172485504e-018 
0.01285065660662002 
0 
-0.01048126087064311 
0.003792080987108827 
-0.005714348252440703 
-0.004078668587460405 
-0.006821996423840611 
0 
-0.04213691620777273 
-0.01655594833433478 
-0.00682199642384061 
-0.01073856766708949 
-0.05309771310720322 
0 
-0.02255022812694043 
0.03153421647139626 
0.000575500963025916 
0.005168652121477626 
0.02317346053892501 
0 
0 
0.004365724110244426 
-0.02287363393639904 
-0.01439912353492785 
0.001844284484962003 
0.01718652456058464 
0.008193531759285036 
-0.005821877520585345 
0 
-0.02396554877428404 
0.001867917970672062 
-5.421010862427522e-020 
0.002367431887243306 
0.02310497752470205 
-0.01333367197603686 
0.04964353644584324 
-0.03058468671303248 
0 
0.001570861306710991 
0.002413663052333056 
0.0004988226873526772 
-0.001977632109216739 
-0.01157039738604134 
0.003891102741632534 
-0.0003790971312815578 
0 
0.003524729302679077 
0.01318721355158879 
0 
-0.0004669630096510077 
0.004906098042553611 
0.0005970666105387994 
-0.004429548208624213 
0.03738856466283264 
0 
0.00763969507476768 
0.002407537659162371 
0.01393344058886567 
-2.168404344971009e-019 
0 
0.01987189044807569 
-0.01913798621754971 
-0.002224841567307844 
0.01540511197073771 
0.009703776142216611 
0 
0.005258213176309355 
-0.001069438519193243 
-0.004795218771159998 
-0.01107973295899579 
0.01421708706746733 
0.001576543558394141 
0.001006249479690734 
0.006219727023971492 
-0.0324466933159839 
-0.01468202515958504 
0 
0.00123341104627852 
-0.008718330621185527 
-0.02151612380696812 
-0.000396992132854025 
0.0003366418325678593 
0.002433328988015761 
0.001006249479690734 
0 
7.047314121155779e-019 
0 
0.0004414819488671099 
-0.002233060705964878 
-0.02610952018640427 
0.003906717070594313 
0.001006249479690734 
3.794707603699266e-019 
-0.005949747150928027 
-0.01420106559253759 
-0.0003790971312815581 
0.007811583709614221 
-3.125621496709983e-005 
0.01126542054978011 
-0.001856271126270134 
-0.001675559217161222 
0.01017684016283956 
-0.008352490400922558 
-0.002107639362740907 
0.006131532962242732 
-0.01159139911477964 
-0.02124824718369456 
-0.00937691089426175 
0.002199402438633093 
-0.004030479021581908 
0 
0.003758058225190885 
-0.009185335763567282 
0.02928367896693606 
0.01806125972257264 
0.01257846159915618 
0.005293801345167535 
-0.04823719273133673 
-0.009413206924869412 
0 
0.009884707452608287 
0.00991978869868166 
0.01020952684089189 
0 
0.005809373677722836 
-0.004778944466787637 
0.0006296152192835209 
0.02782596880901128 
4.336808689942018e-019 
0.0004688364015015348 
0.0007755003302991439 
0.02095316665470207 
0 
0.007217992126074988 
0.006125958379070192 
0 
0.00923177097643605 
0 
0.005574159850493844 
-0.0001812711145353989 
-0.02100385971011905 
-0.01303795769250992 
-0.02252229821714102 
-0.01938709345761129 
0.008232753232125188 
-0.003025105071099704 
-0.02805162531933319 
0.008792480017403986 
-0.02156821115281595 
0.002048676322607275 
-0.02269203963217027 
0.01456556609018386 
-0.02239810897734962 
0 
0 
-0.02103583325600824 
-0.004241941173556081 
-0.003091190986776814 
-0.0009077053429306168 
0 
-0.005819548253696934 
-0.002866591058937025 
0.0006446449545673108 
-0.003765384017662909 
-0.0007170864624151609 
-2.168404344971009e-019 
-0.0191497792677394 
0.008913539218990926 
0.003323244585607291 
0 
-0.00407186792788656 
0.007259218771904609 
-0.00273314314772403 
-0.01176679747473198 
0 
0.02179504948475595 
-0.03253441795349894 
-0.00197763210921674 
0.005903504935712216 
0.0009819291661995779 
0.009534911054895083 
0.0002242958005910811 
0.004355077190201345 
-0.00407186792788656 
-0.005741448632789263 
-0.005684967125148608 
0.001867917970672062 
0.002012498959381469 
0.002860749216573001 
-0.01246995558730784 
0.02378363660491907 
-0.002451725404048568 
0.006400591361221323 
-0.02138948789085101 
-0.003419316681485807 
0.0012678012358193 
-0.003926821971717787 
3.998756702104146e-005 
-0.00545132485512289 
-0.01119294507212916 
0.00644997077798216 
-0.01163305763494984 
-0.009875728528446041 
0.0004414819488671099 
0.01495103609713534 
0.03304709411135887 
-0.005952320505658961 
0 
0.0005639945101342449 
0.01619344056043262 
0 
-0.02769988111265292 
0.003371219069182732 
0.01062178926497406 
0.01473612400349354 
0.006219727023971492 
0.005290223683608877 
-0.001976321596155663 
0.00200389485439609 
0.002144673257273196 
-0.04793109754856809 
0.01160402482544138 
-0.05629966516822908 
0.001137368547242654 
-0.001305748897571981 
-0.04225991289847362 
-0.08743347894796927 
0.005204122526942414 
-0.004365879635760265 
0.001006249479690734 
0.002012498959381469 
-0.001675559217161222 
-0.009775298228613281 
0.001576543558394141 
0.008913539218990926 
0.04297216257799596 
-0.01414668169350357 
-0.01263606949463309 
0.003508967021439503 
0 
0 
0.001496468062058034 
-0.03146457763433949 
0.01502584036151743 
0.0003366418325678598 
0.005990440181745547 
0.009047587648281313 
-0.00175935705493062 
0.008497278516669229 
0.004899788144001431 
0.005214877425584507 
-0.02671718370112057 
6.770492387423496e-007 
-6.401306238334288e-005 
0.001041116329855463 
-0.01193463002353506 
-0.01432767410705339 
0.001464701329320939 
-0.01077801938934368 
-0.006958569985349694 
0.0004414819488671121 
-0.01432815499739971 
0.04852655713839222 
-0.03103288703304384 
0.002702120457560082 
0.003625970966164744 
0.002141078368969153 
0 
3.998756702104146e-005 
-0.002099514207067854 
-0.001365728583909139 
0 
0.01419319809085078 
-0.002733143147724029 
0 
-9.122177262888757e-005 
0.002103394184296454 
-0.02073201744001563 
0.0183115000171862 
-0.003573045240533884 
-0.005791693089661273 
0 
-0.02012406417967094 
-0.02942912187931795 
0.02997532858561981 
0.002844757306529388 
-0.02983788142544169 
-0.002711829249333084 
0.02432493852682992 
0.003323244585607291 
0 
-0.03007920187508351 
2.710505431213761e-020 
0.02265540821478156 
0 
0.006503188330910648 
0.007419303793781052 
0.001006249479690734 
0.003994171335019258 
-0.005714348252440703 
-0.007695089346131683 
-0.002399732523317221 
-2.168404344971009e-019 
0.0103779764468265 
0.009585238196940068 
0.002889370980835363 
-0.001007111490438428 
-2.168404344971009e-019 
4.065758146820642e-020 
-0.03086449909709059 
-0.02141336392152018 
0.005487441153566237 
-0.000466963009651008 
0.007446857622982718 
-0.0003671180656995854 
-0.01123549229987116 
0.0006355332776448162 
-0.01741228041799482 
-0.01183299697823588 
0.004769029088005036 
-0.02748744398111736 
0.529542404928916 
-0.00990465017688481 
-0.007260091736108114 
0.02210883124690595 
-0.0099851110416344 
-0.0003790971312815581 
0.006509582296343952 
0.0005392864700397263 
0.002019867281834479 
0.02875487407575796 
0.0038034037074579 
0.01338125057821398 
-0.002239725161557861 
-0.01580077099694639 
-0.00836784241110514 
-5.421010862427522e-020 
0 
0 
0.0012678012358193 
-0.01428177963633683 
-0.03310601889742792 
-0.003095139539432747 
0.005632710274890056 
0.02521554096877177 
0.01782432985659067 
-0.003756310112123549 
-0.005225261904860064 
0.001268213748135249 
0.01620083326093381 
0.002763393274126183 
-0.009449484753345099 
-5.421010862427522e-020 
0.006145937678823675 
-0.01524853224070802 
0.009200395834758644 
0.02487890809588597 
-0.004233019046904697 
0.04757682286363085 
-0.0008460601409325656 
0.004915725495724354 
0.008066039262905814 
0.01198925318530115 
-0.004410555944420858 
-0.001617563555125379 
-0.0170784096582668 
-0.01251052039542356 
0.04012368925963467 
0.01506847013816985 
-0.005800352543812579 
0.01747954340379217 
-0.001675559217161222 
-0.01001941599938087 
-0.0033677409085334 
-0.01142424995946383 
-0.00938038295520665 
0.005632710274890057 
-0.003816431239841382 
-0.03579087934052917 
-0.04736710303843383 
0.001867917970672062 
-0.006397073309529307 
-0.006190279078865494 
0.001268213748135249 
-0.01145153676763763 
0.005293801345167537 
0.008145085466360615 
0.006866121321168579 
0.01630688588217441 
0.0005639945101342449 
0.03427796906868474 
-0.005002054286247697 
-0.001406080351761103 
0.007921952493513591 
-0.01036628495457452 
-0.03520335493793037 
-0.006415504380741501 
-0.0009700721164649291 
0.01505925991621826 
0.000697161160118474 
-0.05914000152160748 
0 
0.004401564599345036 
-0.002359744956296177 
-0.004071867927886561 
0.001025542669962778 
-0.01105765515804138 
-0.01811061621152449 
0.009534911054895083 
-0.009413206924869412 
0.0005926861051113474 
-0.003625134277540581 
0.0002301438760405489 
0.0005926861051113474 
-0.0348733565030205 
-0.001558117427122817 
0.0005291864889674994 
-0.01055486237407767 
-0.002776031170811183 
0.01937934555476921 
-0.001116939798999315 
0.00421256104068976 
-0.004140630817169696 
-0.003606900409730155 
-0.02434198657573497 
0.009706076244733986 
-0.01160407976875757 
-0.004778944466787637 
-0.007287568639036803 
0.002922357092850212 
0.001352746729001773 
-0.00197763210921674 
1.626303258728257e-019 
0.006948034935630038 
0.0006296152192835209 
0 
0.01998017508868435 
0.004158718480560383 
0.01045018302856626 
-0.02472952789421451 
-3.254860874472152e-005 
0.01191267693021289 
-0.01523508444545476 
-0.002685594988903037 
-0.01323586514403249 
0.006485749925123667 
0.01903613201373376 
0.01021196608838368 
-0.01299914589881287 
0.02006395710041346 
0.002274463227825983 
-0.00407186792788656 
-0.003626081287619396 
-0.01168619941388399 
0.001517098352458616 
0.006358572385677499 
-0.009186241147013731 
0 
0.0008392223301126878 
0.008746944622453467 
0.000498822687352678 
0.03475436079661938 
-0.008259930821731539 
0.02053564085117756 
-0.01564853774904482 
-0.00130574889757198 
0.006202002474049434 
0 
0.03772734104188331 
0.0004414819488671099 
0.007016869456542224 
0.008180722425117019 
0.004040493081123087 
0.01085382679043716 
-0.009653717031423325 
-0.006565875133241877 
0.03983806756352102 
0.002736361195251879 
0.02483246421030859 
-2.710505431213761e-020 
0.007069535486420674 
0.01346759749124427 
0.03269211903569953 
0.02310497752470204 
2.710505431213761e-019 
0 
-0.004522206199507712 
0.0008033581667608731 
0.0025356024716386 
0 
0.02355123587480374 
-0.01933226677999731 
4.336808689942018e-019 
0 
-6.505213034913027e-019 
0.0004803171294069872 
-1.084202172485504e-019 
-0.001440128714285237 
0.006132173994663205 
-0.001406080351761103 
-0.0005056604981725562 
-0.003665914478713328 
0.004016171457800211 
-0.0033677409085334 
0.01958336562848542 
0.03925798742933643 
-0.01922855324136319 
-0.001335159574401212 
-0.01010258704704087 
0 
-0.002284051598758195 
0.007756939629661039 
-8.673617379884036e-019 
0 
0.06156204949700441 
0.006616723049325971 
0.0004414819488671099 
-0.002754549154208955 
0.00147508588119227 
-0.005374486519718244 
-0.01037337544455388 
0.001916943201154151 
-1.084202172485504e-019 
-0.006102762454610917 
-0.004708098772749969 
-0.0003616819543205455 
-0.007081882072263148 
-0.02414440243482096 
0.001199576769809563 
-0.001549016689686692 
0.001267221339290738 
0.005293801345167537 
-0.003895178633453532 
-0.008730033054426446 
0.01816674878997996 
2.710505431213761e-019 
0 
0.01442069679235735 
-0.0004486269643540448 
-0.01347161177524362 
-0.03632937143411681 
-0.02154938438511727 
-0.02193843163719733 
-0.01133503258463075 
-0.001389273638046981 
0 
0.0009930499981370812 
-0.006821996423840611 
-0.09504960761853629 
1.084202172485504e-018 
-0.01112763960513119 
0.07073617879184124 
0.00119725612368234 
-0.0101032227256002 
0.0289765093003273 
0.0003403996427600097 
-0.0001303211770831483 
0 
0.01784773875820547 
-0.02156976066648664 
-0.107614779617929 
