solver_type L2R_L2LOSS_SVC_DUAL
nr_class 2
label 1 -1
nr_feature 1447
bias -1
w
0 
0.001145373240194898 
0 
0.001055555186710184 
0 
0 
0 
0 
0.0002266636303063232 
0.001259169349968676 
-0.004859594905886997 
-0.007789926154261852 
-7.217599147193326e-005 
0.04696811963667002 
0.006125717291967064 
0 
-0.002504288472846678 
0.001239050284558703 
0.009233438691857139 
0 
0.01675256699663 
0 
0.002931678827034122 
0.0007903082530973752 
0 
0.0002552443156835474 
-0.001252144236423339 
0.000613003382755554 
0 
0 
0 
-0.01547114197343022 
0 
-0.005875687797102525 
-0.01018014849805202 
0 
-0.01484509507162707 
0 
0 
0 
0 
-0.01367708831145743 
2.608703809519023e-005 
0 
0 
0.02767422540482815 
-0.01499947516524196 
0.0005104886313670947 
0.001171792016641956 
0 
0.00158061650619475 
0 
0.01898943887448545 
-0.01707777904127367 
0 
0.003682887142284422 
0.003145446414132695 
0 
0.0002552443156835474 
0 
0.001465839413517061 
0.0002552443156835474 
0 
0 
0.003192170954372554 
0.002887617284753449 
-0.01707777904127367 
0 
-0.03129608104540409 
0 
0.002393353978561862 
-0.002504288472846678 
0 
0 
0 
-0.02621596231277318 
1.219727444046193e-019 
-0.006692826001528804 
-0.04245094546722805 
-0.04751072078559804 
0.000613003382755554 
0 
0 
0 
0 
0 
0 
0 
0.003717150853676109 
0.0005611648060272463 
0 
0.006170580045873607 
0 
0 
-0.007047479813744482 
0.002343584033283913 
0.01652815914714768 
-0.03374889117493685 
0 
-0.01322739010161931 
0 
0 
0.009526336671417335 
0.01984400173767783 
0 
0.003145446414132695 
0.01141671076734526 
-0.006704933578434012 
-0.01834469948488371 
0.001226357559332408 
0 
0 
0 
0.001465839413517061 
0 
0 
0 
0 
-0.002504288472846679 
-0.03378406015598812 
1.304351904759512e-005 
0.004041375907841416 
0.001259169349968676 
0 
0.05195846688916355 
0.0006183310299183298 
0.001132329721147302 
0 
0.003192170954372554 
0.000613003382755554 
-0.01531341256695793 
0 
0.01395044451756724 
0 
0 
0 
-0.02093982838849887 
0 
0 
0 
5.217407619038046e-005 
0.00688230167095186 
0.002515397019651784 
-0.008299624050167823 
0 
0 
0 
0.001132329721147303 
-0.01250382149854572 
0 
0 
0 
0.002343584033283913 
0 
0 
0 
0.009329842714333056 
0 
-0.01295684432770687 
0 
0 
0 
0 
0 
0.00965600389289006 
-0.01295910226688817 
0.001259169349968676 
0 
0.001042511667662589 
0.02298616256332293 
0 
0 
0 
-0.001297564451807581 
0 
-0.01375596573496906 
0 
0 
-0.03012428902876213 
-0.004361349545150099 
-0.001252144236423339 
0 
0 
0 
0.004537738453989993 
0 
0 
0.001020977262734189 
-0.02508363259162588 
0 
0 
0.001171792016641956 
0.03177118096862455 
0 
0 
0 
0 
0 
0.01885558137713546 
0 
0 
0.0008396670130618774 
0 
0.0006799908909189696 
0.006125717291967064 
0 
0.01806674693657559 
0 
0 
0 
0 
-0.008756199222119537 
-0.01377358660065673 
0 
0.001171792016641956 
0 
0.01661946378048085 
0 
0 
0 
0 
0.05788642004392065 
0.001226357559332408 
-0.001252144236423339 
0 
0 
0 
0.003145446414132695 
0 
0 
0.005018523515870734 
0.03863712055715989 
-0.02746810654919651 
-0.00119321629942682 
0.1142940942573325 
0 
0.005889444692163433 
0 
0.001465839413517061 
0 
-0.0004140407501686226 
-0.01531341256695793 
0.003062858645983532 
0.02093765291235431 
0.001259169349968676 
0 
0 
0.01715042872621879 
0.0002552443156835474 
0.01343298431698281 
0 
0 
0 
0 
-0.03672308578890909 
-0.03094228394686043 
0 
-0.02504417029613123 
-0.009204139587920818 
0 
0 
0.01652815914714768 
0 
0 
0 
0 
0 
0 
0 
0 
0.01685496836787686 
0.003982479207469929 
0 
-0.02315310366678965 
0 
0.01715042872621879 
0.009526336671417335 
0 
0 
0.006999258980700476 
0.01175377896739835 
0 
-0.007101672809652248 
0 
0.02394376386214484 
-0.01322739010161931 
0.003145446414132695 
0 
-0.01707777904127366 
-0.04318051611634934 
0 
-0.001252144236423339 
0 
0 
0.01838982980459878 
0 
0.004363962971014512 
0 
0 
0 
0 
-0.007957077814857352 
0 
0.001485832980275 
0.01853018950877063 
0.01372378088726091 
0 
0 
0 
-0.02621596231277318 
0 
0 
0.006125717291967064 
0.00935375147424892 
0 
0 
0.003192170954372554 
-0.003892693355422742 
0.003145446414132695 
-0.0153368976631397 
0 
0 
0 
5.217407619038046e-005 
0 
0 
0 
0 
0.0004533272606126464 
0 
0 
0.001171792016641956 
0.001133318151531616 
0 
0 
0.003777508049906029 
-0.01707777904127367 
0 
0.0002552443156835473 
0 
0.01314511906282987 
0.001042511667662589 
0 
0 
0 
0 
-0.02210546242742599 
-0.01547114197343022 
0 
0.00905863776917842 
-0.01834469948488371 
0 
0.08065721474526529 
1.304351904759512e-005 
0.0002266636303063232 
0.0002552443156835474 
-0.006704933578434012 
0.001145373240194898 
-0.005067075213583305 
0 
0 
-0.001297564451807581 
0 
0 
-0.05717808076501615 
0 
0.02269873919302129 
0.005644886073037371 
0 
-0.008784961092942408 
-0.06375285034696471 
0 
-0.002093337023137697 
0 
0 
0 
0.001226357559332408 
-0.007951995351497479 
0.01715042872621879 
0 
-0.01986089737809536 
0 
0.0109921760849344 
0 
0.02013184783476485 
0 
0.01091196286131058 
0 
0.0008812912174866962 
0.01507147444555794 
0 
0 
0.003396989163441908 
0.01479034230041886 
0 
0.001226357559332408 
0.000613003382755554 
0 
0 
2.608703809519023e-005 
0.001655515050418141 
0 
0 
0.001171792016641956 
0 
0.003289522276289855 
0 
0 
0.03921045121145707 
-0.1859105574328484 
0.003062858645983532 
0.003192170954372554 
0 
-0.01707777904127367 
0 
0 
0.0007903082530973752 
0 
-0.02596071799708963 
0 
0 
0.001171792016641956 
-0.006004968146081893 
0.004363962971014512 
0 
1.30435190475952e-005 
0 
-0.001252144236423339 
-0.006819665630350177 
0 
0 
0.002981527942584281 
0.001465839413517061 
0 
0.006125717291967064 
-0.01547114197343022 
0 
0 
-0.05099903613800769 
-0.01452310431386056 
-0.01594544932012637 
0.05172764829145531 
-0.0462585765491747 
0 
-0.006251910749272858 
0 
0 
0.001016971883403699 
0.003192170954372554 
0.0004819079459898703 
0 
0 
0.003396989163441908 
0.001297755983346136 
0 
0.001042511667662589 
0.003145446414132695 
-0.02849527000232209 
0.000613003382755554 
0.0006521339398983392 
0.006384341908745109 
0 
-0.002504288472846678 
-0.01322739010161931 
0 
-0.006251910749272858 
0 
0 
0 
0 
0 
0.0002266636303063232 
-0.007047479813744482 
-0.001252144236423339 
0 
-0.00119997016023296 
0.000613003382755554 
0 
0.001171792016641956 
0.001171792016641956 
0.006423323196525497 
-0.0462585765491747 
0.001171792016641956 
0.001132329721147303 
-0.007047479813744484 
-0.01707777904127367 
0 
0 
0.001427036332325504 
0.003145446414132695 
-0.01298993382604868 
-0.008267571243604291 
0.0007903082530973752 
-0.01322739010161931 
-0.01773169610212816 
0.007963070419944349 
-0.001066725461026694 
-0.006251910749272858 
1.304351904759512e-005 
0.0002266636303063232 
0.003062858645983532 
0 
0.00158061650619475 
0.03351299836402111 
0 
0 
0.006290892828265391 
0 
0.001226357559332408 
0 
0.004713895344283865 
0 
0.0001565222285711414 
0 
0 
0 
0 
0.01040204043191897 
0.01831810542734572 
0 
0.008577730822989285 
0 
0 
-0.006704933578434012 
0.03701405953261613 
1.304351904759512e-005 
-0.006251910749272858 
0.003544285951384311 
0.000613003382755554 
-0.02621596231277318 
0.001132329721147303 
0 
0 
0.0002266636303063232 
0.004713895344283865 
0 
0.01859554942733047 
0 
0.001132329721147303 
-0.02684931708400983 
1.304351904759512e-005 
0 
0 
2.608703809519023e-005 
0 
0.00146583941351706 
0 
-0.03246787306204604 
0.006170580045873607 
0 
0.01433678427001647 
0.00138757403683085 
-0.003174920726994537 
0 
-0.006704933578434012 
-0.01590399070299496 
0 
-0.03824556309183516 
0.01392730656342898 
1.304351904759512e-005 
0 
0 
-0.0002096325687607499 
0 
0 
0.003015843653399932 
0 
-0.00625191074927286 
0 
0 
0 
-0.01205559808497735 
0.01225143458393413 
0 
-0.01329939056301734 
0.002598169134664362 
-0.001252144236423339 
0 
0 
0 
0.001132329721147303 
-0.001297564451807581 
0.001132329721147303 
-0.001252144236423339 
-0.04512624682802739 
0.001465839413517061 
0.003924200539478665 
0 
0 
0 
0.05792920328273811 
-0.01017708015097845 
0 
0.001132329721147303 
0 
0 
0.009526336671417335 
0.01035757910127408 
-0.001252144236423339 
-0.006238867230225263 
0 
0 
0 
0 
0.02092567738769885 
0.007905788545926185 
0 
0 
-0.01707777904127367 
0 
0.001171792016641956 
0 
1.304351904759512e-005 
-0.001297564451807581 
0 
0.08831408961411352 
0.0183764354917299 
0 
0.01600988438082238 
0 
0 
0.0002552443156835474 
0.02390726161511405 
0 
0.0002266636303063232 
0.000613003382755554 
0 
0 
0 
0 
-0.007951995351497479 
0 
0.01763385821411669 
-0.007047479813744482 
0.00975300030172366 
0 
0 
0.001171792016641956 
0 
-0.006251910749272858 
0.003753581904790915 
0.001465839413517061 
0.001055555186710184 
0 
-0.01531341256695793 
0 
0.006397243676179932 
0.004713895344283865 
0.002853226077222781 
0.005418463684107197 
0.006783583428629162 
0 
0.004713895344283865 
0 
0.005031531896460518 
-0.01590399070299496 
0.001481251081194655 
0 
0.001042511667662589 
0.001042511667662589 
0 
0.0002682878347311425 
-0.001297564451807581 
0 
-0.01244236199523074 
0 
0.01652815914714768 
0 
0.004317238430774651 
0.00158061650619475 
0 
0.00158061650619475 
-0.005650314333866215 
0.002059483551066287 
0 
0.006125717291967064 
0.006125717291967064 
-0.02385598605449243 
-0.001025480606117016 
-0.01832992327769701 
0 
-0.01547114197343022 
0 
0 
-0.02011480073530204 
-0.006704933578434012 
-0.02504963306331772 
0.002268869226994997 
0 
0.01044549514778477 
0.001655515050418143 
0 
0 
0.01715042872621879 
0 
0 
0 
1.304351904759512e-005 
-0.02516353496358276 
0 
-0.005478576019101604 
-0.01834469948488372 
-0.006508930702193747 
0 
0.001171792016641956 
0 
0 
0.006170580045873607 
0 
0 
0 
0 
0 
0.006081301728475571 
0 
0.0002552443156835474 
0.006170580045873607 
0 
0.01840959807618747 
-0.006704933578434012 
-0.001891285090091124 
0 
0 
0.0003080844895819668 
-0.001252144236423339 
0 
0 
0 
0.001171792016641956 
0 
0 
0 
-0.01171351324544834 
0.01705505543603108 
0.001171792016641956 
0.01239063173188268 
0.01021018803644568 
0.008251188492671025 
0.001042511667662589 
0.006219725901564716 
0.0008424823292877557 
0.00426416601569892 
0 
0 
0 
-0.007277391355389876 
0 
0 
0.00158061650619475 
-0.0462585765491747 
0.01133634073052062 
0.001922637974244678 
0 
-0.01076122684097661 
0.0002136951770937215 
0 
0.0119244862473917 
0 
0 
0.001042511667662589 
0 
-0.01322739010161931 
0.001465839413517061 
0 
0 
0.02484388414025108 
0 
0.001226357559332408 
0 
0.01247163665083757 
-0.01235084017794221 
0.003304849561783724 
0.006436366715573095 
0 
0.05145128617865637 
-0.01414162055031597 
0.0255419481736478 
-0.006704933578434012 
0 
0.01652815914714768 
0 
-0.001252144236423339 
0.000613003382755554 
0.0008396670130618774 
0 
0 
0.01652815914714768 
0.002174841388809892 
0 
0 
0 
0.006125717291967064 
0 
0 
-0.001671409373944839 
0.01047885091006067 
0 
-0.001252144236423339 
0.004324500675519856 
0.002039972672756909 
0.001171792016641956 
0 
0.06417413451970286 
-0.001252144236423339 
0 
0 
0 
0 
-0.02516353496358276 
0.01171792016641957 
0.006290892828265391 
0.000613003382755554 
0.01678663953324444 
0.008210740627292244 
-0.007047479813744482 
0.0007903082530973751 
-0.006704933578434012 
0.02490940077877211 
0.002264659442294605 
0 
0.005504203597381238 
0 
0 
0 
-0.007951995351497479 
0 
0.0002552443156835472 
0 
0 
0.02069181415074811 
-0.001297564451807581 
0 
0 
0 
0 
0.001171792016641956 
0 
0 
0 
0 
0 
0.02275970422749698 
1.304351904759512e-005 
-0.01834469948488371 
0 
0 
0 
0 
0.02767422540482815 
0.009526336671417335 
0.0002266636303063232 
-0.0001198145152760365 
0 
0 
0 
0 
0 
-0.006704933578434012 
0.007552753624292565 
-0.01730218781722112 
-0.2075785251748751 
-0.01834469948488371 
0.002931678827034122 
0 
0.02767422540482815 
-0.001297564451807581 
-0.01709202920299247 
0 
-0.03888776670979011 
0.000117391671428356 
0 
0 
0 
0.00520938178837632 
-0.04603191291886839 
0 
0 
0 
0.009275670822994549 
0.04243051201175144 
-0.01834469948488371 
0 
0 
0.0002552443156835474 
0.01239333416793759 
0 
0 
1.304351904759512e-005 
0 
0 
-0.01531341256695793 
0.001832819920759964 
0 
0 
0 
0 
0.006138760811014659 
0 
0.001132329721147303 
0.0004931888674795174 
-0.0462585765491747 
0 
-0.001284520932759985 
0.04664803001081909 
0.006125717291967064 
0.003145446414132695 
0.002875331588422553 
0.009526336671417335 
0 
0.004289216205315942 
0.005252338149951349 
0 
0.006452187125093254 
-0.03246787306204604 
0.01715042872621879 
0 
0 
0 
0.01372378088726091 
0 
0.0008682476984391009 
0 
0.008307558640695174 
0.03603735284931577 
-0.01274692484335031 
0 
0 
0 
0 
0 
-0.02621596231277318 
0.006170580045873607 
0.000932741559320483 
-0.006704933578434012 
0.003111818734591172 
0.0002266636303063232 
0 
-0.001252144236423339 
-0.006251910749272858 
1.304351904759512e-005 
0 
-0.01551062801399964 
0 
0 
0.001132329721147303 
0 
0.01171431667190369 
0 
0.01652815914714768 
-0.02441061478252395 
-0.01531341256695793 
0.008211336704002436 
0 
0 
0.003396989163441908 
0.001259169349968676 
0.0007903082530973752 
0.01486750633849586 
0.003690130716579307 
0 
0 
0 
0 
0.008299459033696499 
0 
0.009526336671417333 
0.01372378088726091 
0 
0 
0 
0 
0 
0 
-0.0009609172738946625 
0 
0.003192170954372554 
0.003388861120907982 
0.002092260474944403 
0.01395044451756724 
0 
0.001629975266159252 
0.005661648605736513 
0.005674692124784107 
0 
0 
0 
0.0002266636303063232 
0 
0 
0.001042511667662589 
-0.006004968146081893 
0 
0 
-0.01061385803181692 
0.005326898727039419 
0.000613003382755554 
0.001171792016641956 
-0.01834469948488371 
0 
0 
-0.01430089736108666 
0.03012759762225286 
0.001962100269739333 
0.001171792016641956 
0.004494766381547187 
-0.03284052551675118 
0 
0.0007903082530973752 
0.0222303187749821 
0.002391499071115979 
0 
0.001226357559332408 
0 
0 
0 
0.006170580045873607 
0 
0.006472271967234316 
0 
0.05571489959843357 
-0.007047479813744482 
0.004572482746458197 
0 
0 
0.006125717291967064 
0.002637631430159019 
0.003075902165031127 
1.304351904759512e-005 
-0.03415555808254734 
0.004713895344283865 
0 
0 
0.01905267334283467 
0 
0 
0.009427790688567729 
-0.07172891709056364 
0 
0 
0.001465839413517061 
0.001875390766564426 
0 
0 
-0.03327579949418721 
-0.002504288472846678 
0 
0.04946298884916071 
0.0002266636303063232 
-0.01531341256695793 
0.006738720674722617 
0.02767422540482815 
3.913055714278534e-005 
0.01895412735998506 
0 
0.001045598559336161 
0 
0 
0 
0 
0.004277776135279998 
0 
-0.001239100717375744 
0 
0.0006390904208507442 
1.304351904759512e-005 
0 
0.003145446414132695 
-0.01322739010161931 
0.001226357559332408 
0.0002552443156835474 
0 
0 
-0.001252144236423339 
-0.006704933578434012 
0.01372378088726091 
0 
0.001171792016641956 
0 
-0.04224131400485643 
0.007337023518141205 
0.006125717291967064 
0.01204782636427345 
-0.007951995351497479 
0.001132329721147303 
0.01050163473097501 
0 
0 
0 
0 
1.304351904759512e-005 
0.0002136951770937219 
0.003192170954372554 
0.006888006165068917 
8.131516293641283e-020 
-0.01545809845438262 
0 
0.006747576290431009 
1.304351904759512e-005 
0 
0.008486384622988707 
0.005952420479659851 
-0.01322739010161931 
0 
0 
0 
0 
0.001465839413517061 
0 
0.001132329721147303 
-0.01059951722267407 
-0.02498960475344077 
0 
0 
-0.005662421910771424 
-0.01200861083484621 
0 
-0.01547114197343022 
0 
0.003145446414132695 
0 
0 
0.0002397071493539183 
0 
-0.006704933578434012 
0 
-0.01590399070299496 
0.001132329721147303 
0 
0 
0 
0 
0.016574485243269 
0 
0 
0.0006260469018031491 
0 
0.0135585877695425 
0 
0.001132329721147303 
-0.00701602037644489 
-0.006251910749272858 
0 
0 
0.001465839413517061 
-0.006251910749272858 
0 
0 
-0.01547114197343022 
0.003447415270056101 
0.001132329721147303 
0.03636120036666797 
0.002637631430159017 
0 
0 
0 
-0.006704933578434012 
0 
-0.01384757315344087 
0.01121691525748385 
0.009526336671417335 
0.003742039680232191 
0.001132329721147303 
0 
0 
0 
-0.01322739010161931 
0.02027796372920656 
0.009526336671417335 
0 
0 
-0.02332968979054653 
0.00701557636191513 
0.001466064708686327 
0.001269175297968912 
-0.043113130135042 
0 
0.007121771191887329 
0 
0.001132329721147303 
6.521759523797552e-005 
0.001132329721147303 
0.008210740627292244 
0 
-0.01322739010161931 
0 
0 
0 
0 
-0.01707777904127367 
0 
0 
0.0106869600385364 
0 
0 
0.01389029964243185 
0 
0 
-0.01205230738875134 
-0.008299624050167823 
0 
-0.001252144236423339 
0.001042511667662589 
-0.006478269948127684 
-0.001252144236423339 
0 
0.001259169349968676 
-0.02938777484935716 
0 
0.0002266636303063232 
0.186737097410572 
-0.02621596231277318 
0 
0.007205357877528414 
0.005885687360925822 
0 
0.001259169349968676 
-0.0009968999207397918 
0 
-0.0006845610690520266 
0 
-0.001252144236423339 
0.0004663707796602415 
-0.006704933578434011 
0.01715042872621879 
0 
0 
0 
0 
0.001302308616512927 
0 
-0.001297564451807581 
0 
0.001259169349968676 
0.0105772529983521 
-0.02332968979054653 
0.009526336671417335 
0.001442442192995715 
0.02767422540482815 
0 
0 
0.009526336671417335 
-0.007951995351497479 
-0.01110536940882073 
0.005960482561306784 
0 
0.001171792016641956 
0.00811976147575014 
-0.0009968999207397918 
0.002931678827034122 
0.001465839413517061 
0.0004931888674795174 
-0.01322739010161931 
0.02767422540482815 
-0.02516353496358276 
0 
-0.007951995351497479 
0.01652815914714768 
0 
0.0007903082530973752 
0 
-0.01547114197343022 
0 
0 
0 
0.0002266636303063232 
-0.01322739010161931 
-0.03680342247421512 
0 
0.01372378088726091 
0 
-0.002595128903615161 
0.006170580045873607 
0.00798962441289562 
0.0006390904208507442 
0.007678717590996745 
0 
0.006125717291967064 
0.005917040377181345 
0.04455089127781767 
0 
0 
-0.007442362171088014 
0.006891450239017705 
0.001042511667662588 
-0.001168092571289657 
0.01974551220362016 
0.0003074183918739277 
0.006783583428629162 
-0.01589104884463347 
0.001465839413517061 
-0.01387170314019399 
0 
0 
0.006170580045873607 
0 
0.001465839413517061 
0.000613003382755554 
0 
0 
0.003062858645983532 
0 
0 
0 
0 
-0.02621596231277318 
0.003145446414132695 
0 
0.008970250099589698 
-0.007623869500972237 
0 
0 
0 
0 
-0.02337682475379793 
0.0008682476984391009 
0 
0 
0.006125717291967064 
0 
0.00629089282826539 
0.000613003382755554 
0.0007903082530973752 
0 
0.001259169349968676 
1.304351904759512e-005 
0.006290892828265391 
0.0001043481523807609 
0 
0.0002266636303063232 
0.001171792016641956 
0 
0.001259169349968676 
-0.01481311959897907 
0.003145446414132695 
0 
0 
0 
0.004404615764101369 
0 
0.001171792016641956 
-0.01531341256695793 
0.009526336671417335 
0 
0.004969139659967413 
0.003145446414132695 
0.000613003382755554 
0 
0.000613003382755554 
0 
0.05650520785153095 
0.008649650011513932 
-0.02629729301617243 
0 
0 
0.0007903082530973752 
0 
0.007166329489659612 
0.004418528513704962 
0.004713895344283865 
0.0002552443156835474 
0.006384341908745109 
0.0002552443156835474 
-0.006251910749272858 
-0.01834469948488371 
0.001123492014122649 
-0.01531341256695793 
0.0007903082530973752 
0 
0 
-0.0005721533455043694 
-0.004871649994550276 
0.01119499033351195 
0.004713895344283865 
0.0002552443156835474 
-0.01871572200451968 
-0.006251910749272858 
0.004713895344283865 
0 
0.000613003382755554 
-0.007951995351497479 
0.000613003382755554 
0 
0 
-0.009023392341437661 
0.001226006765511108 
0 
0.006125717291967064 
0 
-0.001252144236423339 
-0.006704933578434012 
0.005148180019663807 
1.304351904759512e-005 
0 
0.06860171490487513 
0 
0 
-0.00704747981374448 
0.000613003382755554 
0 
0 
0 
0 
0.06794236034071741 
0.004713895344283865 
0.003192170954372554 
0 
0.007978482124221498 
-0.00125214423642334 
-0.006251910749272858 
0 
0 
0 
0 
0 
-0.001239100717375744 
-0.05821375378177776 
0 
0 
0 
0.001042511667662589 
0.01715042872621879 
0.006352380922273388 
0 
0.000613003382755554 
0 
0 
-0.007512865418540037 
0 
0 
-0.004460756411659408 
-0.02218185002574957 
0.003087378583084035 
0 
0 
0 
0 
-0.03627986715423866 
0 
-0.01329939056301734 
0.1114297991968671 
0.001132329721147303 
0 
-0.02506650256168115 
0 
-0.001252144236423339 
0 
0.03072919310022013 
